#include"constants.h"


const FDATA_T fc_kernel_1[FC_OUTPUT_SIZE1*FC_INPUT_SIZE1] = {
	0.017053811, -0.007155798, -0.062550537, -0.002136651, 0.016124925, 0.069909036, 0.075435542, 0.005366214, 0.001865703, -0.000179886, 0.009333682, 0.024604298, 0.009733800, 0.064035423, -0.028650565, 0.046153072, -0.010714327, 0.002642334, -0.046360038, 0.041077930, 0.015804613, 0.000255508, 0.067771971, -0.062541299, 0.039581489, 0.008698096, 0.013446243, -0.014131791, -0.008633922, -0.030824156, 0.005778000, 0.039011743, -0.001480091, 0.020176779, -0.021974834, 0.063053250, -0.054496314, -0.011594845, -0.007968145, -0.029591681, 0.014248340, -0.023269691, -0.041922171, 0.060661655, -0.069508553, -0.009301928, -0.087013945, -0.019173257, 0.036601767, 0.006079597, 0.073231660, 0.056618739, -0.016729835, 0.050322827, -0.005813811, 0.007318148, -0.071269281, 0.015477743, 0.010467544, -0.014492660, -0.035212509, -0.017427173, -0.002560665, -0.028032605,
	0.037658170, 0.030217845, -0.014072637, -0.028199689, 0.021838846, 0.032993797, 0.030729298, -0.053740129, 0.060160626, -0.041934580, -0.071795002, 0.014442318, 0.043516498, 0.038578965, 0.011366914, 0.035326112, 0.014415937, 0.023404408, 0.042486586, 0.060879193, 0.037117325, -0.017697327, 0.075348847, -0.063169934, 0.048854906, 0.000008108, 0.027541466, 0.031328216, 0.006476516, 0.048453998, -0.001419315, -0.025025548, 0.025653526, -0.023420813, 0.035482619, 0.024682967, 0.028752143, 0.009005880, -0.041451152, -0.036743402, 0.037514176, -0.052991390, -0.076979071, -0.018457213, 0.019388000, 0.005063708, -0.001781657, -0.045966644, 0.027731469, 0.070270680, 0.010721038, 0.002500432, -0.063632511, 0.057627905, 0.067426786, 0.061092157, -0.038308065, 0.041728456, 0.016529962, 0.028429478, 0.024457959, -0.000680351, 0.004104155, -0.017345153,
	-0.065690584, -0.064787410, 0.070338026, -0.026507853, -0.060614411, 0.011181489, -0.034547567, 0.006407931, 0.024814047, 0.041827921, 0.013068705, 0.011651731, 0.018138763, -0.023731686, -0.063846715, -0.025149731, 0.040617850, 0.023678182, -0.019960836, -0.012124965, -0.034213468, -0.056842830, -0.070495054, 0.032296315, 0.002573057, -0.027952952, 0.032232698, -0.008548995, -0.038373128, -0.002546975, 0.055882867, -0.017796021, -0.012425564, 0.018691972, 0.059086092, -0.048281427, -0.010425391, -0.044801395, 0.021223661, 0.044686075, -0.022319337, 0.042486411, 0.068825617, -0.013067611, 0.023452688, -0.054682966, 0.088375859, 0.067994528, -0.033378463, -0.007526686, -0.027281273, 0.027219884, -0.028581208, -0.054985099, -0.023556581, -0.035611246, 0.060350031, 0.009954581, -0.036663335, -0.066804878, 0.024236156, 0.061913084, 0.015493142, 0.007204915,
	-0.003142626, -0.012278448, 0.056103967, 0.012211704, 0.000225805, -0.002252657, -0.036537185, 0.009096740, -0.058689576, -0.021090245, 0.034945421, -0.036397532, 0.035037674, 0.016653547, -0.031717673, 0.000834822, -0.024404055, 0.020862570, -0.046064958, 0.030747205, -0.043986246, -0.044146709, -0.004873600, -0.023629028, 0.000247526, 0.007535092, 0.049721267, -0.074502900, -0.033564806, -0.039570376, -0.007032771, 0.015784610, -0.030760657, -0.025790473, 0.047995292, -0.058125440, 0.060974617, -0.031807616, -0.004235629, 0.052166574, -0.019680170, 0.011750506, 0.045308229, -0.066605181, 0.029830389, -0.010799340, 0.083413690, 0.035052299, -0.002263782, -0.039337587, -0.071921602, -0.045887861, 0.067333646, 0.004445578, -0.004639028, -0.072743572, 0.074502900, 0.018152034, -0.042515945, 0.019559901, -0.008562854, 0.049665328, -0.022092542, 0.008480422,
	0.009332519, 0.025009599, 0.060852583, 0.022936102, 0.011712121, -0.041122478, -0.072489686, 0.052585095, -0.051168866, 0.039991681, 0.029757865, 0.033236939, -0.038667306, 0.025077334, -0.029587628, -0.026128585, 0.020394780, -0.031686135, 0.003788471, -0.037551105, 0.022127310, -0.043254327, -0.044661991, -0.007599697, -0.045470066, 0.004533316, 0.044081312, -0.044825718, -0.064833008, -0.053785555, 0.062994674, -0.004046836, 0.057492267, -0.014057627, 0.037781373, -0.057214856, 0.002451627, -0.052361451, 0.058121100, 0.029079493, -0.055545207, -0.017052235, 0.049122538, -0.017667880, -0.026644491, 0.023154877, 0.018363185, 0.063452758, -0.034469303, 0.002157834, -0.009800562, -0.008097064, 0.057162017, -0.010259602, 0.008568250, 0.000007030, 0.012805682, -0.016896363, 0.022110570, -0.052123167, -0.013973424, 0.006572959, -0.066773035, 0.047265351,
	-0.012300185, -0.051796999, -0.001491096, 0.011462368, -0.050482377, -0.059000704, -0.076369807, 0.038411610, -0.031183986, 0.046265438, 0.036956277, -0.041910198, -0.000802678, -0.051685881, 0.030625945, -0.035359539, 0.037454132, -0.000032213, -0.024181269, -0.046091598, -0.040870424, 0.028332347, -0.036683418, -0.006046333, -0.018552262, -0.010628668, 0.036444858, -0.071652897, -0.036518261, -0.020981615, 0.048847213, -0.019067880, -0.016303301, 0.009490969, 0.040314645, 0.001982298, -0.022852588, 0.028747953, 0.042615205, 0.035042446, 0.011514249, 0.023850596, 0.038697615, 0.014737527, -0.016722275, -0.037192784, 0.008871649, 0.056467831, -0.016459659, -0.068592563, 0.003476856, -0.012318922, -0.028621029, 0.008127280, -0.014761757, -0.059986468, -0.000279651, -0.055113476, -0.051641919, -0.048364691, -0.019068396, -0.009094552, 0.017272310, 0.055744540,
	0.054010481, 0.019994792, -0.041866768, 0.003599886, 0.042416353, -0.001407435, 0.003687665, -0.046318930, 0.006407406, -0.023567706, -0.037447862, 0.054515593, -0.039092652, 0.020772288, 0.059968539, 0.028903360, -0.038068201, 0.057641141, -0.039431658, 0.039631676, 0.042173542, -0.026080586, 0.057641692, -0.018327078, 0.073733255, -0.029592752, -0.014929431, -0.012414677, 0.025444755, 0.039092224, -0.079033911, 0.052777544, 0.019888882, -0.048568666, -0.024854051, 0.007254760, 0.027181797, -0.029080912, 0.005715419, -0.019374736, 0.046496272, -0.047064833, -0.063077502, 0.002463521, -0.017086977, 0.030510986, 0.008984019, 0.012477619, -0.022495830, 0.080235757, 0.065548271, 0.004621192, -0.000599149, 0.065352269, 0.027968442, 0.050674837, -0.028701991, -0.002974531, 0.011391201, -0.012481562, 0.024136124, 0.022290939, 0.076014221, 0.007863619,
	0.021514732, -0.060756389, -0.011943785, 0.043541022, 0.010635415, 0.013776672, -0.076826066, -0.000182685, 0.002931979, 0.053097483, 0.051263895, -0.013928921, 0.013394495, -0.052109320, -0.043690052, -0.003613532, 0.008346324, -0.030805025, 0.032111779, 0.026601598, -0.018855361, -0.032258958, -0.003282146, 0.019620638, -0.015854862, -0.000986562, 0.018780638, -0.044365674, -0.008059419, 0.003132248, 0.021653382, -0.039067354, 0.029988777, 0.004618589, -0.013905796, 0.009767382, 0.047080535, -0.013431449, 0.065663211, 0.010912580, -0.014743513, 0.046453800, 0.008793453, -0.045044824, 0.051760118, -0.036139142, 0.034894787, -0.013659486, -0.051535871, -0.047595371, 0.009061513, 0.019405697, 0.047972307, -0.019996226, -0.052265510, 0.004094745, 0.011507147, -0.052050367, -0.058592364, -0.039406203, 0.046020802, 0.034494098, -0.014800620, 0.060936447,
	0.050943017, 0.028591948, -0.062697679, -0.034884423, 0.048281122, 0.058313902, -0.020999238, 0.003773448, 0.058599249, 0.024323467, -0.066390604, 0.045293078, -0.051464044, 0.016084328, -0.023832567, 0.052018262, -0.024216553, -0.013705844, -0.044544730, -0.004585901, 0.006142958, 0.018709121, 0.033638943, -0.005743323, 0.001483085, 0.031822123, 0.005678855, 0.017312903, 0.015478455, 0.018371327, -0.072624527, 0.057735421, -0.059096102, 0.011703688, -0.049237177, 0.060000189, 0.015930099, 0.011780340, -0.053247526, 0.008418039, 0.039745908, 0.003283666, -0.034981672, 0.070728295, -0.002050829, 0.050848931, -0.067623891, -0.059138916, 0.024330983, 0.017818375, 0.066761091, 0.049347326, -0.043073103, 0.002847580, 0.065282084, 0.061353758, -0.008503437, 0.056849297, 0.050301876, 0.043140378, -0.040743627, -0.013937268, 0.009369758, -0.044185210,
	-0.020754218, -0.011247079, 0.059940234, 0.026527230, -0.029738473, -0.037222587, -0.004378076, 0.023952989, 0.026402820, 0.063339867, 0.064348467, -0.062390260, 0.026131961, 0.005342068, -0.053122312, -0.041668251, 0.034163225, 0.024777927, 0.041518878, -0.034378719, -0.080297023, -0.003374100, -0.065385610, -0.004898435, -0.023704132, 0.051990621, -0.029366048, -0.028375132, -0.029108886, -0.059404850, 0.049255721, -0.048957754, 0.057612777, 0.018577671, -0.032188606, 0.007024671, 0.046652023, 0.025240386, 0.054779254, 0.035728738, -0.014843420, 0.008841450, 0.025249671, 0.011483865, 0.012529023, -0.024004940, 0.044098295, 0.043022353, -0.071130686, -0.076401599, -0.035283297, 0.012628653, 0.009556096, -0.067369521, -0.009483328, -0.019715574, -0.011164208, -0.016930779, 0.031004041, 0.022536883, -0.030386226, 0.007623092, -0.073668294, 0.004556793,
	0.063639365, 0.025278084, -0.030579995, -0.011265080, -0.036091983, 0.019588064, -0.011728442, -0.052579734, -0.010690920, -0.029227003, 0.003779277, 0.042338233, 0.009534634, 0.052649602, 0.061498571, 0.024941966, -0.031525958, 0.022738563, -0.052459620, 0.018844146, 0.051460814, -0.027220538, 0.063486516, -0.038721599, 0.046364442, 0.024917630, -0.056093268, 0.048628263, 0.003853752, 0.051754758, -0.072544895, 0.059439074, -0.066408709, -0.058447603, 0.006329755, 0.014490045, -0.023328252, 0.031136142, 0.003785645, 0.009304905, -0.001412035, -0.059968665, -0.002390264, -0.005382237, -0.030515851, 0.057649136, -0.037748951, -0.004549045, 0.019292431, 0.002066791, 0.000804857, -0.032679278, -0.012471010, -0.019471040, 0.048553299, 0.033111423, -0.003943860, -0.007953730, 0.035738729, 0.048066180, -0.017412376, -0.034970265, 0.016813716, -0.008069731,
	-0.007495768, 0.005252705, -0.019888697, -0.021478597, 0.021041224, 0.008610961, 0.063288145, -0.048817955, -0.006180652, -0.005611740, -0.054238155, 0.054502852, 0.005572389, 0.021395329, -0.010813458, 0.002363132, 0.022386948, 0.044876911, -0.035241488, -0.003631637, -0.015747791, 0.057086136, 0.007052381, -0.070900135, 0.048459295, -0.034249380, 0.012557941, 0.004294218, 0.009820999, 0.059081361, 0.007544989, 0.024076637, -0.050875764, -0.055168223, -0.016088348, 0.017907357, 0.001745920, -0.019199140, 0.018716879, -0.062686704, 0.041574422, 0.006496498, -0.053169809, -0.023936758, -0.031490188, 0.021952739, 0.003485617, -0.028902270, 0.005736785, 0.042825390, -0.006614018, 0.036818549, 0.012555663, 0.042815056, 0.004043807, -0.009352161, -0.021177379, -0.020402005, 0.049531985, 0.064680390, -0.029263625, -0.036760021, 0.049397003, -0.050484791,
	0.001220649, 0.000630118, 0.052106112, 0.049788192, -0.033209082, 0.033424851, -0.033853248, 0.037633285, 0.021881860, 0.047321260, -0.009126741, 0.019353686, 0.038164940, 0.028201133, 0.024377296, -0.029527240, 0.003328973, -0.035031550, -0.015690338, -0.014170066, -0.066198133, 0.020444186, 0.005467512, -0.001808080, -0.044614255, 0.006646402, -0.028009003, -0.050727166, -0.043576967, -0.026199248, -0.010140862, -0.069069646, -0.021920417, 0.017216399, 0.026953593, -0.074218757, 0.044534549, 0.043559931, 0.000390160, 0.040346559, -0.056273017, 0.027106980, 0.057283256, -0.005297751, 0.063050009, -0.013755139, 0.005191637, 0.004348051, -0.020111568, 0.015516623, 0.027719012, -0.033126540, -0.004511094, -0.044999231, 0.013149999, -0.052586991, 0.009393131, -0.031040149, -0.026099954, 0.013126408, 0.032659505, -0.027473249, -0.071401894, 0.049768489,
	0.054403096, -0.009273668, -0.046038620, 0.014672101, 0.048439682, -0.003897220, 0.024866896, -0.040355477, 0.066045210, -0.044734687, -0.013554597, 0.064675935, -0.039683703, 0.019892037, -0.025196612, 0.008562653, -0.036895409, -0.009555439, -0.041001376, 0.014624389, 0.031267419, 0.053648710, -0.010182040, -0.050265823, -0.012697467, 0.019291552, -0.042573862, 0.066753514, 0.070915401, 0.038180638, 0.003780369, 0.063155033, -0.054144535, -0.062193245, -0.014850412, 0.030946031, -0.026258180, 0.030339727, -0.033894371, -0.030439552, 0.006247911, -0.029420342, -0.045599364, 0.071053289, -0.033224855, 0.031600989, -0.010037815, -0.022122085, 0.047495697, 0.077686079, 0.018075330, 0.039656412, 0.017938619, -0.002622921, 0.060316570, 0.056718268, -0.031419754, 0.031350560, -0.016031712, 0.043728899, -0.029692532, -0.064108588, 0.069940150, -0.057732511,
	-0.035535038, -0.002326994, 0.029714778, 0.050871953, -0.031923477, 0.019211419, 0.016167667, -0.045192912, -0.019967753, -0.013469436, 0.046411827, -0.033247158, 0.049489118, -0.050249584, -0.062079702, -0.067665778, 0.020939533, -0.021336306, 0.009203236, -0.016455812, -0.032528404, -0.055973370, -0.049516842, 0.012321795, 0.005256817, 0.006714815, -0.023851305, -0.046153009, -0.015184305, 0.002957439, 0.045867026, -0.001144064, 0.059503201, 0.007849352, 0.050154649, -0.029874889, 0.030753670, -0.001460718, -0.003047080, 0.054350194, 0.009062519, 0.075278379, 0.004512766, -0.023114100, 0.068323858, 0.005755472, -0.001838667, -0.018623982, -0.022022244, -0.043601863, 0.015227900, 0.003816959, 0.042650629, -0.061910633, -0.070717953, 0.014768656, 0.027349118, -0.013355482, -0.034074750, 0.030911621, 0.016280362, 0.019234292, -0.052833259, 0.040593937,
	0.008206242, -0.032377910, 0.003823520, 0.019146279, 0.004701848, 0.002020501, -0.046668425, 0.046956964, -0.061692845, 0.045193061, 0.037056465, 0.003751723, 0.034457695, -0.026202407, -0.052098326, -0.008131262, -0.021008462, 0.024953527, 0.020812932, 0.009132269, -0.060700785, -0.001574616, -0.013132846, 0.054575715, -0.060854927, 0.003321946, 0.010277611, -0.017550183, -0.058754101, 0.003627331, 0.019779110, 0.005032514, 0.022333849, 0.010532592, 0.062414262, -0.072742872, 0.058778066, 0.000250817, 0.042551015, -0.000802748, 0.018869091, 0.071944267, 0.058687154, -0.029003449, 0.012387997, -0.020973884, -0.010035076, 0.024975738, -0.019487269, -0.068883240, -0.023757201, -0.001531555, 0.058889937, -0.025087645, -0.000764734, -0.030709144, 0.052824792, -0.037679955, 0.018666390, -0.008365529, 0.061836801, -0.006196253, -0.074005313, 0.016644873
};
const FDATA_T fc_bias_1[FC_OUTPUT_SIZE1] = {
-0.198171332,
-0.205927476,
0.193733662,
0.263948560,
0.221088231,
0.222579181,
-0.214565456,
0.197986677,
-0.190430462,
0.243141785,
-0.225355655,
-0.212779000,
0.306598008,
-0.188089550,
0.313756347,
0.199598223
};
FDATA_T fc_output_feature_map_1[FC_OUTPUT_SIZE1];

const FDATA_T fc_kernel_2[FC_INPUT_SIZE2] = {
	-0.097170629, -0.088824823, 0.090372629, 0.086902551, 0.078791089, 0.074145019, -0.084621266, 0.092831053, -0.088600680, 0.075129554, -0.076348945, -0.085064821, 0.103473075, -0.083104730, 0.083949484, 0.088951364
};
const FDATA_T fc_bias_2 = 0.160528526;
FDATA_T fc_output_feature_map_2;


FDATA_T lstm_input_feature_map_1[LSTM_BATCH_SIZE1*LSTM_INPUT_SIZE1];
FDATA_T lstm_prev_hidden_1[LSTM_OUTPUT_SIZE1] = { 0 };
FDATA_T lstm_prev_memory_1[LSTM_OUTPUT_SIZE1] = { 0 };
FDATA_T lstm_memory_1[LSTM_OUTPUT_SIZE1];
FDATA_T lstm_hidden_1[LSTM_BATCH_SIZE1*LSTM_OUTPUT_SIZE1];
const FDATA_T lstm_weight_i_1[LSTM_OUTPUT_SIZE1*(LSTM_INPUT_SIZE1 + LSTM_OUTPUT_SIZE1)] = {
	-0.044833533, -0.056604426, -0.162092015, -0.200447366, 0.063882127, 0.003374582, -0.046490282, 0.002302297, 0.098551527, 0.060497280, 0.122659758, -0.019076794, 0.007244099, 0.142248601, -0.174231470, 0.049389638, 0.066101499, -0.076631993, 0.083235063, 0.060691427, 0.090920910, -0.069104798, 0.171731234, 0.005490555, 0.008402911, -0.104731195, -0.009158975, 0.105497047, -0.023308864, -0.102730863, -0.066537336, 0.013104681, -0.006278404, 0.053178694, -0.010279896, -0.004955298, -0.008322070, -0.070008449, 0.083081663, 0.109261632, 0.044202998, -0.021412389, -0.047625657, -0.091105379, -0.005169806, 0.005069429, -0.025982607, -0.096462354, -0.097073719, -0.049629852, -0.003099778, -0.033149820, -0.130967289, -0.001569799, 0.055169325, -0.044431709, 0.009255352, -0.082240611, -0.053715765, 0.051090218, 0.010939305, 0.094238840, 0.158342913, 0.140385106, -0.067683727, -0.007295296, -0.062441844, -0.110482134, 0.140681952, -0.117883362, 0.001691098, 0.133165687, -0.083095081, -0.080955669, -0.137710497, 0.000086846, 0.142075375, -0.000156742, -0.076903537, -0.057420772, 0.062679872, -0.110851176, 0.017883178, 0.015696066, -0.072822250, 0.178884640, 0.080374308, -0.106722236, -0.073793188, -0.095873922, 0.072408810, -0.069807068, 0.107786752, -0.011011519, 0.034406360, -0.022988321, -0.004125786, 0.052512247, 0.129667059, 0.016261851, -0.042806812, 0.010629346, 0.090079725, 0.023163188, -0.020361990, 0.095907681, 0.026956392, -0.099281237, -0.018978596, -0.138110459, -0.012885547, 0.121291898, 0.087703712, 0.041979700, -0.079490535, -0.015600341, -0.142148867, -0.107316703, 0.068404302, -0.020061720, -0.015156722, -0.011758070, -0.012906560, 0.070077986, 0.062059935, -0.083044983, 0.095190823, -0.100043803, -0.015835214, -0.063799828, 0.092182092, 0.072082743,
-0.165755272, -0.172864661, -0.135062218, -0.334716886, 0.236199975, -0.044579104, -0.159024388, 0.084281534, 0.007204473, 0.160878018, -0.130672127, 0.246644184, 0.150521308, 0.035634324, -0.068408564, -0.238925636, 0.022822607, -0.154499188, 0.041501615, 0.281064600, 0.187969401, 0.077037513, 0.060236771, -0.096016541, 0.166869760, -0.271851927, 0.092063092, -0.010600962, -0.110581569, -0.064730726, -0.086250558, -0.147198528, 0.293257803, -0.060791191, -0.036890987, -0.156592131, 0.229737401, -0.127762467, 0.079217039, -0.120436728, 0.163525373, -0.138966069, 0.042699277, 0.154191807, -0.190842301, 0.222455308, 0.190515548, -0.207797691, 0.123032175, -0.012961590, 0.095789991, -0.007149837, 0.053645451, -0.117210999, 0.070486344, 0.218686804, -0.226778567, 0.040434822, -0.179088488, 0.037254956, 0.200885475, 0.032356493, -0.137211114, -0.164168611, -0.023250496, -0.005371062, -0.168698549, -0.159046054, 0.183125243, -0.128173754, 0.161290571, 0.213224441, 0.249782771, -0.006396092, 0.098493904, -0.066524796, -0.004917270, 0.053169157, -0.163853168, -0.173441559, 0.102146976, 0.068706796, 0.004552935, -0.166000828, -0.130031824, 0.398071945, 0.166794151, -0.062937260, -0.173983619, -0.060553718, 0.171388447, -0.133928642, -0.107620530, 0.238709718, 0.055397090, 0.063394338, -0.267742038, -0.096567988, 0.333098799, 0.189768299, -0.051311795, 0.132343531, -0.097156763, -0.159246191, -0.092977539, -0.030026909, 0.182829380, -0.061836820, -0.030764405, -0.133130476, -0.125650153, -0.226820379, 0.042359315, -0.224200279, -0.117118008, 0.102099314, 0.167189464, -0.012472051, -0.021719987, -0.185964033, 0.323691040, -0.005305458, -0.109208182, 0.041014493, 0.063260354, -0.073130995, 0.118393905, -0.270047933, 0.178532630, 0.196528986, 0.172039077, -0.154749781,
0.159722328, 0.034580976, 0.025071511, 0.004913631, 0.009771866, 0.022336654, -0.080855094, 0.012705510, -0.040963516, 0.052275505, -0.127692446, 0.065086037, 0.094112843, -0.119379461, -0.019990655, -0.008507065, 0.039522488, 0.118485473, 0.078541450, -0.010097004, 0.032253783, 0.018721605, -0.043765359, -0.023268361, 0.038855005, -0.038963363, 0.251020998, -0.102045648, -0.072449327, 0.081656516, -0.032185271, -0.098600850, 0.082271285, 0.053145628, -0.053151023, -0.035882507, 0.072383001, -0.036591332, -0.150542945, -0.032509509, 0.145077601, 0.005894754, 0.052371591, -0.001024885, 0.015878003, 0.003908054, 0.083091959, -0.013324291, 0.087235630, -0.057005610, 0.112561636, 0.069564208, 0.112228453, -0.129228383, -0.075014092, 0.027556205, -0.009462500, 0.165684357, 0.031910744, 0.023804193, 0.079871580, -0.021410316, -0.087122388, -0.136427030, 0.058711145, -0.053280100, 0.008505766, -0.029004792, -0.017934399, 0.099534720, 0.157623246, -0.109936327, 0.044140276, 0.054215062, 0.053147908, -0.042322427, -0.033578672, 0.102344804, 0.019429132, -0.014850951, 0.010791828, -0.021900618, 0.009590620, -0.072007596, 0.009474175, -0.027338082, 0.035749055, 0.052836947, -0.031941153, 0.036470480, 0.014039237, 0.099444546, -0.031069133, 0.089626938, -0.127414882, 0.045424558, -0.069064721, -0.010535898, -0.102444753, -0.024753675, 0.031807106, 0.058952458, -0.018661046, -0.120934322, -0.049113270, -0.008178017, 0.031934556, -0.045789402, -0.067761540, -0.017554427, 0.017809920, -0.115844108, 0.002698559, 0.022383787, -0.016464252, 0.079530016, 0.006119919, -0.045835517, 0.015758317, -0.019673115, 0.069762714, 0.074916258, -0.022550207, -0.024311965, 0.010599367, -0.023390215, 0.026654221, 0.067266628, 0.054507542, 0.013087077, 0.050680801, 0.112361945,
0.124212012, -0.036789469, 0.124327205, 0.111149825, 0.147628754, 0.200697139, -0.133980423, 0.166779891, -0.021391604, 0.182277650, -0.066877380, 0.126201347, 0.198075488, -0.032380603, -0.145607829, 0.053141981, 0.238769323, -0.002535101, 0.177622780, 0.018433912, -0.024446128, 0.094948418, 0.055694833, -0.116866387, 0.182059154, -0.187948868, 0.235524476, -0.097933993, 0.019335622, -0.091445349, 0.012557647, -0.007223671, 0.256867588, 0.060845714, 0.228477746, -0.164901748, -0.007828331, -0.119213343, -0.021928804, -0.026820874, 0.202420488, -0.125620842, 0.023032986, 0.127638489, -0.131347001, 0.431944400, 0.041804500, -0.006441695, 0.326793432, -0.140422210, 0.267912239, 0.210267201, -0.133247286, -0.380952358, -0.058233712, 0.011263565, -0.153407276, 0.287030190, -0.003694736, 0.038972117, 0.115710825, -0.057252795, -0.107084692, -0.071047530, 0.070943855, -0.259995937, -0.130821735, -0.203102216, 0.405010492, -0.101243839, 0.209780693, 0.185375899, 0.052687179, 0.104145907, 0.054249182, -0.206205040, -0.047121100, 0.013233787, -0.020032026, 0.028202852, -0.005228105, -0.191789389, 0.049736645, 0.016477516, -0.139848277, 0.290241659, 0.115413770, -0.032796703, -0.017706558, -0.016348647, 0.231126919, 0.137597337, 0.055166841, 0.145734340, 0.025260780, -0.017472291, -0.096427947, -0.256873876, 0.350604743, 0.058199301, 0.167916566, 0.084463485, -0.067303196, -0.212039903, 0.026050488, 0.000158357, 0.179714680, -0.118784450, -0.125342548, -0.156872287, -0.011066806, -0.358470112, 0.220842525, -0.276690036, -0.028970102, 0.029603206, 0.161991343, -0.114012152, 0.019585842, -0.233244434, 0.260349363, -0.047269907, -0.136266470, -0.002978339, 0.104453027, -0.035816398, -0.076741360, -0.153291836, 0.077896304, 0.260472924, -0.064759001, -0.312039405,
-0.021781096, -0.175061405, -0.167763308, -0.030145198, 0.173893690, 0.266734570, -0.069789387, 0.142675892, -0.023858920, 0.250405610, 0.036346573, -0.021583611, 0.148807973, -0.047397178, -0.268173397, 0.106053628, 0.139997214, -0.024364498, 0.112883508, -0.031269252, 0.013980508, 0.150770351, 0.018055543, -0.231909826, 0.136664703, -0.206661209, 0.263001829, -0.025726991, -0.095835127, -0.128455669, -0.089755900, 0.013320619, 0.086073875, 0.064642623, 0.043391865, -0.334618211, 0.014088736, -0.138824359, -0.061962426, 0.056259695, 0.111488439, -0.096094660, 0.040822227, 0.114552483, -0.114695050, 0.153284594, -0.020181378, -0.042886760, 0.141472176, -0.142530188, 0.295227140, 0.070102565, -0.114494428, -0.201611057, 0.057500038, 0.038810715, 0.015137672, 0.327752173, -0.076904334, 0.046065923, 0.112418748, 0.081341870, -0.076063111, 0.027095208, 0.055285085, -0.143617526, -0.087803282, -0.306482494, 0.129651129, -0.150797799, 0.116799623, 0.127449721, 0.063808776, -0.056729414, 0.017378606, -0.053846892, -0.011000159, 0.021530675, 0.005816591, -0.097085774, 0.177999780, -0.141183421, -0.004436379, -0.044632226, -0.128588304, 0.208191574, 0.182227343, -0.001737661, -0.046516996, -0.150227740, 0.203139573, 0.179759368, 0.092700824, 0.061236333, -0.025616167, 0.006918460, -0.048657980, -0.146895170, 0.280770630, -0.058211289, 0.011674248, -0.086873963, 0.054899994, -0.100358047, 0.122647792, 0.066508368, 0.029627491, -0.120809011, -0.184056386, -0.176356062, 0.001416671, -0.240453675, 0.291381449, -0.216883674, -0.038531255, 0.069128655, 0.216668084, -0.045556195, 0.130533844, -0.097239554, 0.157393768, -0.043198597, -0.113918960, -0.000304919, 0.147818536, 0.041647986, 0.016201131, -0.180849016, 0.042060751, 0.326571494, -0.044136673, -0.157536209,
0.122446492, 0.139866859, 0.076313801, 0.005335826, 0.007706187, 0.030555138, 0.034809608, -0.122479357, 0.090798542, -0.008123510, 0.061474439, -0.052162476, -0.042761791, 0.066577345, 0.079931267, -0.038869586, 0.001755115, -0.061645418, 0.033900317, -0.036732640, 0.027544849, -0.085561827, 0.077757277, 0.070068687, 0.000985050, -0.045930315, -0.031402268, 0.138838142, 0.004139496, -0.028425554, 0.016508751, 0.048735086, 0.046316847, 0.024163788, -0.026874440, 0.031396743, 0.018705575, -0.038711205, 0.106486358, -0.006700531, -0.020381406, 0.102619477, -0.050007068, 0.019312590, 0.045020718, 0.158472195, -0.022761120, 0.074417628, 0.033163294, 0.031068332, -0.099866189, -0.027871752, -0.054932855, -0.125641733, 0.021314887, 0.050116748, 0.029945130, -0.119930729, -0.007164206, -0.005743169, -0.019206589, 0.010914957, 0.043144248, 0.079023592, -0.037184410, -0.098992810, 0.072328664, 0.010272025, 0.048217297, 0.020981215, -0.042813905, 0.102803625, -0.053036526, 0.064305715, -0.108410373, -0.006311955, 0.024380662, -0.101620063, 0.017684756, -0.040254947, 0.019843740, -0.018540340, -0.086465679, 0.040388878, 0.050584298, 0.115643762, 0.004770248, -0.097883642, -0.088746965, -0.010531923, 0.023453400, -0.084964432, -0.020639831, 0.036912091, 0.089942902, -0.043505624, 0.012503460, 0.004302416, 0.110829152, 0.011298752, 0.011617406, -0.088298798, -0.048715334, -0.015608151, 0.038151704, 0.062506966, -0.051643740, 0.044443633, 0.085897505, 0.004990312, 0.039570976, 0.129369482, 0.037531495, -0.002460088, 0.092032567, -0.060663182, -0.100902215, -0.048533510, 0.100184180, 0.062081698, -0.017942872, 0.022459893, -0.071920283, 0.042483762, 0.126503766, -0.015208961, -0.022121126, -0.025503336, -0.025819592, -0.097124316, -0.062682524, -0.004074867,
0.043338854, -0.076414257, -0.024306344, 0.115869612, 0.036806181, 0.067245662, 0.027238313, 0.101136938, 0.064283051, 0.170532599, -0.058902003, 0.027090887, 0.190619111, -0.073234908, -0.115772560, 0.058461662, 0.097891502, -0.111959569, 0.074460462, 0.098370813, 0.071701869, 0.059732098, -0.055856213, -0.118069381, 0.176487938, -0.166388288, 0.115799755, -0.023796955, -0.045020938, -0.039761350, -0.052585367, 0.005217581, 0.107310079, 0.121620215, 0.086291075, -0.247120947, 0.039351199, -0.136906594, -0.020729767, -0.000935218, 0.058021788, -0.177357852, 0.023953525, 0.197483629, -0.067165636, 0.067123078, 0.074525863, -0.082129903, 0.091412798, -0.105674304, 0.167557240, 0.102050938, -0.103026256, -0.050408870, 0.039797027, 0.016463563, -0.056759287, 0.185228676, -0.050654333, 0.079937212, 0.069134638, -0.009610130, 0.023860576, -0.093700573, -0.006803029, -0.082810313, -0.142011821, -0.339186311, 0.187075749, -0.157842249, 0.152424425, -0.025559941, -0.053338062, 0.002706118, -0.056845989, 0.000614781, -0.038925435, 0.043902136, 0.015646989, -0.056661267, 0.175547332, -0.022068186, 0.038719360, 0.018396828, -0.181475520, 0.087781876, 0.182797790, -0.007906615, -0.018172093, -0.142226070, 0.246220723, 0.070151374, -0.022018511, 0.057777949, -0.064559028, 0.008907069, 0.016801812, -0.113988519, 0.049162984, 0.023003478, 0.057802215, 0.147481635, -0.024412528, -0.162520722, 0.032735318, -0.046065971, 0.160944492, -0.138513133, -0.023474038, -0.229739457, -0.056669332, -0.230317026, 0.276773602, -0.180842787, -0.085287862, 0.038081117, 0.061594855, 0.029674223, 0.118301444, -0.074145235, 0.052478679, -0.005255423, -0.132951811, -0.029010668, 0.179761365, -0.033096947, -0.108450182, -0.104429387, 0.035581727, 0.265398681, 0.076047502, -0.132379398,
0.032135788, 0.113474935, 0.098222390, 0.074501760, -0.075479493, 0.016510921, 0.031954531, 0.010718389, 0.035543520, -0.035808451, -0.055753957, 0.032525294, -0.050978016, -0.015935503, -0.051157698, -0.008136644, 0.093437359, 0.083937369, 0.005849849, -0.130256608, -0.037968401, -0.000212799, 0.021324089, 0.022427656, -0.078014530, -0.001170138, -0.021284956, -0.073784359, 0.011832759, 0.129352197, -0.040042091, 0.063190810, -0.021050660, 0.007315639, 0.016471779, -0.044026498, 0.031433396, -0.028863279, -0.114383042, 0.064062640, -0.058279522, 0.055414360, 0.033811070, -0.103160873, -0.020926623, 0.019675806, 0.017796632, 0.020684801, 0.003457138, 0.012677802, -0.068913601, -0.063296989, 0.001074430, -0.080371521, -0.118029527, -0.054186538, 0.115672454, -0.018519083, -0.016789014, 0.049922787, -0.032592323, 0.009390257, 0.014942080, -0.106776096, -0.060675234, 0.004321834, 0.143834874, 0.046128348, 0.121386528, 0.039561506, 0.006735578, -0.099616542, 0.007184183, -0.006311562, 0.028258590, -0.044728134, -0.077787094, -0.047526684, -0.025543835, 0.061540700, -0.011474190, -0.005736550, -0.041775830, 0.049442206, -0.037375849, 0.013780341, -0.044199236, 0.019297976, 0.022910142, -0.002832985, -0.062731668, -0.005181859, -0.053819440, -0.031424735, 0.014745920, 0.009894438, 0.036069546, -0.046985269, 0.012593551, 0.001304185, -0.028104775, 0.069357380, -0.010403339, 0.006523205, -0.051061921, -0.022799091, 0.023573659, -0.005617721, -0.078312308, 0.003120404, 0.034853652, -0.124486282, 0.007188685, 0.040442839, 0.010225578, -0.019670788, 0.055926397, -0.065538771, 0.025094494, 0.022699250, 0.001200369, 0.093111441, -0.028003279, -0.025213854, 0.014209855, 0.022295356, 0.004848800, 0.024286110, -0.100505643, -0.079356655, -0.048860796, -0.064010128,
0.094331741, -0.103055149, -0.012242354, 0.085221365, 0.049569272, -0.029206742, 0.007172622, -0.015884865, -0.029247470, -0.015094565, 0.002959747, 0.001023722, 0.066215135, -0.003341272, -0.014521117, -0.078940205, 0.042170484, -0.099361472, -0.018112881, 0.073819526, 0.003673954, -0.078960322, 0.097797722, -0.060063228, -0.035276163, 0.055693202, 0.024332432, 0.012795101, -0.049825963, -0.015685532, 0.037571136, -0.026454091, -0.078034781, 0.008912758, 0.071163975, 0.012800883, 0.055250250, -0.005866013, 0.012513345, 0.062492155, 0.048412152, 0.035778396, 0.050580870, 0.081421882, 0.034768958, 0.060570817, -0.111183502, 0.027668929, 0.029973011, 0.038132567, 0.071049526, 0.076202244, 0.023779627, -0.042863727, 0.060815930, 0.050173152, -0.027286483, -0.096357487, 0.017549232, 0.016398318, 0.078926258, 0.027616678, -0.042213131, 0.024708310, -0.004778374, 0.052898444, 0.060817745, -0.003727391, 0.111484766, 0.043056235, -0.065678596, 0.010140109, -0.005878160, 0.014989005, 0.043084074, -0.025288416, 0.094707094, -0.047735121, 0.104407355, -0.008839296, -0.032084282, 0.026512150, -0.016086999, 0.023052642, -0.001945378, -0.033936877, 0.062777624, -0.021584678, -0.055018667, -0.047193322, 0.027610451, -0.067749441, -0.021339064, -0.007590893, -0.018596718, 0.012166147, -0.017985448, 0.017846050, 0.024130665, 0.012700256, -0.008888461, -0.039912459, 0.032268930, 0.058124352, -0.025690433, 0.074183658, 0.021349022, -0.057013355, 0.016867515, 0.009912345, 0.028447110, -0.056694362, -0.068408422, -0.006223715, -0.047423083, -0.024376653, 0.000381867, -0.092657536, 0.049570899, -0.023686439, -0.018334614, 0.042269036, -0.042394333, 0.029632926, 0.041061774, 0.011865934, 0.110063396, -0.023951760, 0.023900578, -0.049251780, 0.002766550, -0.068714499,
-0.021440439, -0.033347491, 0.143071428, 0.062831037, 0.130754709, 0.136240810, -0.131061465, 0.224829108, -0.002381204, 0.132162064, 0.001389355, 0.178768441, 0.184175521, -0.124554932, -0.244150445, -0.062234107, 0.178063810, 0.011060203, 0.012226262, 0.072828576, 0.048586138, 0.113990374, 0.070760049, -0.101932250, 0.129990399, -0.134779468, 0.177679345, -0.081229866, -0.030673172, -0.003343492, -0.145387709, -0.014170375, 0.372084349, 0.022004327, 0.053456582, -0.210289493, -0.024563950, -0.136040121, -0.130716071, -0.112027176, 0.179225013, -0.181612194, 0.050370187, 0.147561863, -0.148360103, 0.412859142, -0.002934119, -0.120842755, 0.320887327, -0.051984850, 0.274561226, 0.096652865, 0.018036982, -0.167348579, 0.096811652, 0.054269847, -0.169691488, 0.212988496, -0.036875281, 0.113374531, 0.084748164, -0.016565111, -0.117871016, -0.181223825, 0.048756316, -0.218322575, -0.083805643, -0.252439201, 0.302887022, -0.149958894, 0.175736338, 0.126620293, 0.172861129, 0.019455981, 0.039238673, -0.180271715, -0.016607651, 0.068203211, -0.039502464, 0.042592939, 0.079381377, -0.095480330, 0.021549024, -0.060515385, -0.145194337, 0.376263678, 0.180821061, 0.061402030, -0.114775211, -0.162659705, 0.188836113, 0.136324421, 0.038445838, 0.256590247, -0.038961537, 0.044660226, -0.065125890, -0.153321683, 0.264981210, 0.020596003, -0.011637084, 0.107903972, -0.014503713, -0.178685740, -0.045850631, 0.022961946, 0.079234198, -0.081738546, -0.090047352, -0.123477593, -0.042935029, -0.269963056, 0.152486920, -0.266639918, -0.069865085, 0.043700561, 0.108526580, -0.005030899, 0.038533516, -0.175908923, 0.205572709, -0.048806731, -0.110067613, 0.055127833, 0.124580249, -0.025192063, -0.038912468, -0.142633632, 0.057816792, 0.235097572, 0.060258374, -0.140276715,
0.120196074, -0.049953390, 0.063900448, 0.136429757, 0.045296244, -0.095540486, 0.054794330, -0.120143846, -0.034554049, 0.011619839, 0.037966736, -0.048738848, 0.002359172, 0.002986772, -0.077623442, 0.015889533, 0.020294411, -0.022039769, 0.060907334, -0.043030903, -0.005987635, -0.164872050, 0.128299356, 0.001880511, 0.007827840, 0.125227690, -0.115729347, 0.047757931, 0.036506150, -0.100143015, 0.063137405, 0.033649649, -0.119180791, -0.030733047, 0.097141132, 0.085759193, 0.023011172, 0.000022638, 0.125574365, 0.137148336, -0.078117676, 0.140174180, 0.049691919, -0.001007003, 0.030562960, -0.008802219, -0.064710565, -0.079085626, -0.024712682, -0.051410466, -0.089201242, -0.102968425, -0.115574844, 0.040356837, 0.052476659, -0.026911732, -0.008502014, -0.063162312, -0.015540713, 0.000960197, -0.001003895, 0.004560901, 0.079846196, 0.056425590, -0.070965417, -0.059466124, 0.034351055, 0.075465687, 0.075246476, -0.059532326, 0.022330657, 0.165372863, -0.058288749, -0.103111498, -0.168952703, 0.005723508, 0.122499369, -0.095013671, -0.040722895, 0.009615443, -0.002512798, -0.035883632, -0.078951627, 0.099247344, -0.048000108, 0.192233711, 0.018390073, 0.036291163, 0.065106899, -0.091196261, -0.025014626, -0.022924367, 0.016091552, -0.105647713, 0.027354527, -0.023528041, -0.007405433, -0.001910464, 0.256454378, -0.011903437, -0.028575798, -0.024885425, 0.049519427, -0.006787821, 0.076431327, -0.037931323, 0.058859047, -0.048308153, 0.117482021, -0.018113125, 0.107401662, 0.179623663, 0.071699150, -0.012742465, 0.032236483, -0.043499257, -0.095729910, 0.018414252, -0.046696693, 0.051082157, -0.097042911, -0.091054082, -0.005248569, 0.026724620, 0.035308763, 0.057045728, 0.061340939, -0.007513079, -0.059089191, -0.078617431, -0.025427436, 0.064693958,
0.108824670, 0.065142468, 0.133788064, 0.183963969, 0.095479198, 0.008026496, -0.002278766, 0.135425165, 0.045529302, 0.070978671, 0.003803409, 0.157881171, 0.053186700, -0.065822847, -0.130259171, -0.067378730, 0.060334906, -0.041075137, -0.012078220, 0.121636167, 0.008431233, 0.137710452, -0.051798705, -0.166169971, 0.065089121, -0.176409602, 0.117211200, -0.111175910, -0.083425738, 0.113916636, -0.096911602, 0.030725444, 0.155977294, -0.025655342, -0.002084916, -0.045333382, 0.132529706, -0.194437772, -0.001062733, -0.096577317, 0.106937602, -0.153446689, 0.059694208, 0.138579771, -0.174873486, 0.056893852, 0.100676060, -0.070776276, -0.064757258, -0.121571839, 0.096745268, -0.076450400, 0.070078641, -0.071312845, 0.051152457, 0.016812002, -0.076340333, 0.101240441, -0.016560614, 0.119862631, 0.036058329, 0.010355980, -0.083190858, -0.140052468, 0.052673943, 0.072061159, -0.066867523, -0.181000605, -0.012717337, -0.089551151, 0.194807976, -0.112601347, 0.075608790, -0.003485027, 0.052345797, 0.027230619, -0.016304085, 0.032864969, -0.089056879, -0.075924799, 0.038556874, -0.038954336, -0.022753939, -0.067283519, -0.044178430, -0.065421835, 0.110172875, 0.054902144, -0.122218929, -0.000117871, 0.078675590, -0.067100435, -0.028247140, 0.156357586, -0.136501580, 0.064572550, -0.113725550, 0.083550617, -0.149813384, -0.011117267, -0.079605684, 0.266606867, -0.087660678, -0.039036371, -0.049611017, -0.053050458, 0.044364415, -0.078285821, -0.053351853, -0.049437623, -0.036903899, -0.081781484, 0.070478760, -0.133325920, -0.026512071, 0.107620403, 0.084607370, -0.044275519, -0.038706500, -0.090690240, 0.097561061, 0.088151075, -0.115972012, -0.085728191, 0.007041283, -0.071308814, -0.056348436, -0.146703675, 0.102626659, 0.150398642, 0.103300974, 0.060457915,
-0.021877589, 0.028582454, -0.106324799, -0.102664553, 0.088674977, -0.025157146, -0.022904914, -0.120761558, 0.083740927, 0.049546555, -0.020701075, -0.028266262, 0.003199687, 0.067509316, -0.055529274, -0.066142306, -0.157548428, -0.077904582, -0.051967010, 0.042304114, 0.096896231, -0.130592197, -0.008654235, -0.093453854, 0.031170854, -0.076038249, -0.072888270, 0.145915538, -0.074166842, -0.097115256, -0.036262356, -0.032643154, 0.040127721, -0.014528587, -0.068036914, 0.030855758, 0.108739734, 0.014454652, 0.110660210, 0.029000830, 0.027576286, -0.010980547, 0.021992525, 0.048032876, -0.029255047, -0.250555396, -0.017714649, -0.059414782, -0.155438229, 0.093280949, -0.022138609, -0.103780083, 0.035680413, 0.204299018, 0.039932925, 0.074002147, -0.022557624, -0.133160308, -0.098137759, 0.056013461, 0.068966448, 0.066243112, -0.004489852, -0.026983313, -0.161580116, 0.119859196, -0.039809708, -0.039484512, -0.169707879, -0.116123721, 0.081592791, 0.028259285, -0.012700075, -0.074061275, 0.038786136, 0.043701138, 0.030776810, 0.003942403, -0.074414946, -0.098961927, 0.091296844, 0.094884709, -0.108757503, -0.007347316, -0.022600081, -0.072034873, 0.075297900, -0.023183990, -0.133947060, -0.042143814, -0.001943123, -0.253985137, -0.008126466, 0.083963312, 0.065248221, -0.037339292, -0.098317377, 0.023940932, -0.067235477, 0.091100238, 0.002709436, 0.132617414, 0.015401375, -0.141124681, -0.168630987, 0.042045563, 0.112519331, -0.042271707, 0.125397071, -0.104192160, -0.055593316, 0.223809317, 0.119666956, -0.071477696, -0.138352692, -0.002411341, -0.007168416, 0.058560338, -0.023849841, -0.043803096, 0.037662491, 0.044266883, -0.096105613, 0.031227538, 0.037127022, 0.032533094, 0.061418302, -0.112209089, -0.017618880, -0.042249300, 0.024577735, 0.071935639,
0.045139551, -0.002059897, 0.130576730, 0.127604634, 0.050787773, 0.008735393, -0.048810314, 0.038790181, 0.035263099, 0.043218132, -0.016449193, 0.010297979, -0.021373253, -0.052875254, -0.054294124, 0.008437701, -0.033143602, -0.069866091, -0.056446113, 0.018567590, 0.012488454, -0.045915302, 0.078085676, -0.046516128, 0.034692362, -0.016721649, -0.035733011, 0.030339204, -0.066055842, 0.030174034, -0.061234087, -0.073881276, 0.109764844, 0.003812146, -0.019459603, 0.031207938, -0.012548440, -0.043812167, -0.024545604, -0.197722375, 0.068232521, -0.081420787, 0.033498164, 0.051345740, -0.063231498, -0.029603954, -0.025523566, -0.034112021, -0.041668780, 0.001517168, 0.047668982, -0.055344082, 0.044944145, 0.009358168, 0.056324787, 0.040920161, -0.080220990, 0.015075573, -0.030562062, 0.048954755, 0.137626857, 0.021108119, -0.030810166, -0.102204487, 0.015748844, -0.007499893, -0.052697212, -0.033773214, 0.014329433, -0.069208309, -0.028102705, 0.030552372, 0.009997569, -0.091872707, -0.009218553, 0.035720356, 0.025321523, 0.005913490, 0.029208159, -0.022108952, 0.063988790, 0.004154377, -0.012709200, 0.011998415, -0.072979935, -0.002619556, 0.116473287, 0.000380039, -0.135799766, 0.012375962, -0.027787136, -0.005997147, -0.023691487, 0.046759021, -0.067493968, 0.001198146, 0.034286533, -0.003966955, -0.011735651, 0.069260925, 0.012639265, -0.066150576, 0.031961441, -0.057451300, 0.009410658, 0.148053020, 0.094248250, 0.010422050, 0.026721299, -0.033021882, 0.019261530, -0.036464252, 0.025109438, 0.039082710, -0.064476304, 0.024337716, 0.012228637, -0.033581950, 0.059702437, -0.021573305, 0.056837324, 0.018350322, -0.024504203, 0.112994172, -0.001023895, -0.048524413, 0.088079177, -0.067041360, 0.002772392, -0.012853584, -0.042757291, -0.036955662,
-0.004941353, -0.106388330, 0.004151334, 0.075217217, 0.062763594, 0.046516091, -0.026307976, -0.006928116, -0.035456102, 0.081549667, -0.022844138, 0.012867724, 0.004181000, 0.003984452, -0.150869176, 0.004295628, -0.001427723, -0.066356309, 0.042594809, -0.066225953, -0.009837043, 0.015079580, -0.078495629, -0.049499042, 0.019046886, -0.072437048, 0.126029670, 0.035438534, -0.010742603, 0.004311820, -0.024189521, 0.026707517, 0.033058465, 0.005940662, 0.080922745, -0.086306147, -0.012357963, -0.101122335, -0.000647860, -0.010858307, 0.080303028, -0.133717626, -0.067344040, -0.023181997, -0.113195471, -0.075889051, -0.012433816, -0.026724031, -0.051037975, 0.012648933, 0.108527541, -0.007160552, 0.019678002, -0.054568693, 0.005809357, -0.032248739, 0.043550037, -0.021365631, -0.061795164, 0.047804479, 0.038708754, 0.079106927, -0.009922670, 0.004606718, -0.020024991, -0.015165802, -0.129501700, -0.187851936, -0.102906339, -0.035300337, 0.047801953, -0.045094762, 0.062295310, 0.004769310, -0.053767383, 0.011557488, -0.007107529, -0.020991858, -0.015269758, -0.124606691, 0.093007810, -0.052818827, 0.099963218, 0.063191324, -0.042718850, -0.118435800, 0.040183634, -0.027681613, -0.057280071, -0.058687422, 0.100788720, -0.033003233, 0.012614170, 0.061959352, -0.039278701, 0.043538384, -0.015844120, 0.028053591, -0.062528245, -0.104403384, 0.036463089, 0.043638226, 0.080639586, -0.123931080, -0.019739227, 0.038717378, 0.035387591, -0.048899598, -0.088436879, -0.084570967, -0.051822368, -0.068798512, 0.124035425, -0.012730507, -0.044954356, 0.069770776, 0.088537298, -0.089214012, 0.105186969, -0.059840478, 0.040232081, 0.083931915, 0.016116910, -0.058177177, 0.029165505, -0.037672926, 0.008164891, -0.089671545, 0.041994546, 0.053089578, 0.027491577, -0.020541493,
0.172386199, -0.013471377, 0.148276165, -0.016882295, 0.090372548, -0.067856364, -0.169447601, 0.054483205, -0.010916267, 0.024097435, -0.088222682, 0.116661206, 0.093671404, -0.007564275, -0.155508846, -0.096770316, 0.055108208, -0.022239096, -0.054436009, 0.124813728, 0.078057982, 0.013905521, -0.131963953, -0.013379663, 0.002451714, -0.009650001, -0.016003523, -0.006442241, -0.094045341, -0.004452237, -0.038279340, -0.058751542, 0.086680405, -0.056830179, -0.004551630, -0.111980356, 0.059309125, -0.005296728, -0.096368082, -0.045146175, 0.075960673, -0.091840610, 0.047025044, 0.082027756, -0.033221845, -0.034020007, -0.007939337, -0.084250875, -0.018081715, 0.048323907, 0.055496570, 0.080688357, 0.028117048, 0.019093072, 0.067030810, 0.067299888, -0.012084940, 0.016417624, -0.072258502, 0.063071616, 0.061810020, 0.037345268, -0.061288111, -0.004007281, 0.120887369, -0.034744252, -0.073469393, -0.000372414, -0.030943079, 0.025906680, 0.073758036, -0.045553006, 0.088650800, -0.013137350, 0.044987347, 0.093626767, -0.052808229, 0.076071091, 0.020440631, 0.039410308, -0.005567096, 0.057190076, 0.016289530, -0.106692724, -0.038176596, -0.051140305, 0.070985273, 0.023170104, -0.068653569, 0.003436450, 0.081071496, 0.002965952, -0.109530017, 0.009895757, 0.042786874, 0.020793682, -0.160382614, 0.016397608, -0.096204691, 0.026935291, 0.036012497, 0.022560246, -0.073864073, -0.054737575, -0.076091483, 0.022318447, -0.017002329, -0.014954452, -0.093956977, -0.075407006, 0.062412158, 0.020062793, -0.017617147, -0.098630212, 0.010203932, 0.078944720, -0.037239306, -0.014944073, -0.091605090, -0.050387722, 0.051834792, -0.006029634, 0.015892342, -0.039956030, 0.018847698, -0.074450590, 0.054249622, -0.009032059, 0.059699241, 0.032914381, 0.075249620, -0.015355590,
-0.134877652, -0.122535840, -0.078149840, 0.058787424, 0.079280443, -0.066641383, -0.102929272, 0.097950131, 0.041581992, 0.002751539, -0.024007214, -0.013725710, 0.038083669, -0.042851802, -0.086516805, -0.133275986, 0.050424170, 0.154430926, -0.088275537, 0.020814275, 0.009095289, 0.040877886, -0.158063799, -0.092049882, 0.005885093, -0.021887975, 0.102207258, -0.001974401, -0.041409764, 0.081456728, -0.028661145, -0.045432299, 0.071191221, 0.020989116, -0.099455945, -0.076055199, 0.027633956, -0.051329371, 0.032441154, -0.100894108, -0.023379482, 0.063345030, 0.030833416, 0.047610443, -0.002499790, 0.043047894, -0.074215375, -0.146920308, 0.002276786, 0.027967455, 0.038035255, 0.032143705, 0.029692082, 0.036328752, 0.018424502, 0.041371524, -0.073595032, -0.011702433, -0.020228263, 0.099460721, 0.067965329, 0.062619820, -0.117654666, -0.046567295, 0.090656802, -0.035735220, -0.115191899, -0.083437219, -0.009185164, -0.047943670, -0.018450752, -0.014759093, 0.032495145, -0.036327690, 0.029172489, -0.023948498, -0.084190473, -0.001735881, -0.055717465, -0.070834525, -0.015912427, 0.042577937, 0.002990390, -0.008411603, -0.056860328, -0.105471879, 0.108653516, 0.028214930, -0.091759227, -0.014419780, 0.051868863, -0.027332732, -0.084273830, 0.038925108, -0.034514610, 0.032875385, -0.161032677, 0.029360171, -0.037426714, 0.038315378, -0.113475375, -0.026135355, -0.041601904, -0.048414454, -0.003777126, -0.044221003, 0.075338550, -0.051529277, -0.010233811, -0.115047410, -0.079479121, -0.094965160, 0.179715067, -0.034490213, -0.060283214, -0.022941755, 0.028482290, -0.032867588, 0.026535790, -0.067493953, 0.056921128, 0.032856338, -0.068481512, 0.068659693, 0.015017804, 0.018565621, 0.001582362, -0.125681862, 0.057308260, 0.077304229, 0.011519439, 0.019288968,
0.077518634, 0.028742420, -0.011850744, 0.040007256, 0.216592297, 0.241797358, -0.116049647, 0.183527321, 0.066119067, 0.243951052, -0.043924049, 0.078156270, 0.318281293, -0.024549117, -0.325120062, 0.164046004, 0.334584624, -0.091046199, 0.149377003, -0.105732083, 0.035565171, 0.076084569, 0.147651151, -0.319243312, 0.198367193, -0.259419769, 0.388384879, 0.036561452, -0.045028385, -0.149140805, -0.020508805, 0.061412901, 0.305911750, 0.183201596, 0.320639580, -0.419989198, 0.076255575, -0.251844406, -0.131230623, -0.032943804, 0.174839407, -0.326496094, -0.071650192, 0.334432811, -0.233160272, 0.443919480, 0.019148391, -0.140342608, 0.369232446, -0.145899147, 0.384330034, 0.342194587, -0.193596467, -0.391295969, 0.022592125, -0.029680604, -0.118297502, 0.378437191, -0.104680255, 0.114529945, 0.158737332, -0.055578671, -0.049924176, -0.022004107, -0.005379743, -0.249510258, -0.179539964, -0.424450368, 0.407470196, -0.202850401, 0.243957594, 0.309671581, 0.002520453, 0.008820103, -0.080475822, -0.301559269, 0.052553229, -0.004593424, -0.027657341, -0.140914485, 0.164969191, -0.216022253, -0.043396313, 0.042004608, -0.231902033, 0.424318284, 0.227936611, -0.100929499, -0.113795079, -0.108489253, 0.363663405, 0.230264485, 0.138080120, 0.148986638, -0.099386662, -0.018938003, -0.024648832, -0.318376333, 0.393680632, 0.045077287, 0.236121640, -0.014631861, -0.027996432, -0.278705388, 0.048959065, 0.062806539, 0.147917241, -0.160538048, -0.250517756, -0.249828860, -0.070174783, -0.376933485, 0.421199232, -0.243116736, -0.000113767, 0.206302166, 0.204104215, 0.009555565, 0.144234866, -0.171525881, 0.263058603, -0.119385727, -0.124177963, -0.052605670, 0.185962185, 0.016996866, -0.116838343, -0.263008654, 0.041441984, 0.482538402, -0.012782829, -0.415222645,
0.094602026, -0.067315556, -0.015543497, 0.086347848, 0.135166317, 0.161024407, -0.149867669, 0.109161407, 0.079651363, 0.198803321, 0.027196821, 0.031503342, 0.192764893, -0.036075108, -0.224032938, 0.197416738, 0.165851459, -0.112093851, 0.139988810, -0.071848854, 0.114149362, -0.024743648, 0.098728292, -0.215706408, 0.172029838, -0.251498044, 0.287551612, 0.109569959, -0.164381102, -0.123703524, -0.004389471, 0.095890097, 0.173521772, 0.065214463, 0.239697233, -0.358990639, 0.098798543, -0.261340708, 0.058317140, -0.016372567, 0.041262299, -0.315919816, 0.007443068, 0.286727875, -0.161193833, 0.339660317, 0.057822999, -0.102480918, 0.278001845, -0.099945195, 0.309810251, 0.207780808, -0.134865612, -0.368522465, 0.094130546, -0.005262624, -0.030239802, 0.195165545, -0.110620804, 0.253871918, 0.143564776, 0.110029466, 0.105676033, -0.015997279, -0.084642209, -0.227276281, -0.297654241, -0.419136256, 0.386697292, -0.197133332, 0.247965187, 0.267826229, -0.006225615, -0.023544313, -0.141727626, -0.222843334, 0.093480840, 0.048440047, -0.017609047, -0.078649588, 0.076954275, -0.185979426, -0.140218958, 0.122487448, -0.170691401, 0.410164118, 0.286651641, -0.020156175, -0.047878113, -0.176948979, 0.216130286, 0.201187119, 0.039208408, 0.051945552, -0.030466393, 0.017008837, 0.065047242, -0.182153761, 0.381854355, 0.006587212, 0.004324217, 0.049611200, -0.068744712, -0.185469314, 0.030445620, -0.046954367, 0.192637235, -0.256422579, -0.097003840, -0.290045768, -0.074148476, -0.207334191, 0.305871457, -0.178692758, -0.121603638, 0.074360326, 0.079127379, -0.017879847, 0.199583188, -0.163095817, 0.258621067, -0.131673291, -0.070167623, -0.047571123, 0.198058948, -0.031683382, -0.053211734, -0.320978463, 0.006714048, 0.472321838, 0.139245495, -0.240952849,
0.026327841, 0.000383606, 0.039769370, -0.021766484, 0.016476681, 0.014152680, -0.018499840, -0.000161854, -0.024655454, 0.033552311, 0.044374716, -0.015191899, 0.043001074, -0.044609308, -0.024279526, -0.042783260, 0.045317974, -0.048848227, 0.012748758, 0.069814518, 0.043923829, -0.028247360, 0.090010226, 0.006773297, 0.012061513, -0.033503883, 0.069128990, 0.009739301, -0.011945308, 0.018552311, 0.022859240, -0.003538483, 0.000675533, -0.023451604, 0.025483852, 0.041602638, -0.097383335, -0.016695311, 0.049040753, -0.078364812, 0.009069884, -0.017196940, 0.000039365, 0.093163103, -0.086421162, -0.003230050, -0.008301808, 0.004125356, 0.019146267, 0.035932533, -0.019085646, -0.025916416, -0.014243395, 0.027609764, 0.077021003, 0.041228756, -0.070972890, -0.091789410, 0.109454997, 0.028417282, 0.013945034, 0.058732033, 0.023797259, -0.016608184, -0.033306632, -0.060327508, 0.015826758, -0.030037805, 0.020772099, -0.050194666, 0.052081089, -0.048881032, -0.017797090, -0.002082993, 0.081588417, 0.040957540, -0.030179879, 0.063552044, -0.072803862, -0.065692872, 0.033793721, -0.021988822, -0.025863437, 0.029958401, 0.003038583, -0.002501564, -0.046332143, -0.079551704, -0.047804378, -0.024572333, -0.003056789, -0.004511255, -0.047422588, 0.015849311, 0.017270392, 0.043385167, -0.044546321, 0.050907899, -0.003046286, 0.049915932, 0.065185785, 0.032827295, -0.013107706, -0.061105844, -0.036574814, 0.072685122, 0.022468416, -0.061067313, 0.005853566, 0.016549734, -0.113454513, 0.000521677, 0.057208128, -0.058634009, -0.022945018, -0.016451137, -0.002533078, 0.024986310, 0.000525869, -0.038167946, 0.087865658, 0.018639278, -0.101532362, -0.018122844, 0.036239766, -0.008375013, -0.029936492, 0.013150713, -0.006551659, 0.004023979, 0.024459010, -0.007876893,
-0.039929330, -0.084436238, 0.012907200, -0.039536469, -0.008649636, -0.090033300, 0.016521309, -0.030806487, -0.003125182, -0.038290739, 0.042474184, -0.166650698, -0.066582464, 0.130747065, 0.041992560, -0.003342819, -0.003900592, -0.018526677, 0.092204139, 0.083592787, -0.063214824, -0.100407846, 0.149917036, 0.095449738, -0.075693138, 0.017246474, -0.067961700, 0.140286267, 0.038987469, -0.039459318, -0.006102991, -0.047208082, -0.056620836, -0.011098180, -0.101698101, 0.023030303, 0.039077543, 0.030905372, 0.083809353, 0.069326311, -0.026304714, 0.024059441, -0.003363285, -0.021704582, 0.003235697, 0.022846101, -0.043477565, 0.096826695, 0.020902332, 0.071259610, -0.054240923, -0.015266886, -0.006461244, 0.010847322, 0.066964932, -0.010374572, -0.041620418, 0.013444345, -0.031493917, -0.022207877, -0.035490867, -0.011278871, 0.050948039, 0.124094881, -0.050639000, -0.004415451, 0.005969832, 0.085974663, -0.085937165, 0.024868162, -0.037832975, 0.010164764, -0.041798837, -0.022575516, -0.124512523, 0.002047020, 0.075131275, -0.016584499, -0.050448343, -0.053879175, -0.043171898, 0.089264736, -0.053601593, 0.014983173, -0.015036368, 0.092078879, 0.003349664, -0.055585384, 0.035653185, 0.047083657, -0.027129950, -0.075239941, 0.182009593, -0.109379388, 0.069837429, -0.041971479, 0.027346835, 0.032964461, 0.074708313, -0.054588810, -0.053421494, -0.023891058, -0.008552386, 0.054279517, 0.060384750, 0.008980719, 0.099211805, 0.043439351, -0.003081874, -0.018955147, 0.013456577, 0.173694387, -0.090644546, 0.050275382, -0.015076680, -0.026266994, -0.013801795, -0.048569679, 0.001598376, 0.068788156, -0.087617405, 0.032094635, 0.030202989, 0.070407510, 0.086528078, 0.036499321, -0.015644824, 0.075993992, -0.097843483, -0.110435918, 0.021370796, -0.046028834,
0.016168654, -0.058256079, 0.023294570, 0.111390196, -0.026904246, -0.030883439, 0.003053031, -0.046408772, 0.073767915, -0.033869956, 0.049626723, -0.036726806, 0.041096017, 0.024630636, 0.011573933, 0.064210340, -0.005957019, -0.038434513, 0.017874569, -0.038996097, -0.027903024, -0.161099285, 0.025630111, 0.000975421, -0.001372490, -0.032186519, -0.025304245, 0.108985767, 0.042160314, -0.025388893, -0.013803262, -0.008466198, -0.058620915, 0.044539180, -0.014783969, -0.023723926, 0.036602210, -0.003377940, 0.036303904, 0.062115144, -0.031376574, 0.096048467, 0.062483717, 0.054929461, 0.001540454, 0.004443461, 0.060764916, 0.053860884, -0.023454720, 0.019180760, -0.082200542, -0.047581770, -0.004354928, 0.015982481, 0.003647408, 0.032621052, 0.074961096, -0.118743166, 0.051687572, 0.039161574, 0.003048323, 0.085808724, 0.055161055, 0.009013657, -0.054265097, 0.065833583, -0.031105414, -0.014059064, -0.034641981, -0.008827257, -0.020661717, 0.045763750, -0.040492870, -0.048326548, -0.055383027, -0.003687001, 0.080133550, -0.022269811, 0.015057187, -0.056352794, -0.043695234, -0.018147949, -0.010043990, 0.054902140, -0.055537771, -0.062111843, -0.059741955, -0.049142960, 0.049075022, -0.047625527, 0.041264266, -0.061088674, 0.005311310, 0.031988721, 0.077412017, -0.026991911, 0.000458845, -0.007249678, 0.184891328, -0.092753664, 0.000687240, -0.076544479, -0.030071948, 0.006494774, 0.021917246, 0.050860580, -0.011036774, -0.068680272, 0.089990616, -0.009046321, 0.075890437, 0.167648211, -0.113861293, 0.100197673, -0.044088207, -0.006001847, -0.122794166, -0.014296363, -0.010798431, -0.004765023, -0.015791116, -0.082102865, -0.034664951, -0.045731835, 0.035232592, -0.022967996, 0.007326683, -0.088238820, -0.096422829, -0.063655995, 0.049632367, 0.014523506,
0.113317624, 0.050475717, 0.130158365, 0.081391111, 0.002278705, 0.083044097, -0.005752078, -0.061395340, 0.092523485, 0.038277633, 0.134598181, -0.065389208, -0.064926155, 0.100441895, -0.126459986, 0.026813162, 0.193580166, 0.026583547, 0.176559895, -0.046940550, -0.046627585, -0.075254530, 0.199597523, -0.049591981, 0.170215577, -0.036393002, 0.046066973, 0.092821941, 0.084628716, -0.140984938, 0.071500070, 0.127150252, 0.174657732, 0.165949702, 0.252718508, -0.082849726, -0.006552111, -0.027442498, 0.053892788, 0.069069929, 0.054424997, -0.001869807, 0.021948619, 0.008741738, -0.063817389, 0.404933780, 0.151092544, 0.021314239, 0.384369731, 0.016507611, 0.059422079, 0.176755697, -0.177722335, -0.331480950, 0.018651184, 0.080698788, -0.065963998, -0.004581186, -0.015601197, 0.078723207, 0.039525446, -0.049548104, -0.061419468, 0.008128160, -0.059090957, -0.205061302, 0.058726139, -0.134019256, 0.336928874, -0.044775713, -0.041475099, 0.204650745, -0.058577899, 0.061527573, -0.099904850, -0.217441902, 0.070860356, 0.032926377, 0.135625795, 0.012339114, -0.015365141, -0.054632075, -0.016874045, 0.017976204, 0.097154558, 0.424289018, 0.014256625, -0.036028784, 0.126791894, 0.047025666, 0.063325606, 0.052053712, 0.052732036, 0.057234760, 0.137773499, -0.040397581, -0.027930703, -0.241709620, 0.281818181, 0.027833322, 0.121888861, 0.139718503, 0.006340522, -0.143700957, 0.160047948, -0.119692400, 0.058729507, -0.073870517, 0.095081374, -0.062940277, -0.010154832, -0.106240720, 0.003667991, 0.028807199, 0.047024060, -0.075824916, 0.082535125, 0.100695506, 0.158289790, -0.011673727, 0.095386125, -0.084092863, 0.010116269, -0.029271608, 0.070398532, 0.034760762, -0.156190798, -0.055598497, -0.037629936, 0.051057030, -0.096372649, -0.247796968,
-0.067996845, 0.098313227, 0.134050801, -0.052765630, 0.079344817, 0.288543880, -0.168931425, 0.268910348, -0.047582969, 0.265273929, -0.093826436, 0.188787714, 0.267465413, -0.133625612, -0.368447423, 0.061322838, 0.261396259, -0.138128862, 0.079283692, 0.041644335, 0.154478684, 0.184726238, -0.016726004, -0.328192949, 0.216264874, -0.219700322, 0.274685144, -0.036901820, -0.153220713, -0.058867782, -0.066969626, 0.072577626, 0.306444019, 0.120656617, 0.174214080, -0.486487538, 0.178483278, -0.241360635, -0.177781522, -0.142921090, 0.237133265, -0.359338850, 0.006510084, 0.348434120, -0.234130546, 0.346134245, -0.059925672, -0.196840122, 0.259197801, -0.323512435, 0.423964858, 0.166196704, -0.150130823, -0.210467160, 0.016877573, 0.096563563, -0.097504102, 0.372929394, -0.103664659, 0.145420447, 0.207412139, 0.021703672, -0.129525378, -0.124245740, 0.119071409, -0.275485843, -0.207922429, -0.521200120, 0.271062434, -0.253512055, 0.185550481, 0.144583538, 0.012054578, -0.080878966, 0.029175956, -0.241450399, -0.037488338, 0.064542443, -0.107705377, -0.116451107, 0.099861078, -0.163064539, 0.053918157, 0.018737454, -0.268045366, 0.279123008, 0.246350870, 0.021817939, -0.203433886, -0.163574278, 0.328355551, 0.259884477, -0.039791733, 0.178458184, -0.079521775, 0.056348678, -0.017974520, -0.195477262, 0.223444894, 0.070287980, 0.156529546, -0.034937933, -0.017272085, -0.219265833, 0.058242247, 0.117075577, 0.096768722, -0.204789460, -0.295007169, -0.336255223, -0.048078880, -0.437689453, 0.431813508, -0.300721198, -0.084096439, 0.265902996, 0.183582500, -0.034537096, 0.129795894, -0.327592403, 0.283845723, 0.112805180, -0.214820951, 0.001077687, 0.175965980, -0.157199487, 0.016930487, -0.273361444, 0.089367889, 0.520386934, 0.124165557, -0.284131795,
-0.120487548, 0.070005909, 0.022987118, 0.038024023, 0.046080533, -0.016073901, -0.082030825, 0.021687215, 0.018488983, 0.033920135, -0.027909350, 0.089009628, 0.046725314, -0.037607346, -0.034802094, -0.037993006, -0.020310093, -0.116006367, -0.072430037, 0.036892444, 0.084054805, -0.111660525, 0.017499903, -0.063678667, 0.084416144, -0.104756221, 0.063207142, 0.068203799, -0.103234164, -0.035608556, 0.000376449, -0.008723892, -0.008566185, -0.077325158, -0.011207190, -0.129540324, 0.035314716, -0.007634026, 0.091673084, -0.054996490, 0.060212407, -0.023322986, 0.007316181, 0.019959573, -0.087764591, -0.010340579, -0.034206953, -0.118775070, 0.010943149, 0.043265600, 0.039604928, -0.035917882, 0.010605540, 0.067281798, 0.082785860, 0.066142246, -0.093768805, -0.007272969, -0.110069081, 0.045426067, 0.021342503, 0.006636884, -0.069578223, -0.125669986, -0.028876258, -0.021220202, -0.049938623, -0.013648752, -0.020916741, -0.024796110, -0.017359730, 0.003448942, 0.033465393, -0.095217742, 0.065757543, -0.074658446, 0.158491939, 0.046781406, -0.051410351, -0.026102560, 0.072374880, 0.100642532, -0.102311462, -0.044861294, -0.063256338, 0.125370041, 0.090928756, -0.108730756, -0.022449797, -0.027244683, 0.039049849, -0.077707916, -0.038374260, 0.159399197, -0.000040135, 0.081127129, -0.044977076, -0.075638466, 0.023115501, 0.054988705, -0.093824618, -0.087108694, -0.065868661, -0.025031425, -0.062719330, 0.032031491, 0.129116550, 0.023269758, 0.030790579, -0.054011792, 0.023809729, -0.039361645, 0.049914561, -0.018055372, -0.061974723, 0.082442246, 0.030984543, -0.077030294, -0.041192334, -0.094702326, 0.112989850, -0.029352246, -0.027969597, 0.088698953, 0.063628979, 0.024428021, 0.012548466, 0.023677422, 0.065119505, -0.046681076, -0.013242024, -0.018801909,
-0.022135833, -0.010555582, 0.091807708, -0.093462162, 0.223859891, 0.159769163, -0.061909076, 0.160394564, 0.075913407, 0.304426283, 0.006746576, 0.216445759, 0.241725594, -0.035362430, -0.314084351, 0.073636480, 0.257613897, -0.157659203, 0.134388909, -0.015917530, 0.030988695, 0.032585043, 0.101576962, -0.345529765, 0.229554549, -0.305804968, 0.266528755, 0.021814117, -0.139345646, -0.118009880, -0.136065990, 0.052147232, 0.229223862, 0.029457731, 0.104408212, -0.436127990, 0.124645114, -0.327155650, 0.008459342, -0.058382258, 0.093978606, -0.295566440, 0.088324130, 0.358566821, -0.148748025, 0.395192116, -0.013103766, -0.186884344, 0.260371238, -0.141374171, 0.414607227, 0.130022630, -0.096612439, -0.226437867, 0.087329715, 0.108847305, -0.106732257, 0.295876443, -0.098218173, 0.129961967, 0.228596121, 0.020370066, -0.034898393, -0.128406778, -0.011982236, -0.143337756, -0.262844682, -0.479351461, 0.228911802, -0.343193054, 0.155895665, 0.221871987, 0.092316650, -0.132295117, -0.017855445, -0.131566092, 0.028697710, 0.022011004, -0.015729439, -0.136551470, 0.217074186, -0.066589460, -0.077701658, -0.039186276, -0.200545341, 0.376832902, 0.270733923, -0.008069073, -0.165175259, -0.126834586, 0.258007854, 0.109143026, 0.058944408, 0.071136199, 0.008434827, 0.038939867, -0.049385712, -0.157161400, 0.319105625, -0.028964158, -0.009227605, 0.094745539, -0.046975553, -0.247771099, -0.090743259, 0.099967711, 0.198034361, -0.298694760, -0.134795398, -0.307334334, -0.152066648, -0.388853937, 0.371810138, -0.313646376, -0.173623785, 0.200268090, 0.133010730, -0.076644257, 0.091672607, -0.260066450, 0.248522788, 0.028015636, -0.183060199, 0.021358075, 0.224815667, -0.087050676, -0.009959021, -0.339688867, 0.071697734, 0.382979155, 0.137126327, -0.164996013,
-0.132433698, -0.155421153, -0.039219670, -0.118650734, 0.001901890, 0.024559978, -0.120585077, 0.090870768, -0.068261862, -0.013394942, -0.046002481, 0.181966618, 0.040126242, -0.094704308, -0.115746364, -0.044049751, -0.032401487, -0.056153227, -0.023583274, 0.056978982, 0.013535042, 0.061316662, -0.128930554, -0.071390562, 0.101948902, -0.093440905, 0.045378897, -0.029012477, -0.052325968, 0.088844515, -0.057298061, -0.051200390, 0.092344873, -0.089188285, -0.058914039, -0.107252300, 0.141048402, -0.050582521, -0.115242109, -0.045502651, 0.101321518, -0.138603538, 0.107966729, 0.157206535, -0.149410814, -0.025446130, 0.014438546, -0.080920726, -0.021801393, -0.063954554, 0.118194424, -0.049403038, -0.029589528, -0.082377464, 0.057058334, 0.066228174, -0.181119800, 0.115724042, -0.112252444, 0.099471599, 0.035714172, 0.002903159, -0.005726133, -0.191653624, 0.110900007, 0.010080941, -0.084201247, -0.016377935, -0.025810735, -0.098625295, 0.019584345, -0.138395041, 0.151040405, -0.092794210, 0.101045974, 0.074000910, 0.006372018, -0.052584659, -0.096004426, -0.005996097, 0.047599841, 0.082113877, 0.031867497, -0.097807065, -0.084121160, 0.010605372, 0.077372953, 0.005606185, -0.032120138, -0.056067586, 0.104093432, -0.035004131, -0.088114738, 0.057291884, -0.154632583, -0.015093027, -0.058171496, -0.058251310, -0.151006281, 0.076958798, 0.019197090, 0.040413469, -0.026227584, -0.090792567, -0.104572147, 0.015621165, 0.107528560, -0.010014165, -0.041375823, -0.070205152, -0.082600139, -0.106363058, 0.113071188, -0.093778849, -0.052452933, 0.110122830, 0.057842173, -0.085481949, -0.003819867, -0.174704254, 0.159524098, 0.081142195, -0.067947820, -0.001997037, 0.026180500, -0.028331095, 0.063067600, -0.019455643, 0.060938753, 0.157644510, 0.074576661, 0.029907733,
0.032462869, 0.082285821, 0.004380494, -0.022345869, 0.082020089, -0.079322703, 0.030463146, -0.034949139, -0.009313302, 0.053311978, -0.038905643, 0.036558662, 0.096695684, -0.003420600, -0.145254612, 0.015430032, -0.074033067, 0.002641966, -0.022475490, 0.005845831, 0.067750983, 0.099708602, -0.130792677, -0.111264132, 0.033827685, -0.136952832, 0.119932346, 0.058582760, -0.089729823, 0.009614310, -0.011081628, 0.021248635, -0.030818610, 0.050950348, 0.002684570, -0.060683120, 0.096185841, -0.043104313, -0.070830017, -0.029497169, 0.044694670, -0.123536684, -0.080707185, 0.085631914, -0.055489343, -0.084798217, 0.029694775, -0.108818889, -0.050041329, -0.073450454, 0.105174623, -0.071258843, -0.093154006, 0.201985657, 0.025504827, -0.011539301, 0.028474439, 0.140458986, -0.032744210, 0.209417418, 0.030852124, 0.051947962, 0.105273090, -0.054021619, 0.126927853, 0.071768343, 0.002280275, -0.219996467, -0.103938088, -0.080843031, 0.054605901, -0.055264447, 0.004037081, -0.139973804, 0.012386758, 0.033627287, 0.001242251, -0.061832953, -0.016396595, -0.152673051, 0.034844067, -0.039422903, -0.020136399, 0.007652536, -0.148608088, -0.266844690, 0.232683510, 0.038371466, 0.007819807, -0.108340666, 0.037156396, 0.012692520, 0.036823202, -0.026889924, -0.085431963, 0.007404905, 0.034301054, 0.078550063, -0.154050246, -0.054526553, -0.028726932, 0.201718122, -0.021804987, -0.056818370, -0.010674359, -0.016479116, -0.026405789, -0.156361416, -0.022150751, -0.178360328, -0.063694015, -0.001544719, 0.098088384, -0.058493838, -0.048406176, 0.006856766, 0.051915679, 0.022753397, 0.034614690, -0.099518962, 0.073022768, 0.009145688, -0.055142965, -0.019359993, 0.139047474, -0.135885969, 0.079834096, -0.081395216, -0.053313568, 0.068929084, 0.133848488, 0.070967689,
0.123993434, 0.059873831, 0.198464498, 0.062863886, -0.056194488, -0.013142484, 0.132109314, -0.047173031, 0.107551299, -0.065294109, 0.104434282, -0.146182373, -0.161758214, 0.043401055, 0.104784697, 0.169867694, 0.022787096, 0.084391214, 0.068293795, -0.123192035, -0.106470391, -0.140957966, 0.110949911, 0.101446167, 0.030913029, 0.127357289, -0.214852676, 0.060281362, 0.053724602, -0.037941486, 0.078816794, 0.100006804, -0.195667207, 0.119765095, 0.053517058, 0.172576725, -0.086309589, 0.129889965, 0.069548897, 0.093308181, -0.109680019, 0.094816692, -0.069776781, -0.052514859, 0.114222273, 0.074647687, 0.040024180, -0.003725472, 0.056949306, -0.004343529, -0.086308777, 0.010890123, 0.004519324, -0.065559909, -0.005666181, -0.136433020, 0.142528608, -0.190355584, 0.134358153, -0.029630700, -0.093028873, 0.002613386, 0.176587999, 0.121286161, -0.100847170, -0.076378398, 0.093145236, 0.112617262, 0.002329196, 0.035750039, -0.074167669, 0.097973697, -0.064004265, -0.010486443, -0.119476058, 0.020863686, 0.084050819, -0.178072080, 0.117207207, 0.098992281, -0.055153407, -0.082364343, -0.030127622, 0.146536440, 0.102146246, 0.108568162, -0.156550258, -0.055539310, 0.103516147, -0.073342666, -0.125040814, 0.008112164, 0.148221478, -0.177835256, 0.116696201, -0.124859259, 0.070019633, -0.149265692, 0.206828833, -0.049111579, 0.051880535, 0.141632959, 0.114047110, 0.090198942, 0.111515805, -0.219864294, -0.081472903, 0.072578505, 0.073577538, 0.096209556, 0.068997644, 0.141776651, -0.207298800, 0.114362627, 0.106558397, -0.086764008, -0.151530728, 0.025304750, 0.122011416, 0.116333768, -0.061019376, -0.092398383, 0.091322385, 0.023236457, -0.016805997, 0.036190689, -0.111737713, 0.106776670, -0.134255737, -0.141813278, -0.069011748, -0.086881086,
0.013778614, -0.062907346, 0.063972108, 0.012051730, 0.041288652, -0.093514666, -0.061005559, 0.028934963, -0.081998222, 0.193964347, -0.040561892, -0.044245642, 0.088206656, -0.116070479, -0.121837132, 0.057906631, -0.087584138, -0.003375564, -0.094483741, 0.042624705, 0.100140527, 0.145427614, -0.196186543, -0.043696292, -0.020462150, -0.100355633, 0.073403031, 0.066166632, -0.114877492, 0.071948916, -0.086587727, -0.090157263, 0.017535217, -0.018499037, -0.144980431, -0.073348612, 0.058290303, -0.180217251, -0.028131254, -0.070336476, 0.028379636, -0.108203806, -0.055135354, 0.127031818, -0.081427284, -0.095068268, 0.092758603, -0.148643225, -0.182256877, -0.061608311, 0.141119674, -0.055603057, -0.060509589, 0.127469167, 0.056702305, 0.084764726, -0.027854811, 0.072076924, -0.043953598, 0.061638050, 0.124121644, 0.150506958, 0.026829338, -0.143902093, -0.011703338, 0.113724306, -0.077063389, -0.140333861, -0.115865029, -0.042510021, 0.054825280, -0.205498308, -0.000516935, -0.174594015, 0.055150591, 0.089566000, -0.008785228, 0.064069763, -0.078638315, -0.012656364, 0.159986049, -0.044208162, -0.040518008, -0.015169242, -0.126451015, -0.162029073, 0.149406597, 0.090889327, -0.035213932, -0.112011015, 0.068776034, -0.081006929, 0.018173376, -0.027443685, -0.152523860, -0.029611414, -0.141137838, 0.015161021, -0.251967400, 0.054869160, -0.089234561, 0.205435693, -0.080400057, -0.063866988, 0.000135457, 0.015986497, 0.042942341, -0.004944257, -0.002709171, -0.129040122, 0.004619826, -0.084367886, 0.163905129, -0.093769729, -0.037029706, 0.018518496, 0.109906547, -0.054743737, 0.050263088, -0.089789353, 0.119128034, 0.143153757, -0.023200857, 0.068553016, 0.037606090, -0.041639347, 0.071009286, -0.045098346, 0.034135133, 0.109342150, 0.100271955, 0.145363286,
0.011326491, -0.076744996, 0.014989293, -0.008340829, 0.140617102, -0.024823684, -0.123126239, -0.009750241, -0.062697761, 0.083826996, -0.083003350, 0.021045959, 0.159816027, -0.039098110, -0.097663887, 0.001971481, -0.047275513, -0.062461630, -0.150905058, 0.066170417, 0.089013360, 0.022820728, 0.006454952, -0.194435179, 0.141604424, -0.171362519, 0.109128043, 0.065157019, -0.148889512, 0.157192722, -0.071510464, -0.065340310, 0.051217735, -0.017586507, -0.078658015, -0.052605446, 0.127259195, -0.069255941, 0.083744951, -0.074158534, 0.089878775, -0.091021046, 0.055510949, 0.183342308, -0.085853644, -0.278303564, -0.009987626, -0.160859883, -0.260769516, 0.033182934, 0.135858685, -0.134891495, -0.061213054, 0.148763403, 0.095076717, 0.070884027, -0.041389734, 0.082446977, -0.146240547, 0.152675286, 0.115700521, 0.081259333, -0.022068603, -0.068056740, -0.061988313, 0.154024303, -0.003153301, -0.044713512, -0.215055063, -0.107289419, 0.125682741, -0.052906521, 0.078962237, -0.190241084, -0.038906973, 0.100038603, -0.022082923, 0.012181284, -0.180581421, -0.120449886, 0.133011237, 0.099369645, 0.026264001, -0.015057573, -0.190868333, -0.197593212, 0.151150331, -0.044623956, -0.094863683, -0.146041662, 0.065911956, -0.141230851, -0.043429963, 0.092884295, -0.109434113, 0.038474325, -0.144761682, 0.081432134, -0.128933191, 0.034931809, -0.103690013, 0.184942275, -0.080730952, -0.049647737, -0.002222246, 0.043990847, 0.084841982, -0.066673033, -0.003117085, -0.093706228, -0.089808591, 0.114109568, 0.153010458, -0.103312895, -0.123849697, 0.099866107, 0.013485026, -0.067683794, -0.083580546, -0.116570078, -0.013901161, 0.081472471, -0.079945177, 0.024845410, 0.155496657, -0.109118126, 0.093420371, -0.087181903, 0.109142892, 0.039727658, 0.094085164, 0.194929332,
0.013275432, 0.057539221, 0.044313330, 0.028096549, -0.091438144, -0.033158280, 0.009722108, -0.154396772, 0.054695711, 0.000679160, 0.125027135, -0.104595073, -0.144980028, 0.128927797, 0.058132056, 0.130910888, 0.073477253, -0.006544567, 0.112943940, -0.027242724, -0.044591177, -0.108075649, 0.136216879, 0.111097388, -0.123991542, 0.155589759, -0.173718497, 0.081695780, 0.082426436, -0.049249146, 0.061705720, 0.155454457, -0.140439212, 0.163501889, 0.054432850, 0.096426278, -0.092405453, 0.005568802, 0.089962080, 0.135570139, -0.089313164, 0.080959082, -0.092080951, -0.095855132, 0.088471271, 0.128873080, 0.133787990, 0.034336902, 0.000625041, 0.092496850, -0.108142659, 0.062384065, -0.095956758, -0.048971895, 0.018233949, -0.059034839, 0.083736181, -0.088792674, 0.006377831, -0.029254274, -0.087579802, -0.031524677, 0.079630084, 0.211255789, -0.105337515, 0.008216783, 0.149659991, 0.147127673, 0.119876795, 0.094419695, -0.086714670, 0.122769192, -0.113479935, -0.048636667, -0.143839210, 0.001749714, 0.056039952, -0.154191330, 0.127924815, -0.008171115, -0.064183429, -0.046415940, -0.070695929, 0.132190734, 0.042710222, 0.185470819, -0.200125217, 0.087462261, 0.080182441, -0.042169023, -0.085950993, 0.034329593, 0.026441572, -0.136173129, 0.053898867, -0.075826071, 0.111165993, -0.045519393, 0.206260532, -0.133019730, 0.048509408, -0.024135806, 0.091925189, 0.177231953, -0.010236813, -0.176824763, -0.055648271, 0.072180294, 0.087248556, -0.023888160, 0.044449907, 0.146716356, -0.122537144, 0.180627406, 0.060671169, -0.079581715, -0.048299551, 0.079804212, 0.074384227, 0.170888096, -0.048025902, -0.054164350, 0.051174566, -0.042764284, -0.014337304, 0.121329650, 0.007803229, 0.162988797, -0.042413957, -0.106186904, -0.088697672, -0.114988901,
-0.086090602, 0.013209515, 0.000198286, -0.053108007, 0.051347144, -0.158034220, -0.054714721, -0.086028837, -0.017350579, 0.075772934, 0.075298831, 0.100349896, 0.025537303, -0.054141678, -0.058470640, -0.042883631, -0.075120345, 0.032503944, -0.020699907, -0.009006588, 0.004355282, -0.019058431, -0.086903132, -0.018073652, 0.021724870, -0.070094138, -0.099910006, 0.092336096, 0.013976419, 0.037622865, -0.052506104, -0.089083217, 0.060402837, 0.006800299, 0.020512292, -0.045549855, 0.044289637, -0.035485033, -0.007868346, 0.042823516, 0.038717743, -0.026831154, -0.028233163, 0.108861029, 0.007407584, 0.028922908, -0.115520231, 0.067882307, -0.038236238, 0.020757480, -0.009371925, 0.006086706, 0.023217093, 0.018221147, 0.077323630, 0.098600455, -0.012385864, 0.002433102, -0.007032215, 0.006738988, 0.026533924, 0.048894577, -0.104376599, -0.040536460, -0.052965969, 0.047295790, -0.067507163, 0.005239306, -0.069072708, 0.056455918, -0.001953365, -0.087237611, 0.028444488, -0.024676532, -0.048469540, 0.065466322, 0.061428808, -0.006464817, -0.029051756, 0.016957344, -0.069526553, 0.028303925, -0.058390543, -0.077602707, -0.031776328, -0.099522993, 0.031178290, -0.064375348, -0.157342300, -0.104016207, 0.093752459, -0.046702839, -0.055140644, 0.030041074, -0.049073596, -0.010783135, -0.033981223, 0.028092630, -0.024340322, 0.077983484, -0.002659420, 0.007878722, -0.053462539, -0.085330933, 0.038832989, 0.083787844, 0.039432254, -0.035040759, -0.123152941, -0.064089686, -0.093267329, -0.032050211, -0.006912918, 0.011306860, -0.072368063, 0.129944324, 0.003065363, 0.008107570, 0.039032403, -0.041847717, 0.082605056, 0.047222506, 0.076444589, 0.028719554, 0.048647407, -0.054277331, 0.000380470, -0.030521778, 0.006250811, -0.095046312, 0.048532963, -0.072557896,
0.033811193, 0.027453907, -0.048799548, 0.037349943, 0.029501852, 0.003915640, 0.021768812, -0.018922571, -0.003513926, 0.078121342, 0.016851678, 0.034972124, -0.016794162, 0.013002986, 0.014456909, 0.050229009, 0.000214209, -0.021913348, -0.014009846, 0.098342195, 0.037238888, -0.098144628, 0.053572461, 0.020387398, -0.018173326, -0.068916231, -0.032985494, 0.043730341, 0.063166022, -0.001740097, -0.025951952, 0.049870439, -0.019577205, -0.022555823, -0.084371082, -0.043676775, 0.049397368, -0.052228343, 0.086069167, 0.003553113, 0.046173934, -0.085282914, 0.021076839, -0.049465112, -0.000910152, -0.000527635, -0.119724706, -0.044934880, 0.010712690, -0.062665716, -0.091205172, 0.014051781, 0.012449631, -0.032737996, 0.113972791, -0.107341208, -0.035471547, -0.041185126, 0.051500909, -0.069329485, 0.045618065, 0.022403594, -0.063673489, 0.007617238, 0.090957619, -0.019880848, -0.039076824, 0.019667095, -0.019587077, 0.026968529, -0.126439065, 0.021892026, 0.028224878, -0.025744744, -0.045617338, 0.004414112, -0.052797694, 0.003378960, -0.033088848, 0.043839373, -0.015117231, -0.000075965, -0.072252318, 0.084185556, -0.027725417, -0.066094957, 0.036510821, -0.062542647, -0.026114445, -0.081259735, 0.001954807, -0.031335674, -0.014252196, -0.040332321, -0.027967509, -0.047779698, -0.067294799, -0.006764066, 0.077125177, 0.018620940, 0.046536889, -0.020920914, -0.079213396, 0.044009089, -0.077929169, 0.106661908, -0.027985940, 0.037221838, 0.053859916, -0.011136268, -0.008750385, 0.030509582, -0.056624379, 0.018268030, -0.093832418, -0.113001540, -0.040794190, 0.046865005, 0.011727913, -0.011307304, -0.036805671, -0.096715234, -0.035612538, 0.019821340, 0.022420330, 0.021530470, -0.009222413, 0.001460197, 0.076320529, -0.027191035, -0.005941609, 0.077365160,
-0.034512203, -0.056916680, 0.038677249, 0.044477977, 0.169406235, 0.188669011, -0.194625780, 0.187255770, -0.033446595, 0.271547377, -0.059071686, 0.164165735, 0.209111124, -0.097356796, -0.351798773, 0.029642379, 0.226848632, -0.087512814, -0.027881408, 0.000284657, 0.006612998, 0.134508029, -0.047517881, -0.221348912, 0.145035520, -0.225860730, 0.270725727, 0.004581423, -0.007323503, -0.008016338, -0.072021469, 0.084303498, 0.282788157, 0.104832582, 0.171848625, -0.346827626, 0.068471432, -0.249573529, -0.080972061, -0.055059329, 0.074535832, -0.359435707, 0.056308486, 0.341446549, -0.182495773, 0.319739819, -0.037197702, -0.103502847, 0.263187885, -0.118169121, 0.466188282, 0.182075009, -0.098468713, -0.288732260, 0.130923763, 0.129892483, -0.167171910, 0.297092110, -0.117372505, 0.210001290, 0.205789104, 0.105397217, -0.068458334, -0.109364077, 0.021485731, -0.174811825, -0.252731681, -0.414430082, 0.299093515, -0.206067115, 0.189290389, 0.195626572, -0.033842828, -0.065777056, 0.012899532, -0.104497962, -0.039301928, 0.132798642, -0.086313546, -0.142941386, 0.170862585, -0.090355963, 0.075558923, 0.064667247, -0.238733649, 0.283152282, 0.268989712, 0.009172677, -0.136564583, -0.155813292, 0.316439003, 0.017037136, 0.039615031, 0.120946966, -0.100321978, 0.018135136, -0.064967431, -0.144636735, 0.316522747, 0.002011530, 0.073329777, -0.026388422, -0.049939658, -0.212857783, -0.004849547, 0.133363977, 0.181559965, -0.195530549, -0.198512703, -0.266058683, -0.034370344, -0.425099373, 0.331673026, -0.260856569, -0.122859664, 0.133650988, 0.162664384, 0.034201581, 0.040278103, -0.286954641, 0.178869218, -0.004681981, -0.130904913, 0.044640284, 0.240166783, -0.042712320, -0.070221968, -0.227163941, 0.107248284, 0.451713085, 0.066887677, -0.320360333,
0.151863426, 0.106354222, 0.125517130, 0.041759171, 0.055179235, -0.051492859, -0.128603071, 0.169002548, 0.000892071, 0.017813044, -0.036627337, 0.123658381, 0.095744982, -0.129197598, -0.009976993, -0.058342669, -0.011752062, -0.037100341, 0.005416826, 0.021851297, -0.041722223, 0.099313080, -0.029739907, -0.046305310, 0.027155180, 0.078948952, 0.152909487, -0.044026755, 0.015055778, 0.108476393, 0.060297184, 0.009089842, 0.062302914, -0.120011151, -0.011279088, -0.048145123, 0.000746861, -0.010624965, -0.024301108, 0.002836682, 0.036908027, -0.089243278, 0.070488848, 0.058459822, -0.122625880, -0.033145446, -0.023655418, -0.024143660, -0.074741229, -0.044148605, 0.146463990, 0.038033672, 0.050627261, 0.101445153, -0.011833367, 0.004444128, -0.074833587, 0.110790312, -0.045689020, 0.060673289, 0.055428162, -0.019020028, 0.016871395, -0.164455384, 0.080832481, -0.002134070, -0.049238376, -0.033210840, -0.002541285, -0.017054467, 0.042439763, -0.145366564, 0.027462602, -0.008148564, 0.068605646, 0.003205739, -0.108141460, 0.045061991, -0.130053774, 0.038536247, 0.031076821, -0.011070675, -0.013581783, -0.018920213, -0.073754773, -0.072754383, 0.053516056, 0.086593151, -0.074805364, -0.031891394, 0.030858660, 0.038792972, -0.093274333, -0.028734924, -0.055557989, 0.056586873, -0.057785287, -0.047769085, -0.195174664, 0.032284029, 0.034203716, 0.053080667, -0.034166433, -0.069548316, -0.024182849, 0.034305517, 0.037629917, -0.091316551, -0.094009541, 0.007180927, -0.043689180, -0.141579926, -0.027602239, -0.038544282, -0.115156695, 0.105787881, -0.006451060, -0.116222881, -0.098265290, -0.055067018, 0.021358253, 0.025972115, -0.022549996, 0.080155551, 0.017236561, -0.074623674, -0.006761559, -0.028573507, 0.020882733, 0.068402782, -0.037953679, 0.010493668,
0.176219657, 0.098192230, 0.061312124, 0.080938891, 0.016542293, 0.014329186, -0.108296774, 0.165166408, 0.013337934, 0.007485144, -0.097456679, 0.066660166, -0.008921823, -0.152634084, -0.010358379, -0.061586365, -0.065995462, -0.010981126, 0.007698758, 0.094691180, 0.032480136, 0.009980218, -0.096746683, -0.085720748, -0.008212260, 0.013172689, 0.069531783, -0.081336379, 0.019460516, 0.112512492, -0.004328857, -0.055193841, -0.006038151, -0.085546248, -0.047874544, -0.089504033, 0.007886204, 0.004613772, 0.057050493, -0.002722082, 0.087813318, -0.057872344, 0.083737098, 0.043147277, -0.054189712, 0.042934000, 0.078873135, 0.113172621, 0.047518682, -0.118197277, 0.123054408, 0.067446634, 0.174311340, -0.031777307, 0.051900685, 0.042676266, -0.033155009, 0.157487437, -0.036710754, 0.015047253, 0.055509023, 0.094819069, -0.108329400, -0.134740219, 0.060717333, -0.041305590, -0.067522839, -0.100541145, 0.038797226, -0.056403805, 0.012377842, -0.085127436, 0.080260880, -0.036581945, 0.043540437, -0.062777966, -0.030955736, 0.038256772, 0.063706733, 0.013642815, 0.090168469, 0.029948732, 0.089502200, -0.103201002, -0.024456827, 0.001705738, 0.037472740, 0.084157541, -0.005145134, -0.006678941, 0.059291046, 0.042503912, -0.029591741, 0.026251912, -0.066640712, 0.041027866, -0.043596990, -0.038526140, -0.153792232, 0.067618191, 0.011892074, 0.091472596, 0.057844985, -0.107563011, -0.030147243, 0.006260077, 0.097553268, -0.009683348, -0.095742300, -0.079363555, 0.024665548, -0.162547141, 0.021288892, -0.125315264, -0.025070300, 0.052270330, 0.169944242, 0.036897972, 0.014638469, -0.118423842, 0.013554217, 0.039761517, -0.074225113, -0.006354364, -0.056534193, -0.043757346, -0.046643768, -0.025612108, 0.001022270, 0.074182570, -0.001662216, 0.033957936,
-0.040535375, 0.046442524, 0.124709636, -0.015492023, 0.052090101, -0.033846531, 0.017236335, -0.135344014, 0.055502281, -0.022652624, 0.075705051, -0.095353171, -0.006980632, 0.109447941, 0.015498470, 0.100168668, -0.018542247, -0.036092572, 0.069239795, -0.004776385, -0.001908033, -0.093134627, 0.003344234, 0.039085526, -0.028413016, -0.007885532, -0.081018180, 0.025877502, -0.050675943, -0.030796411, 0.001544164, 0.006203102, -0.068501994, 0.043096557, 0.076969139, 0.063837133, 0.026726050, -0.025687361, 0.079199612, -0.003356571, 0.074428149, -0.001864399, -0.038343482, -0.004636124, -0.043638274, 0.027555065, 0.057985999, 0.065781608, 0.053159829, 0.009826852, -0.029275080, 0.055172283, -0.064684257, -0.004494351, 0.038181737, 0.012479881, 0.045663834, -0.079759851, -0.023359278, -0.081314154, 0.008954474, 0.078561038, 0.090765126, 0.134711862, -0.074699543, -0.024449533, 0.101288654, 0.072205022, 0.049202248, 0.024062889, -0.027851634, 0.082014404, -0.059353780, -0.059545640, -0.017027495, 0.016767176, 0.023053702, -0.041671082, -0.015124370, 0.029703595, -0.009129092, -0.062597491, -0.044743784, -0.001103468, -0.045734886, 0.113688342, -0.019435406, 0.048260998, -0.032923505, -0.039021697, -0.109169036, -0.042517234, -0.031269003, -0.039165746, 0.012046819, -0.036688026, -0.021601927, -0.006556859, 0.138344228, -0.013102516, -0.008853719, 0.011752070, 0.067751460, 0.050285161, 0.010152681, -0.050585683, 0.015195278, -0.044410765, 0.140297547, -0.023359112, -0.026587004, 0.133530304, 0.017389016, 0.145434961, -0.046720348, -0.003850722, -0.051835366, -0.005493570, 0.041175876, 0.016680371, -0.083315797, -0.054438967, 0.032585032, -0.012567215, 0.061821401, 0.021181820, 0.009567695, -0.035352971, 0.082529433, -0.035791680, 0.041606989, -0.089205049,
-0.070115991, -0.079928994, 0.140847579, -0.053162709, 0.121118277, 0.069756664, -0.034977138, 0.106906168, -0.128531605, 0.048412390, -0.079082094, 0.150765106, 0.037606705, -0.081051938, -0.158981934, -0.067911461, -0.015598362, -0.078105904, -0.000039799, 0.085158795, -0.028722353, 0.084245987, -0.193421125, -0.016636359, 0.179173291, -0.153016195, 0.070303917, -0.107781053, -0.089465894, 0.110418633, -0.059362892, -0.099556543, 0.166044682, -0.104564771, -0.074107140, -0.125275642, 0.094577067, -0.144311920, -0.172270417, -0.071609721, 0.135034874, -0.096900344, 0.004190691, 0.074296884, -0.074321099, 0.009482281, -0.029631110, -0.027983189, -0.018868737, -0.007542546, 0.172276556, -0.047295265, 0.077118374, 0.064102441, 0.070643932, 0.119780868, -0.216897517, 0.118332759, -0.064174354, 0.045757793, 0.092717700, 0.042358309, -0.225916088, -0.140856922, 0.023236591, 0.064664118, -0.162950739, -0.137241513, -0.067226455, -0.105693109, 0.022159683, 0.004011545, 0.080498554, -0.091524966, 0.143520653, -0.021326665, -0.069196291, 0.018313592, -0.073033914, 0.067720830, 0.047462001, 0.016004970, 0.051469676, -0.069691643, -0.150318623, 0.131092235, 0.104839101, 0.011577836, -0.091689616, -0.101960547, 0.097134456, 0.002757514, -0.084750503, 0.161776498, -0.178020135, 0.101842202, -0.152681604, 0.107900105, -0.000872398, 0.018262109, -0.068637095, 0.224077523, -0.087493546, -0.074338913, -0.068381332, -0.016324218, 0.117235087, -0.138070062, -0.080915585, -0.162973896, -0.097475119, -0.199077800, 0.181064278, -0.077987783, -0.162820160, 0.087664343, 0.188474670, -0.081735454, -0.035428599, -0.112220921, 0.128052711, 0.041182227, -0.060618047, -0.020102153, 0.139228851, -0.111569867, 0.117491342, -0.196614966, 0.077410020, 0.171249822, 0.187016159, 0.073565409,
-0.017188571, 0.127400279, 0.096889734, 0.033805471, -0.015595147, 0.032172389, -0.009554788, -0.075833589, 0.039856464, -0.007620412, -0.017360330, -0.000864811, 0.071658902, 0.020119658, -0.006757779, 0.019675134, 0.055600502, 0.065693714, 0.031740442, 0.059681457, -0.057590749, -0.058965433, -0.020794593, -0.005030592, 0.037999120, -0.026589960, -0.020285498, -0.090786204, 0.007730592, -0.000405928, 0.020682611, -0.000456364, 0.079790875, -0.019102378, -0.005396644, -0.064427987, -0.007344939, -0.080052733, 0.021759981, -0.016241005, -0.049851220, -0.016943468, 0.094372772, 0.026657522, 0.077266902, 0.174966320, 0.015002816, -0.037126008, 0.115345292, 0.007907909, 0.105774745, 0.114946991, 0.031127213, -0.083677262, 0.096829027, 0.015885035, -0.088280253, 0.063556850, -0.067727223, 0.018755678, 0.094145432, 0.049141172, 0.071045890, -0.033273473, -0.008473333, -0.076840505, -0.053493008, 0.013678810, 0.016399091, -0.042197317, 0.005528995, 0.063791640, -0.000595118, -0.034030881, -0.007534503, 0.056467652, 0.018765301, -0.079406090, -0.062778793, -0.036346607, 0.025519190, 0.018188663, 0.013703294, -0.044379149, 0.004203906, 0.026815912, -0.046181686, -0.006222150, -0.020499455, -0.011829791, -0.058850139, 0.044867370, -0.096275084, 0.087009691, 0.010649913, -0.067556433, -0.080547772, -0.088501774, 0.009344338, -0.031340845, -0.003067302, 0.083226964, 0.017994078, -0.050941020, -0.013988657, 0.007165920, -0.013198828, -0.021271039, 0.010171695, 0.032523263, 0.010049144, -0.057511177, 0.038906801, -0.101333417, 0.022688808, 0.001266361, 0.044096075, -0.005710638, 0.033081159, 0.028662391, 0.054522514, -0.041730810, 0.042084374, -0.022253737, 0.095204152, 0.028710382, 0.040859949, -0.002916370, -0.048148215, -0.034640994, 0.055857144, -0.063720062,
0.071824566, 0.160056308, 0.068992779, 0.015532891, -0.017118869, 0.047602039, -0.036264975, -0.068986095, 0.041798182, -0.041437570, 0.062606886, 0.006912000, -0.029382167, 0.023191901, 0.047556389, 0.118723422, 0.121930435, 0.050423592, 0.011891088, 0.016724266, 0.035594556, -0.004094651, 0.030420775, 0.075383417, -0.004595018, 0.010609196, -0.045885354, -0.000511078, 0.098449096, -0.035247773, -0.061767831, 0.027228447, -0.190368861, -0.001509171, 0.004803347, 0.032699265, -0.014566493, 0.044151664, -0.053752031, -0.018984709, -0.025866944, 0.102113470, -0.008342031, -0.099238239, -0.012110410, 0.019370358, 0.028299052, 0.024701057, 0.044877991, 0.053072482, -0.058735956, 0.085554428, -0.038142141, -0.090478279, 0.039467305, -0.011549436, -0.024682745, -0.030922834, -0.036049902, -0.024679717, 0.005434316, -0.039595410, 0.003054540, -0.081835270, -0.028989740, 0.019417210, 0.053891823, 0.094503298, 0.051510070, -0.032429196, 0.005814071, -0.079465702, -0.057274092, 0.059403334, 0.074047089, -0.041375495, -0.031178733, -0.061625291, 0.058014080, 0.013722603, 0.018706372, -0.017153217, 0.091665760, 0.007229868, -0.043187831, -0.064214543, 0.007244875, -0.020833427, 0.006887721, 0.117626369, -0.104499131, -0.060815711, -0.008295827, -0.011159932, -0.023540352, 0.003973927, 0.055902362, -0.081848837, 0.096133910, -0.007797014, 0.023922525, 0.069346398, 0.053118728, -0.025901172, 0.104434893, -0.018649129, -0.040793832, 0.096127346, -0.021397436, 0.034232773, -0.006728976, 0.021429338, -0.014518845, -0.011138740, -0.008281307, 0.014883081, 0.036483306, 0.074783012, -0.051084314, 0.039000168, -0.065737925, 0.037503213, -0.024101526, -0.043184314, 0.022883464, -0.025443172, 0.010357687, 0.078301422, 0.012255175, -0.102510534, -0.000292799, 0.052054714,
0.430250615, 0.367531389, 0.313188344, 0.337681979, 0.074754424, 0.034598939, 0.028737588, -0.223306566, 0.251040697, -0.000852626, 0.179470643, -0.013644515, -0.070631430, 0.133547068, 0.012418372, 0.064549267, 0.119068615, 0.000212254, 0.017253544, -0.049309365, -0.128118873, -0.249380738, 0.239248991, 0.083613172, -0.083806694, -0.015560282, -0.043022431, 0.324774086, 0.058304280, -0.165995732, 0.117813185, 0.131488308, -0.018692052, 0.098833613, 0.268053144, 0.040876593, -0.061889060, -0.032430246, 0.278239101, 0.091749333, -0.103832997, 0.038360998, -0.030333506, -0.064880528, 0.021263881, -0.017436525, -0.016708620, 0.067541510, 0.027885733, 0.161042958, -0.096387826, 0.084556744, -0.150716409, -0.024770619, -0.129172996, -0.045256704, 0.031849347, -0.075169764, 0.071963631, -0.061492864, -0.039266918, -0.140100569, 0.118139498, 0.096409947, -0.179523498, -0.097644940, -0.004046203, 0.064027220, 0.024752289, 0.039009992, -0.095024474, 0.080620788, -0.049352005, 0.124578841, -0.167475805, -0.086613357, 0.195780516, -0.136926934, 0.153950870, 0.047545176, -0.153299406, -0.132610172, -0.200661302, 0.050461102, -0.033914212, 0.065075897, 0.059861884, -0.119872965, 0.048535854, 0.003876327, -0.029373286, -0.164687693, 0.017617540, -0.006666124, 0.138569832, -0.125056177, 0.034346610, -0.146613523, 0.095565259, -0.074163005, 0.168479890, 0.042225864, 0.029588372, -0.017702524, 0.094014965, -0.058623392, 0.063465975, 0.022633627, 0.111699805, 0.038624920, 0.067670256, 0.309202731, -0.021081131, 0.058671944, 0.133968547, -0.059622929, -0.026762217, -0.011460117, 0.150157928, 0.061783809, -0.036562819, -0.209581792, 0.034943964, -0.180171847, -0.007725864, 0.143466875, -0.084653169, 0.009714562, -0.126126692, -0.096592069, -0.122758776, -0.146949440,
-0.483474940, -0.539682984, -0.574718714, -0.469205886, 0.395446599, -0.090819210, -0.377781868, 0.261149496, -0.134591669, 0.476333022, -0.199114338, 0.427684456, 0.351635009, -0.288416475, -0.482911795, -0.343754172, 0.007988087, -0.357444286, -0.041153416, 0.407874465, 0.234244138, 0.245845065, -0.123724602, -0.356151551, 0.453138769, -0.405613691, 0.408783615, -0.179545179, -0.331432015, 0.027586594, -0.266226649, -0.158804506, 0.463907272, -0.086773917, -0.017709905, -0.404043496, 0.331044316, -0.361760885, -0.232379973, -0.218036875, 0.360688776, -0.368582368, 0.321699858, 0.299120039, -0.325800896, 0.441419095, -0.131744087, -0.368461013, 0.329206288, -0.209049523, 0.477705777, 0.061623592, 0.112457417, -0.222766474, 0.239880145, 0.332021892, -0.432554096, 0.323057890, -0.293168634, 0.347109377, 0.401171058, 0.287424505, -0.224580422, -0.281278044, 0.158282191, -0.127290994, -0.347311378, -0.372308731, 0.300941437, -0.310339719, 0.278584212, 0.310297996, 0.280633986, -0.289447010, 0.178790480, -0.028652929, -0.113814957, 0.219023675, -0.215400025, -0.221335232, 0.348710895, 0.196320355, 0.101873636, -0.217594907, -0.327740520, 0.524500072, 0.358083129, -0.179740340, -0.366204828, -0.381613016, 0.289124608, -0.031332307, -0.196448281, 0.378509879, -0.242305994, 0.165461048, -0.398980379, -0.125027701, 0.452287674, 0.212446272, -0.160593733, 0.174510226, -0.358694255, -0.366453111, -0.142447785, 0.069131792, 0.430485845, -0.417481691, -0.238693938, -0.384767056, -0.273197055, -0.433015406, 0.446120262, -0.416581154, -0.322661161, 0.338834316, 0.273963094, -0.248322025, -0.063889958, -0.359351546, 0.422430009, 0.043966834, -0.388983071, 0.288259536, 0.317713201, -0.153769091, 0.109935246, -0.389114618, 0.410683274, 0.324857354, 0.341610283, -0.129282892,
-0.113266528, -0.184270352, -0.097821556, -0.086244546, 0.073550560, -0.094262518, 0.031822424, -0.100555591, 0.083430074, 0.044200506, 0.034585759, 0.114182912, 0.016446795, 0.064048491, -0.061751466, -0.074388929, -0.123731814, 0.048240356, 0.083809562, 0.083565310, 0.010393633, -0.082280383, 0.115409277, -0.040913731, 0.064557135, -0.098845623, -0.027433455, 0.051511105, -0.029878216, 0.070631608, 0.085413933, -0.008236130, 0.079203807, -0.026860304, 0.020508191, 0.066715188, 0.096910276, -0.024668019, 0.081074491, -0.074693419, 0.102287516, 0.007749167, 0.023833526, 0.012727601, -0.018019486, 0.144955829, -0.069162019, 0.020543419, -0.007340557, 0.094482735, -0.022388047, 0.039416321, -0.018703671, -0.007280517, 0.069447458, 0.076975085, -0.102927528, -0.019983690, -0.079142518, -0.015037298, 0.046725113, 0.002088905, -0.029638382, -0.013691659, -0.062404387, 0.005043371, -0.028824143, 0.003078707, 0.210705966, -0.039538369, 0.019762900, 0.196639404, 0.034585088, -0.066866487, 0.133932039, 0.002912720, 0.116951481, 0.055195838, -0.030773280, -0.094528310, -0.032954186, 0.008303057, 0.005959988, -0.013640946, -0.035964210, 0.225880712, 0.110566974, -0.129750520, -0.036608189, -0.048060235, 0.109555475, -0.061807428, -0.037935328, 0.087848291, 0.024511402, 0.010159218, -0.046495877, -0.127721295, 0.179093495, 0.065929890, -0.035299964, -0.156175196, -0.097861551, -0.069663703, 0.000697989, 0.125538319, 0.092837051, -0.067110166, 0.007377447, 0.016641483, -0.021558527, -0.010468104, 0.097368009, -0.029911412, -0.025878368, 0.037409682, 0.017150892, -0.016575048, -0.035371751, -0.076982625, 0.020410961, -0.070053555, -0.114837706, 0.064990483, 0.065715507, 0.053420015, -0.040620398, -0.102535613, 0.034312792, -0.050148621, 0.041883625, -0.070630901,
0.208089501, 0.242855892, 0.181912661, 0.275350511, 0.015381629, 0.033706546, 0.017508887, -0.157321274, 0.141442016, -0.041399945, 0.111429438, -0.003916605, -0.034411091, 0.106846347, -0.002643833, 0.056004312, -0.073839650, 0.003821909, -0.045846846, 0.010977073, -0.046171334, -0.153254077, 0.165806919, -0.003705567, 0.056088887, -0.042416044, -0.053208023, 0.219481915, 0.032607675, -0.079349987, 0.106698386, 0.119133115, -0.077120394, 0.087930769, 0.139589906, -0.030023562, -0.045615334, -0.011195290, 0.229483366, -0.028834285, 0.027448425, -0.035333600, -0.061698116, -0.053426556, -0.026371568, -0.192735776, 0.010545715, -0.047774721, -0.082152285, 0.085900046, -0.013203470, -0.014293764, -0.100844249, 0.002846862, 0.001151693, 0.060512830, 0.015895084, -0.069433674, -0.030984543, -0.007947242, -0.044774938, -0.027710872, 0.133113265, 0.029406786, -0.103833996, -0.003241163, 0.053490631, 0.036935627, -0.096560799, -0.041640319, -0.084925137, 0.015457004, -0.025096148, 0.077123329, 0.004972195, -0.071062699, 0.112390526, -0.149267852, 0.008989080, 0.041264065, -0.045818958, -0.003964867, -0.145140648, 0.002671523, -0.037915152, -0.104513556, -0.010807603, -0.128663421, 0.038379379, 0.020807017, 0.029212426, -0.189924076, 0.049828846, 0.022858592, 0.095937923, -0.087781854, 0.042417858, -0.030552685, 0.031138262, -0.065837808, 0.020134034, -0.028781630, 0.011435498, -0.080366991, 0.052755248, 0.106701851, 0.011613491, 0.003103646, 0.093011029, -0.028672993, 0.017320117, 0.254404932, 0.058220882, 0.001786054, 0.037062179, -0.041281067, -0.105913974, 0.045076147, 0.092328645, -0.011520424, 0.015531898, -0.076903008, 0.083865449, -0.082014427, -0.035230782, 0.027826654, -0.061411496, -0.051935073, 0.009485293, -0.024079168, -0.002359606, -0.055253364,
-0.124190845, -0.085687019, -0.090120234, -0.028393799, 0.059472837, 0.198628739, -0.008793254, 0.069983117, 0.027586021, 0.182466939, 0.071377486, 0.012339173, 0.104328208, 0.132917628, -0.191461101, 0.056900732, 0.051325750, -0.007355399, 0.048324455, -0.094800517, -0.080129147, -0.016469888, 0.072734728, -0.128335699, 0.051641669, -0.050557945, 0.052668583, 0.105795994, -0.066077620, -0.091007717, 0.023582537, 0.086919926, 0.126399115, 0.077962741, 0.061273232, -0.055619854, -0.065818325, -0.079700105, -0.021529298, 0.103842251, 0.011519350, -0.079846069, -0.135727376, 0.082315311, -0.129236355, 0.158494204, 0.047346350, -0.083210543, 0.118710205, -0.129405886, -0.002187986, 0.141075328, -0.195606291, -0.151788816, 0.068547964, -0.020953031, -0.072721481, 0.064026013, -0.029974252, 0.085862435, 0.055728860, 0.034730919, 0.067661673, -0.000599140, -0.010183063, -0.133087918, -0.017691057, -0.186401352, 0.171445087, -0.136081144, 0.071123898, 0.146889254, -0.096388623, -0.037469093, -0.133674726, -0.030575396, 0.005744400, -0.096156858, 0.005604718, 0.017406559, 0.054822028, -0.088357583, 0.083440296, -0.002564446, -0.111665189, 0.165581048, 0.125224486, -0.071360946, -0.036820006, -0.102205440, 0.130780578, 0.115379967, 0.108637974, -0.070413746, 0.032966804, -0.057991900, 0.005486479, -0.087243788, 0.141835913, -0.078576580, 0.013446295, -0.003576698, -0.023578489, -0.086310543, 0.085333966, -0.045538589, 0.046564698, -0.132604226, -0.063662246, -0.150586128, 0.089373700, -0.074261516, 0.209620267, 0.031180359, -0.122867212, 0.025748096, 0.128300205, 0.018520923, 0.173364282, 0.001409654, 0.046928663, 0.027082747, -0.087130554, 0.023274334, 0.107418865, -0.004206383, -0.005968015, -0.087871373, 0.016675416, 0.205432534, -0.009463076, -0.166423619,
0.033911258, 0.215055749, 0.211459577, 0.109092794, 0.014665373, 0.042882007, 0.102993451, 0.009908017, -0.022850869, -0.031601287, 0.045533527, -0.031693809, -0.020585313, 0.012229062, 0.141838282, 0.003844491, 0.198093191, 0.064848274, 0.092582345, -0.087747760, -0.048437145, -0.055648267, 0.187757075, 0.068767652, -0.031780593, 0.111548714, -0.088689335, 0.030014414, 0.007403967, -0.086162090, -0.029790273, 0.043666501, -0.048739664, 0.059313856, 0.115295313, 0.058114927, -0.090808108, -0.006521156, 0.091044642, 0.083045863, -0.077203900, 0.037485123, -0.099635929, -0.082696125, 0.006142282, 0.254827380, 0.132837132, 0.064647391, 0.258679986, -0.028928280, -0.022106264, 0.113278933, -0.078062065, -0.142112002, 0.007713415, -0.059085898, 0.001391776, -0.067585543, 0.119825996, -0.011843818, -0.058033329, -0.036191754, 0.068571724, 0.097020358, -0.081249557, -0.086444162, 0.094625160, 0.032445539, 0.172828078, -0.015114152, -0.027124112, 0.133562461, -0.069338590, 0.038851295, -0.125301093, -0.140034795, 0.039904531, -0.022710005, 0.073905125, 0.043681983, -0.050694220, -0.068407118, -0.085831359, 0.008592938, 0.032795016, 0.295501143, -0.090494424, -0.005143099, 0.023505837, 0.034630038, -0.029673262, 0.060432632, 0.158589393, -0.119679771, 0.115582004, -0.118609495, -0.061569374, -0.135852605, 0.240741462, -0.110765152, 0.099527337, -0.042407863, 0.022869254, 0.156956151, 0.151236564, -0.044746175, -0.017202955, 0.027110081, 0.100421540, 0.039225370, 0.090107642, -0.004085802, -0.086303368, 0.107605532, -0.000598089, 0.040800653, -0.040692832, 0.058652855, 0.206553116, 0.113386132, -0.011654241, -0.164309531, 0.095131636, -0.058548529, -0.098017313, 0.107210390, -0.111295901, 0.029586665, -0.101540320, -0.100409545, 0.001314306, -0.182049438,
