#include"constants.h"


const FDATA_T fc_kernel_1[FC_OUTPUT_SIZE1*FC_INPUT_SIZE1] = {
-0.01718550, -0.00323627, 0.01616784, -0.01418133, -0.02953388, -0.03346368, -0.07058289, -0.01748375, -0.00814296, 0.05774995, -0.01320433, 0.02793933, 0.02839560, -0.01278737, -0.01855494, 0.01854416, 0.01080382, 0.03503432, 0.05238990, -0.05530827, 0.01252546, 0.00989063, 0.00972981, -0.07308164, 0.02661465, 0.01947302, 0.00697191, 0.04063504, -0.00762152, -0.08200220, -0.01099314, 0.01310933, -0.00539272, -0.02501073, 0.02150668, 0.02566985, 0.00340247, -0.00992135, 0.03007768, 0.01258062, 0.01525666, -0.02189158, -0.00335502, -0.03831675, 0.02371195, 0.06842592, 0.03012917, 0.00240316, -0.07138288, -0.01070783, 0.01832191, -0.03842795, 0.00138888, -0.00823795, 0.02305401, -0.05864306, -0.03666886, -0.06645472, -0.01149975, 0.00848320, 0.02610621, -0.02640220, 0.00487733, 0.02850659,
- 0.03576783, -0.00486416, 0.04137953, -0.04921072, 0.02840445, -0.01216216, 0.01444107, -0.02559157, -0.00074132, 0.00527139, -0.04116343, 0.03060922, 0.06511758, -0.03854055, 0.02462389, -0.00928048, 0.03074561, -0.01482592, 0.00879359, -0.01441220, -0.03385840, 0.04365760, 0.00850906, 0.01330961, -0.04485959, -0.03704328, 0.05247658, 0.00479172, 0.02935928, 0.02073816, 0.02107871, 0.01109381, 0.01324690, -0.01870456, 0.04526772, 0.05649047, -0.05102985, -0.02317191, 0.01594538, -0.03276928, 0.03885220, 0.03837715, 0.03639844, -0.04562301, 0.00455543, -0.03285493, -0.01380971, 0.01030914, -0.01749383, 0.00740597, 0.03045546, -0.00182972, -0.01464664, 0.03630182, -0.08189575, -0.04659290, 0.00138647, 0.03530529, -0.01745112, -0.02849981, -0.03570636, -0.02818004, -0.00888656, 0.01665895,
0.03690771, 0.01758341, 0.00242813, 0.04743911, 0.01762924, -0.03879855, -0.01711845, 0.01491144, -0.02164594, -0.02396914, -0.00266769, 0.03450529, -0.00897974, 0.02125196, 0.01619016, -0.01545565, 0.01275656, 0.01198639, 0.03124982, -0.06439686, -0.00500268, 0.01384767, 0.00948017, 0.02905276, 0.03965622, -0.03014007, -0.01385426, 0.03844618, -0.01150095, -0.06469835, -0.04740503, 0.00512240, -0.00919391, -0.00155936, -0.01562203, 0.01415611, -0.01703565, 0.01680861, -0.00722288, -0.01804950, 0.00801959, 0.00486339, -0.00486209, 0.03009661, 0.02651710, -0.01259533, -0.01246576, -0.05263130, -0.04771915, -0.03394213, -0.00348601, -0.00690644, 0.02884499, -0.05101483, -0.01335640, 0.00108157, 0.04292294, -0.00092635, 0.03628427, 0.03832992, -0.04314487, -0.00192260, -0.03723689, -0.03610239,
- 0.04674944, -0.08049320, -0.04655062, -0.08970631, 0.03272783, -0.01602748, -0.03313017, 0.05846402, -0.03237753, -0.02754499, 0.02719827, -0.00168556, -0.02270520, -0.00232065, -0.03040853, 0.01254609, 0.01721349, -0.10341320, 0.00125895, -0.03919366, 0.01060890, -0.00941710, -0.05903994, 0.07895447, 0.05058780, 0.03756479, -0.00622508, -0.03230758, 0.02883318, 0.02128011, -0.05903469, -0.00414303, 0.00149500, 0.02236373, 0.00324754, 0.06682923, -0.00812285, 0.03686255, 0.04867225, -0.00597263, -0.04133309, -0.07477709, 0.00525905, 0.00102752, 0.03846493, -0.07063546, 0.03212271, 0.00522807, -0.01483801, 0.08629435, 0.10080551, -0.00082658, -0.01121110, -0.03475052, 0.08259971, -0.03064622, 0.06137793, 0.07239800, 0.00390842, 0.00699472, 0.01869317, 0.00285715, 0.07614975, 0.02956693,
- 0.05706907, 0.00004266, -0.03665633, 0.00343083, 0.05061575, -0.01044311, -0.02629963, 0.00101607, -0.07545337, 0.03443537, -0.06068365, 0.01014696, -0.00688320, 0.01386810, -0.04118527, -0.00417166, 0.06446616, 0.00307561, -0.05646950, -0.03140959, -0.00237334, -0.03478631, -0.06525633, 0.08072120, 0.07806385, 0.00927311, -0.00696255, 0.04352051, 0.05216331, -0.01157051, -0.00267089, -0.02517215, 0.01428532, 0.03196973, -0.02463571, 0.02614533, -0.08214017, 0.03484515, -0.03768755, 0.06303462, -0.02835624, -0.00855236, 0.03146435, 0.03559520, 0.05129058, -0.04363533, 0.10832686, -0.00883084, -0.01414061, 0.08768159, 0.03636999, -0.07426102, 0.03845075, -0.05721034, 0.06774598, -0.01592244, -0.01191125, -0.00783659, -0.04192529, 0.01066387, 0.02207869, 0.02333398, -0.00978435, -0.00081795,
- 0.11069707, -0.05781955, -0.00375361, -0.04253589, 0.00981681, -0.05332378, -0.07431371, 0.00010523, -0.05825393, -0.03584993, 0.05319496, 0.04848609, -0.08085159, -0.00665525, -0.05133824, 0.04659573, 0.03279958, -0.03106867, -0.08451700, -0.06667553, -0.07709597, -0.07380763, -0.03006872, 0.10253504, 0.07296468, -0.04534823, 0.03483385, -0.05715197, 0.00467659, 0.04849930, -0.05128334, -0.04112374, 0.07483309, 0.06210757, 0.07117715, 0.00678009, -0.07692175, 0.02236886, 0.02612099, 0.07967520, -0.01163111, -0.07845882, -0.08165698, -0.05969786, 0.04292731, -0.06781700, 0.03783686, -0.04782521, -0.08910239, 0.07987992, 0.06849728, -0.05381809, 0.06589381, -0.07249414, -0.00328098, -0.03090188, 0.00676113, 0.07115651, 0.03246616, 0.06596372, -0.06486811, -0.05648722, -0.00009391, 0.08216821,
0.01344816, -0.02825417, 0.04631560, 0.03579316, 0.01310377, -0.01033018, -0.06158006, 0.00100814, -0.06090439, 0.04173648, 0.00272863, 0.02119043, 0.01465685, 0.00524407, -0.03607906, -0.04779175, 0.03506128, 0.03035318, 0.00145258, -0.05090222, -0.00974682, -0.03823884, -0.01827737, -0.03079295, -0.06423019, 0.00611499, 0.01251012, 0.04179184, 0.04037904, -0.01045357, 0.00253911, 0.00161088, 0.02456956, 0.00778926, -0.01370691, 0.04170193, -0.06603941, 0.02605027, 0.00278768, -0.04225865, 0.01130403, -0.01082566, -0.00210923, 0.02110336, 0.00892748, 0.01443902, 0.05294615, -0.02069259, -0.03692957, -0.06413529, 0.00626725, 0.01572850, 0.01062937, -0.00799979, -0.04473556, -0.05941456, -0.03535660, -0.06345746, -0.03400625, 0.01400120, 0.00699147, 0.03301872, 0.00550886, -0.00239469,
- 0.09507699, -0.01362415, -0.04609227, -0.01928738, 0.01929078, -0.07367314, -0.08565634, -0.00141109, 0.00530938, -0.05047014, -0.00967752, 0.05029464, -0.05572069, 0.03180870, -0.05470429, 0.00045739, 0.03202395, -0.08129868, -0.07788330, -0.05402498, 0.00389713, -0.00963297, -0.02784445, 0.05497275, 0.09157519, 0.00865202, 0.05149634, -0.03286197, 0.05652371, 0.06423660, -0.06186851, 0.00419652, 0.01543982, -0.01329315, 0.01436812, 0.03627307, -0.06035490, 0.07230285, 0.01402270, 0.06356858, -0.01080323, -0.04327983, 0.01534408, -0.01712042, 0.00585797, -0.04479604, 0.06742514, -0.00750697, -0.00278252, 0.09914749, 0.05396015, -0.04128331, 0.05771202, -0.03381474, 0.07394820, -0.00232299, 0.02558507, 0.03593304, 0.04317067, 0.03954991, -0.05445264, -0.04043720, 0.05932790, 0.01531157,
0.04435901, -0.06162273, 0.06905413, -0.02876743, -0.04188082, 0.02927786, -0.02123780, -0.03064300, 0.00846405, 0.03023022, 0.02914204, -0.01417192, -0.05388675, -0.02774738, -0.04994881, 0.04836714, -0.00632931, 0.02057251, -0.03645935, -0.06438264, 0.01752751, -0.04302132, 0.00366185, -0.01640965, -0.00124893, -0.06056253, -0.02612228, -0.01790657, 0.05732046, -0.05960055, 0.01635977, 0.06465604, -0.02509511, -0.03476829, 0.05430555, 0.02188079, -0.00066689, -0.00123351, 0.03693397, -0.02959840, -0.04690060, -0.00083076, -0.02468126, 0.00636616, 0.01773568, 0.04963955, 0.03890662, -0.04342883, -0.04743959, -0.02301207, -0.02487309, 0.01640385, -0.01156823, 0.00197367, 0.01793262, -0.02424843, -0.05104585, -0.01152983, -0.03498013, -0.00319561, 0.03181392, 0.00095898, 0.04550987, -0.00015503,
0.14701957, 0.16818511, 0.05315553, -0.02817096, -0.09089055, 0.14685291, 0.32227504, -0.08886612, 0.02082204, 0.32287604, -0.40185130, -0.11109731, 0.09358516, 0.15586525, 0.03663801, -0.26312420, -0.07201879, 0.28504604, 0.11475058, 0.04754496, 0.31378630, 0.34161800, 0.00360048, -0.32413033, -0.01923417, 0.39069447, -0.25272200, 0.27552128, -0.00476025, -0.33344615, 0.02924665, 0.15952535, -0.08389913, -0.06304928, -0.19418231, -0.14401281, 0.03637281, -0.06843910, -0.38036391, -0.09612069, 0.19999738, 0.02526324, 0.14389968, 0.23459953, -0.11269714, 0.04482923, -0.07603740, 0.04917994, 0.04570013, -0.06866355, -0.22393297, -0.00203330, -0.09655172, 0.13701899, -0.02656667, 0.09775330, -0.19809057, 0.02370748, -0.26580527, -0.11208239, 0.09746528, 0.17804499, -0.27483714, -0.22477098,
0.01514201, -0.05026147, 0.04872080, 0.02276058, -0.05647732, 0.03857408, -0.04205915, -0.06379154, -0.05806660, -0.01169262, -0.00351195, -0.01799141, 0.04480245, -0.02298324, -0.00815795, 0.02597656, -0.00406363, 0.02853989, -0.04377346, -0.07730071, -0.00009680, -0.02912768, 0.01379847, -0.01029406, -0.03674091, -0.00361035, 0.00598616, -0.00154487, -0.00110204, -0.06683839, 0.00227162, 0.05917122, -0.01743166, -0.02046942, 0.00514212, 0.03188305, -0.03117114, 0.01921513, -0.02517692, -0.02476368, -0.06185437, 0.04550327, -0.03873975, 0.00357659, 0.06040794, 0.04364431, 0.07848059, -0.05567044, -0.02372261, 0.01599245, -0.03354924, -0.01592672, 0.04613451, -0.00815885, 0.00928565, -0.05209791, 0.00688062, -0.08348257, 0.00823608, -0.00866745, -0.01825883, -0.02725335, -0.01333021, 0.02080350,
- 0.06913294, -0.08383808, -0.02026811, -0.08883528, 0.05644086, -0.05587340, -0.00337154, 0.03484074, -0.06536062, -0.03684289, -0.04803367, 0.04205425, -0.01524971, -0.01557046, -0.04287818, -0.01071276, 0.00703799, -0.05102912, -0.03977260, -0.07329297, -0.04897192, 0.00581556, -0.04777770, 0.05827793, 0.06020100, 0.04707833, -0.03027191, -0.05327650, 0.05687274, 0.05216504, 0.00116516, -0.01071075, 0.02014940, 0.05899455, -0.01505089, 0.00404008, -0.00694327, 0.06345725, -0.00440827, 0.02339267, -0.06421763, -0.08287108, -0.03611358, -0.01448967, 0.04674654, -0.03280607, 0.03179863, -0.01317417, -0.01956780, 0.03961086, 0.03923253, 0.01610244, 0.02858957, 0.01454622, 0.05705433, -0.02113217, 0.04921990, 0.05791806, 0.05756303, 0.03417008, -0.05562807, -0.06495497, 0.05787131, 0.02135884,
- 0.03403655, 0.01128215, -0.07365789, -0.00188988, 0.06435639, -0.05386885, -0.06040884, 0.05100407, -0.05453578, -0.06453309, -0.03823740, 0.05992234, -0.00988239, -0.03601401, -0.02672318, 0.06481345, 0.06232631, -0.09414385, 0.00472936, -0.04136222, 0.00832455, -0.05944658, -0.03306083, -0.00407714, 0.00041231, -0.05494307, 0.03589351, 0.02644894, 0.06930289, 0.06433935, -0.02604032, -0.05719545, 0.04644927, 0.01193060, 0.00612241, 0.04275127, -0.00559895, 0.05414280, -0.00151111, 0.07487982, 0.00879045, -0.08516189, -0.04135741, -0.04883927, 0.05329410, 0.02003919, 0.04975469, -0.05180519, -0.09196783, 0.07654479, 0.03649580, -0.01711310, 0.03687977, 0.01215864, 0.08775804, 0.00122811, 0.03644089, 0.07401303, 0.06149105, -0.01265466, 0.01550233, -0.05690249, -0.01064660, 0.01826987,
0.13519624, 0.11330007, 0.03035131, 0.00794039, -0.11302742, 0.12796755, 0.21363206, -0.10507153, -0.01910699, 0.31336230, -0.35455427, -0.08301659, 0.08498790, 0.16392049, 0.06468245, -0.27983254, -0.15080744, 0.30005401, 0.11403672, 0.02777038, 0.29309332, 0.26016670, 0.00624997, -0.31902426, -0.03168893, 0.35639736, -0.22586675, 0.26504412, -0.01498177, -0.27700424, 0.07402883, 0.16898437, -0.08903357, -0.09249444, -0.15792248, -0.18553390, 0.06122365, -0.00818365, -0.37407571, -0.01810236, 0.14307579, 0.02065734, 0.12618642, 0.28728259, -0.04798254, 0.04593901, -0.07421506, 0.04869906, 0.05054741, -0.04891196, -0.22859831, 0.02699968, -0.14880732, 0.09548698, -0.05999942, 0.05693808, -0.16695498, 0.03187615, -0.25791082, -0.06656282, 0.15444493, 0.09137184, -0.31843489, -0.25177920,
0.09162673, -0.11335126, -0.02744087, -0.06452665, -0.01813773, 0.00384362, 0.04848255, 0.00916464, -0.07153123, 0.03167886, 0.01486868, 0.03566166, -0.10652984, -0.03889688, -0.09531167, -0.00413516, 0.08970708, 0.07418377, -0.00046690, -0.09067032, 0.01198260, 0.05427579, -0.04800811, -0.09362085, 0.03774974, 0.00344968, -0.00671998, 0.01807038, 0.15809649, -0.04984845, -0.02180122, -0.00109800, 0.11317598, 0.02800640, 0.05323910, 0.07117415, -0.14624330, 0.04372405, -0.00630441, -0.03759895, -0.02529568, -0.00088900, -0.01731320, 0.00071137, 0.04498207, -0.00339938, 0.10081023, -0.09542280, -0.06703152, -0.02624603, -0.06799236, -0.09715825, 0.02190885, -0.02440890, 0.05357700, -0.13649528, -0.02676477, -0.01317369, -0.01281710, 0.09174174, -0.01412450, 0.01341180, -0.02861444, -0.03314709,
0.06041982, 0.02090940, 0.14336246, 0.16141991, -0.11752896, 0.06019050, -0.05576482, -0.11699668, 0.10010877, -0.14260234, 0.18815385, -0.08442398, 0.09191957, -0.05913854, 0.11216691, 0.02731914, -0.03308003, -0.01928869, -0.00861797, 0.11411417, -0.04603374, -0.18355404, 0.10301467, 0.14278887, -0.18908593, -0.16223507, 0.09646305, -0.09053914, -0.16021961, 0.08224946, 0.05575095, 0.07535733, -0.03869721, -0.12653807, 0.06731833, -0.07152782, 0.04383075, -0.06917204, 0.16330174, -0.12946603, -0.06623603, 0.23879199, 0.02663976, -0.11631368, -0.04299900, 0.19217321, -0.20908609, -0.02828995, 0.10268433, -0.06318650, 0.01482758, 0.12282919, 0.00610309, 0.10619020, -0.10173873, 0.05831000, -0.09850487, -0.25278646, -0.00503624, -0.07315449, 0.08517016, 0.10292784, 0.14162688, 0.07132064
};
const FDATA_T fc_bias_1[FC_OUTPUT_SIZE1] = {
-0.04395738,
-0.02967717,
-0.03740494,
0.21174803,
0.28952715,
0.19383752,
- 0.03076101,
0.25612703,
- 0.03808712,
- 0.00571684,
- 0.04410141,
0.27185035,
0.23086251,
- 0.00445990,
0.47639921,
- 0.06367016
};
FDATA_T fc_output_feature_map_1[FC_OUTPUT_SIZE1];

const FDATA_T fc_kernel_2[FC_INPUT_SIZE2] = {
	-0.03848901, -0.00441552, 0.01375442, 0.09400860, 0.12759809, 0.10120683, -0.02173782, 0.07048055, -0.04925507, 0.23436844, -0.04211248, 0.07128572, 0.08063030, 0.20473339, 0.35195506, -0.13605238
};
const FDATA_T fc_bias_2=0.15547802;
FDATA_T fc_output_feature_map_2;


FDATA_T lstm_input_feature_map_1[LSTM_BATCH_SIZE1*LSTM_INPUT_SIZE1];
FDATA_T lstm_prev_hidden_1[LSTM_OUTPUT_SIZE1] = { 0 };
FDATA_T lstm_prev_memory_1[LSTM_OUTPUT_SIZE1] = { 0 };
FDATA_T lstm_memory_1[LSTM_OUTPUT_SIZE1];
FDATA_T lstm_hidden_1[LSTM_BATCH_SIZE1*LSTM_OUTPUT_SIZE1];
const FDATA_T lstm_weight_i_1[LSTM_OUTPUT_SIZE1*(LSTM_INPUT_SIZE1 + LSTM_OUTPUT_SIZE1)] = {
	0.01551140, 0.03335785, 0.03394917, 0.01469262, -0.07239929, 0.02509145, 0.10592137, 0.03771503, 0.03971748, 0.02916708, -0.01020963, -0.00885173, -0.03104183, 0.06529110, 0.03213433, -0.03336566, 0.03400065, -0.03701282, -0.01422699, 0.03028029, 0.04054943, 0.00977292, 0.11748312, -0.00616656, 0.11446893, 0.02334761, 0.01342107, -0.01870090, 0.05511919, 0.04319745, -0.10864376, 0.05838935, 0.02439481, -0.03089111, 0.04629086, -0.00214608, -0.07748977, -0.08656250, 0.05722638, 0.07133570, -0.00058380, -0.11008972, -0.00883845, -0.03230271, -0.03772190, 0.02627151, -0.01632417, 0.04784672, -0.03253828, 0.00463885, -0.05333234, 0.04924396, -0.00004371, 0.10402357, 0.06642403, -0.00684992, 0.08975016, -0.08022860, -0.01372499, -0.03006783, 0.14638965, 0.00629238, -0.00547070, 0.02672862, -0.05081902, 0.03920180, -0.04382469, -0.00582664, 0.05679410, -0.01944980, 0.00274969, 0.00832280, 0.05565042, 0.02320504, 0.10065977, -0.03512093, 0.02402841, -0.01109705, -0.09878892, -0.01293808, 0.03270634, 0.05998189, -0.02078473, -0.01204841, 0.03796691, 0.08134852, 0.11369497, 0.00891944, -0.05905080, 0.04606392, -0.00167012, -0.04027073, 0.17559177, -0.05403329, -0.01962095, 0.01521267, 0.06308092, 0.02298692, -0.07775416, 0.01714415, -0.01674955, -0.13214223, 0.00530101, -0.05480092, 0.04332553, 0.01121992, -0.04927982, -0.00639338, 0.09773117, 0.07229814, -0.01679820, 0.03101245, 0.01567356, 0.00212031, 0.06275398, 0.01781088, -0.04095088, 0.04714999, -0.02855989, -0.03033540, -0.10423739, 0.18371224, -0.03783410, 0.06497715, 0.03272137, -0.03988787, 0.01168426, 0.09518179, 0.17321102, -0.03163307, 0.07864930, -0.05142313,
0.01215744, -0.08617742, 0.05464834, 0.12741847, -0.10647856, -0.08849799, 0.07268363, -0.08698988, -0.02897745, 0.01292039, 0.03757392, 0.04515330, 0.02653031, -0.02560023, 0.01362238, -0.02597911, 0.01968986, 0.02736786, -0.01732974, 0.03100440, 0.10693327, -0.01635061, 0.09253491, -0.00057033, 0.03144857, 0.01139832, 0.06501802, 0.04018130, 0.05033856, -0.04907651, 0.04358648, 0.00779891, 0.00397314, 0.04872049, -0.03704517, 0.03528326, -0.06179393, 0.00269429, 0.01974011, 0.02054955, -0.01135193, -0.03678496, -0.07586556, -0.09714562, 0.01713131, -0.06292475, -0.04388053, -0.01942463, 0.02444656, 0.02183820, 0.06237540, -0.02087504, -0.05904673, -0.04403512, 0.06864875, 0.07073189, 0.01662110, 0.00986117, -0.00117371, 0.01467815, 0.06131532, 0.00405543, 0.08966980, -0.12441005, -0.05819165, 0.03285595, -0.02713656, -0.01997291, 0.02141440, 0.01638746, -0.04363068, 0.04532401, -0.01258049, 0.11322857, -0.02074391, 0.05428706, -0.01804263, -0.03213991, -0.03269430, 0.05026541, 0.04991838, -0.04271807, 0.04131231, -0.00555596, 0.06371953, -0.01096597, 0.01473318, 0.01931489, -0.07247442, 0.16440859, 0.02090339, 0.00230300, 0.15335515, 0.03307449, 0.04448577, 0.00085117, -0.04512713, 0.03240344, -0.02228636, 0.00004831, 0.07947005, -0.03246196, 0.02770380, 0.00944483, 0.10845064, 0.06760221, 0.02597556, 0.08935004, 0.10809963, -0.00581015, -0.02787108, -0.01344400, -0.03579548, 0.01093277, 0.00947378, 0.03544249, 0.03243757, -0.06652527, -0.00745987, -0.04407999, -0.02181710, -0.02483168, -0.05919752, -0.01430141, -0.02130805, 0.08038602, -0.01017709, -0.02803599, -0.00264024, -0.03699045, -0.03936445, -0.03293744,
-0.10166069, -0.04168545, 0.09935977, 0.11563485, -0.09699677, -0.03957427, 0.01289214, 0.00682299, 0.02856532, 0.06550576, 0.05118399, 0.04905131, -0.04939757, -0.00746979, 0.07806820, -0.04520752, -0.01801244, -0.04753581, -0.01064965, 0.04910939, -0.01008828, 0.00545840, 0.10654705, 0.05678413, -0.00158098, -0.01843382, 0.07725672, 0.13748734, 0.03865752, 0.01244604, -0.04989753, -0.01469197, -0.04134529, 0.03632801, -0.00116811, 0.04103326, -0.03397977, 0.04132997, -0.03981671, 0.04130488, 0.05035068, -0.01170625, -0.00344644, -0.08994279, -0.06800549, 0.06572409, 0.01446540, 0.02669929, -0.02965060, -0.00759957, -0.03389154, -0.03787745, 0.00593821, -0.00023361, 0.02634584, -0.03672146, 0.04839319, -0.05387721, 0.01319638, -0.04800465, 0.08119354, -0.04806335, 0.04442596, -0.06050426, -0.00975125, -0.03735853, 0.00932373, 0.00339524, 0.06598756, 0.01073392, 0.00975510, 0.04716875, 0.09917823, 0.03212398, 0.06032486, 0.04363118, -0.06278100, 0.10182385, -0.05424695, 0.00066383, -0.10815168, 0.03215548, -0.00276842, -0.05218681, 0.01788398, 0.07688651, 0.04199253, -0.00565704, 0.01136301, -0.01547939, -0.07843672, 0.00436828, 0.09053974, -0.05364514, 0.08047074, -0.02380933, -0.04574386, -0.02242551, -0.08469816, -0.02585930, 0.05264901, 0.00678602, 0.06827338, -0.04656904, 0.02776473, -0.00315544, -0.05976706, -0.03985506, 0.13696465, -0.03219000, -0.02009899, 0.00867128, -0.04652033, 0.05482746, -0.05311821, -0.00211362, -0.00437379, 0.10808773, 0.10808819, -0.03445278, -0.05105425, 0.08698821, 0.00907175, -0.09421410, -0.08020696, 0.04230119, -0.02752174, 0.02475400, 0.04365461, -0.04292187, 0.01175527, 0.02585682,
0.03238530, -0.02486145, 0.13673785, -0.05015143, -0.01702502, 0.03970477, -0.03647047, -0.03293861, 0.00167159, 0.08039128, 0.06124387, 0.02144679, 0.00493096, -0.02204174, -0.06783548, -0.11715170, 0.00242952, -0.03951724, 0.03604889, 0.08655992, 0.03538972, 0.03171233, 0.02063735, 0.03959312, 0.00120712, 0.06348674, 0.04538755, 0.07840305, 0.04865968, 0.06565540, -0.08512558, -0.06434759, -0.03829627, 0.01157877, 0.01004797, 0.03110624, -0.06254010, 0.03180416, 0.09270163, 0.08296344, -0.03336048, -0.00719695, 0.00358850, -0.04766734, -0.04254802, 0.00422108, 0.01716020, -0.01704768, 0.00046377, 0.04339059, -0.01928810, 0.05174283, 0.01080370, -0.00640075, 0.03931048, 0.04474451, -0.02912581, -0.00221810, -0.00021357, 0.01917321, 0.05641086, 0.01546573, 0.07929132, -0.02843517, -0.06965915, -0.01135395, -0.02834147, 0.02947075, -0.04905665, -0.00388850, -0.01841521, 0.00645965, 0.04098375, -0.04026224, 0.02397409, 0.02883437, 0.06031357, -0.05144018, -0.08455040, 0.02233365, 0.02242319, -0.01623602, 0.06421393, -0.02226043, 0.01163428, 0.00166106, 0.04255912, -0.04815120, 0.00875967, 0.09147307, -0.04550718, -0.01001340, 0.14921756, -0.01471704, 0.01044525, 0.03375456, -0.01954245, 0.01877990, 0.04815369, 0.09552264, 0.08968966, -0.01332042, 0.03294984, -0.01476953, 0.02993246, -0.08144166, 0.00355611, -0.03016739, 0.05741536, -0.01630688, -0.02412261, 0.02925823, -0.03645214, 0.12236530, -0.04523937, 0.04070136, -0.00287378, 0.10713491, 0.02580753, 0.01578032, -0.01963268, 0.06832403, -0.01482511, -0.06035607, -0.07185574, -0.00288216, 0.00905999, 0.02681307, 0.07324420, -0.02591071, 0.04985057, -0.07282229,
-0.04882987, -0.04069540, -0.03528546, 0.13585740, -0.01937931, 0.03811140, 0.06335951, -0.06114776, 0.13507904, 0.03718460, 0.01604720, 0.06151278, 0.03032293, 0.03004423, -0.03493521, -0.09494594, 0.00678629, -0.02409853, 0.02075275, 0.05825962, -0.01487989, -0.07141926, 0.07663210, -0.03814333, 0.05160869, -0.03947642, 0.02073744, 0.08024053, 0.02013103, 0.01550507, -0.05988873, -0.03454425, 0.02619086, 0.00056881, -0.05958899, 0.09241921, -0.03215571, -0.03567815, 0.04960318, 0.02673756, -0.00572870, -0.01437350, -0.08462757, -0.02799305, -0.08833207, 0.04695639, -0.11774022, -0.02789960, -0.07886472, 0.01799248, -0.00504287, -0.02002407, 0.02390260, -0.01047663, 0.04639884, -0.00518289, 0.02120214, -0.05857594, -0.01505869, 0.04526853, 0.11516325, -0.03155694, 0.06479909, 0.01083821, -0.09010663, -0.05909327, 0.01910299, -0.09249600, -0.02146279, -0.05530110, 0.03400705, 0.01364232, -0.01136660, -0.03159169, 0.03398008, -0.00624290, 0.01309562, 0.00915928, -0.07447582, -0.02141650, 0.09000369, -0.00202094, -0.01358171, -0.02695304, 0.04750681, 0.00454222, 0.08285595, -0.06351782, -0.03296595, 0.03415995, -0.07888101, -0.12571557, 0.09844348, -0.05645419, 0.05072079, -0.00154922, 0.00135905, 0.04428057, 0.05446695, -0.02324736, 0.11813550, -0.10070649, 0.03246832, -0.05819414, 0.11385757, -0.02972257, 0.03032968, -0.02472990, 0.08535541, -0.01774237, -0.00484242, 0.04511716, -0.09232955, 0.02818274, -0.02537968, 0.07712591, -0.00418470, 0.04586470, 0.02955215, 0.07841586, -0.01221094, 0.13242753, -0.01905942, -0.03319699, -0.06905591, 0.06107740, -0.00641607, -0.02974505, 0.01059906, 0.05914064, 0.07012340, -0.07646655,
-0.04989620, 0.08419614, -0.07486716, 0.02763800, 0.02131891, 0.08605436, 0.09682026, -0.01132863, 0.04432264, 0.04284482, 0.07782019, -0.00584705, -0.02568547, -0.03024582, 0.06642102, -0.04215178, 0.00455227, 0.01703832, -0.04473489, 0.01069827, 0.02455034, 0.00459331, 0.04796017, 0.00712320, 0.07862602, -0.01401727, 0.01358912, 0.07947691, 0.07483856, 0.02401814, 0.03891655, 0.02843664, -0.04516366, -0.03724989, -0.07487902, -0.02518874, -0.04231124, 0.04242726, -0.01552297, -0.00007140, 0.03778554, -0.05830786, 0.06074047, -0.05976053, 0.06004477, 0.03527558, -0.00000469, 0.00128100, 0.00784244, 0.08056512, -0.01938793, -0.05766003, -0.01728132, 0.01819622, 0.03925199, -0.00703886, -0.01253787, -0.04618097, 0.11574962, 0.04987664, 0.11255889, -0.01297544, 0.00724914, -0.02966456, -0.08862908, 0.05676999, -0.04932514, -0.04584030, -0.05810196, 0.04430468, 0.07061487, 0.04670868, -0.05703313, 0.01517715, 0.03169621, 0.02502737, -0.07230471, 0.00522518, -0.02164886, 0.00654716, 0.03162650, -0.04804432, 0.02896927, 0.03328002, -0.06191397, 0.02973566, 0.07072598, -0.00144969, 0.08303617, 0.02365088, -0.06084305, -0.07450113, 0.16142830, -0.09318652, 0.07907698, -0.03638158, -0.05577847, 0.01980649, -0.03702845, 0.00529280, 0.09188603, -0.06685904, 0.09643202, -0.04005669, -0.02735058, 0.00477601, 0.05393480, -0.03612244, 0.10380875, -0.01954731, -0.04295045, -0.05183997, 0.11310674, 0.04088667, -0.00882911, 0.11397552, -0.00109096, -0.00797078, 0.00570736, 0.03774710, -0.06360381, 0.06605319, 0.00969518, -0.05073076, -0.06671806, 0.08857231, -0.04944086, 0.09541830, 0.03983598, 0.05634296, 0.04780152, -0.07424466,
0.04091864, -0.06459264, -0.00242490, 0.00269261, 0.01121427, 0.02429454, 0.10900196, -0.05171990, 0.06907568, 0.00610774, 0.01758164, -0.04326557, -0.03167395, -0.05638350, -0.03922547, 0.01008746, 0.02233645, 0.05423934, -0.00338155, -0.01850278, 0.00357839, -0.00555786, 0.11420916, 0.01162617, 0.06766985, -0.06183721, 0.07846285, 0.01101201, 0.11016532, 0.00670695, -0.01147037, -0.05350711, 0.07379947, -0.06941766, 0.03046397, 0.00259977, -0.07734177, 0.00754387, -0.03532137, 0.00229878, 0.01944243, 0.02219878, 0.06952798, -0.06372740, -0.00612451, 0.08832538, -0.09799239, 0.01446094, 0.02588480, 0.02735211, -0.13490643, 0.05787421, -0.00999005, 0.00339740, 0.06610827, -0.00839989, -0.00564375, 0.06872646, -0.05369770, 0.10850780, 0.08876161, -0.09562206, 0.07214147, -0.02564640, -0.05000259, 0.00629561, -0.05790440, 0.04867100, 0.07142455, -0.03052152, -0.02848002, -0.01862973, 0.02613864, -0.03631791, -0.00061178, -0.00223603, 0.03985132, -0.01162095, -0.02870999, 0.10214381, -0.08458677, 0.02073435, 0.02084156, 0.08360513, 0.01105066, -0.00267009, 0.01309633, -0.02067082, 0.04547685, 0.09953555, -0.04279988, 0.03398006, 0.08251119, -0.04020546, 0.04714346, -0.00744519, 0.01976671, -0.02386469, 0.01277824, -0.01149779, -0.01589139, -0.04520255, 0.11097850, 0.02270644, 0.10263301, -0.01110858, -0.04617309, -0.01068669, 0.07295888, -0.01099526, 0.01837077, 0.01941334, 0.02810708, -0.00160253, 0.00701116, -0.05824137, 0.03605678, 0.05260013, -0.04378606, 0.05990521, -0.08139994, 0.14194869, 0.01918263, -0.00112218, 0.02146162, 0.01481414, 0.02692718, 0.02374988, 0.10630749, 0.02528932, 0.01350767, 0.01199166,
0.06727536, 0.07478572, -0.00247573, 0.11083873, -0.11505571, -0.01986384, 0.09860515, -0.07536130, 0.00844987, 0.07172067, -0.01620462, -0.01175239, 0.01542691, 0.03972050, 0.01310510, 0.07951603, -0.09387428, 0.00798022, -0.00730749, 0.05593595, -0.03251146, 0.12201575, 0.07140189, 0.00344208, 0.04903251, -0.07928786, 0.07336546, -0.00510567, 0.07129969, -0.05543311, -0.08604234, -0.11674456, -0.02502918, -0.00071388, -0.00342266, 0.03590652, -0.07832418, -0.03628407, -0.00534867, 0.00621544, -0.02434668, -0.00901476, -0.04754553, -0.08892620, -0.04973070, 0.04625363, -0.02195852, 0.03448820, -0.02692816, 0.04602579, -0.01588572, 0.06348405, 0.04059445, 0.01914570, 0.06754342, 0.00615920, 0.04550030, -0.03785792, 0.01132315, 0.06659316, 0.09150063, 0.01512755, -0.05737544, 0.08669095, -0.03175789, 0.03196129, -0.03439055, -0.09343658, -0.03888966, 0.04438617, 0.03822316, -0.00268774, -0.02652197, -0.07006130, 0.03334703, -0.01143598, 0.00733240, 0.01374862, 0.04802093, -0.07729002, 0.00883077, 0.03346684, -0.00462971, -0.02087898, 0.08992027, 0.10571612, 0.02421915, -0.03481903, 0.05496838, -0.00828150, -0.01365527, 0.04349514, 0.15209879, -0.05920471, -0.03793091, 0.00293713, -0.00495271, 0.02192932, -0.05354979, -0.01342707, 0.08491596, -0.07926998, 0.02041150, -0.03497260, 0.02748667, 0.02678544, 0.03686958, -0.00260962, 0.05723001, -0.01685749, 0.01420954, 0.02725418, 0.03981891, 0.00960265, 0.07739308, 0.07685020, 0.09732938, 0.00580081, 0.01781932, -0.01374590, -0.13797939, 0.00866000, 0.02224204, 0.07175545, -0.07858736, 0.17305355, -0.07128133, 0.00899329, 0.03259942, 0.03230931, 0.07880396, 0.04044608,
-0.07652945, -0.05372166, 0.01908157, 0.07487472, -0.09107909, 0.04849111, 0.02500755, 0.02697315, 0.09633002, 0.01627066, -0.04104073, 0.00003659, 0.04752547, 0.03284203, 0.00069898, 0.02978677, 0.08015472, 0.01399926, 0.06190519, -0.02880685, -0.02682994, -0.02863439, 0.01734353, 0.08804629, 0.06925367, -0.02031582, 0.10092479, -0.07801781, -0.01761881, -0.09344325, -0.07611807, -0.08631485, 0.00365792, -0.00850845, 0.00296472, -0.04720849, -0.07213405, 0.02522653, 0.00810359, -0.04005247, 0.05516208, -0.04911873, 0.04921621, -0.03998417, -0.03043839, 0.12387440, -0.03335477, -0.01025869, -0.00045777, 0.01583418, 0.01347018, -0.00755730, -0.03657826, 0.02436892, -0.03249213, -0.03120663, -0.02690470, -0.00747511, 0.00291530, 0.02039150, 0.03180687, -0.01185487, -0.05029353, 0.06155014, -0.05351345, -0.01337122, 0.01486149, 0.01903598, -0.04759561, -0.04251572, -0.02071767, 0.03377523, -0.01339518, -0.00923073, 0.02636131, 0.05368707, 0.04072568, -0.02625204, -0.04819508, -0.05361137, -0.03258256, 0.02476583, -0.03809807, 0.00154191, -0.00467026, 0.05231728, 0.01461621, -0.08207764, 0.02975154, 0.00931166, 0.02380337, -0.03985386, 0.07192872, -0.05864853, 0.11401029, -0.01831004, -0.06332514, 0.08650421, 0.04683384, -0.06245725, 0.03436135, -0.05971966, 0.07008366, 0.01263063, 0.04611165, -0.01103169, 0.01822294, -0.03499016, 0.12287670, -0.02160221, -0.00435507, -0.09074324, -0.03992662, -0.05985519, 0.00362451, -0.00975024, 0.04898758, -0.01432006, 0.00854310, -0.09655558, -0.08825090, 0.06780819, 0.00367925, -0.15866716, 0.00958273, 0.01432236, 0.01117939, 0.02502699, -0.03063540, 0.04862479, 0.07237919, -0.06376711,
-0.03773951, -0.00535950, 0.02561218, 0.12746382, -0.01977239, 0.02731142, -0.01570578, 0.06915691, 0.08617677, -0.06449791, -0.02061631, 0.08239486, 0.02341866, -0.01276605, 0.02582868, -0.05325573, 0.01132074, 0.10120172, -0.07240751, 0.07049183, -0.04341685, -0.00771636, 0.03866730, 0.04808221, -0.03912879, -0.04459802, 0.01139047, 0.04425350, -0.03254363, -0.01125566, -0.13555768, -0.07969221, 0.00621724, 0.02166676, 0.01722610, -0.01351805, 0.00824466, 0.02710364, -0.06189333, -0.00653021, 0.01103679, 0.03040308, 0.05746437, -0.09026268, 0.00871301, 0.03698955, -0.03057463, -0.00005869, -0.02291305, -0.01781307, 0.04891827, -0.05455541, -0.00792185, 0.08884276, 0.01909767, -0.08698257, 0.05439827, 0.01279483, 0.00592251, 0.00878789, 0.03493834, 0.00622703, -0.01394324, 0.05122624, -0.05212118, 0.08787256, -0.02463359, -0.01757574, -0.04843169, 0.00542591, -0.00146215, 0.09098956, -0.06194921, 0.00859961, 0.11059694, 0.06583752, 0.07393562, -0.01551170, -0.04583761, 0.03832528, -0.01893877, -0.01126769, -0.07611556, -0.02504838, -0.01836070, 0.02420333, 0.04581216, -0.02531355, 0.03384512, 0.07655913, 0.03330730, -0.04967168, 0.11234567, 0.00951006, -0.00357510, -0.00410047, -0.03582891, -0.02670463, 0.01167883, -0.00608129, 0.07436478, -0.05712257, 0.06263887, -0.01203900, 0.03361490, -0.06606705, -0.01626835, 0.08667845, 0.16044132, -0.00996487, -0.03501243, 0.04204899, 0.01137800, -0.02173751, 0.06725242, 0.01717667, -0.03574405, 0.03491583, 0.10080335, 0.04739187, -0.01746236, 0.00852944, 0.01333761, -0.01505743, -0.03543349, -0.00537222, 0.10315061, -0.01581852, -0.05958567, -0.01568666, 0.05240791, -0.00326196,
-0.00779437, 0.07305072, -0.10832532, 0.10215095, -0.04544803, 0.03893185, 0.06288903, -0.06047039, 0.04994375, 0.05099117, -0.09181046, 0.01515967, -0.07589550, -0.13194357, 0.02766213, 0.01992611, 0.03664437, -0.09441287, 0.00936640, 0.07183479, 0.02015223, 0.02767870, 0.05007505, -0.01803763, 0.05490376, -0.02670585, 0.09605496, -0.00322871, 0.00543844, 0.01740696, -0.02593843, -0.01448177, 0.04347878, -0.02601572, 0.01422159, 0.04957864, -0.12168270, 0.04273913, 0.01203123, 0.00915731, 0.04450618, -0.01307849, 0.06574566, -0.03647068, -0.02726348, -0.01599646, -0.01953148, -0.00202887, -0.03346027, -0.03008056, 0.05862367, -0.03319446, 0.02920187, -0.07054511, 0.08162416, 0.05244682, 0.09369188, 0.04397523, -0.03871874, -0.04422555, 0.10565861, 0.08607401, -0.01905164, 0.07180958, -0.07362201, -0.01830385, -0.02585267, -0.11291468, 0.01903450, -0.02579397, 0.02180193, -0.00557438, 0.01554711, -0.00135605, 0.04669779, 0.04933681, 0.02743248, 0.08889109, -0.05053475, 0.02046402, -0.00201044, 0.03264828, 0.05283459, -0.00453886, 0.01844488, 0.03773213, -0.00509372, -0.05710321, -0.03238940, 0.05256143, -0.10543744, -0.00718601, 0.09026223, -0.01945905, 0.03580306, -0.14728194, -0.09205517, -0.00826477, -0.03965047, -0.04221147, 0.00772178, -0.04726927, 0.00752095, 0.04771063, 0.07152059, 0.02884357, -0.05732816, 0.03301434, 0.04994958, 0.02328370, -0.00384306, -0.10821923, 0.01940078, 0.01030520, -0.02163614, 0.03889349, -0.00891027, -0.00692287, 0.00699322, -0.00906213, -0.09088492, 0.13728495, -0.00747897, -0.06859022, 0.00022035, 0.08775634, 0.02196814, -0.02732055, -0.00706263, -0.00761080, 0.06185276, 0.05556319,
-0.05467214, -0.07053006, -0.08527569, 0.01740877, -0.03975486, 0.02388220, -0.01403544, -0.05949156, -0.07442043, 0.02375603, -0.01554106, 0.03792050, 0.06486467, 0.00417543, 0.03724208, -0.01203847, 0.04119827, -0.03881277, 0.00974734, 0.03778697, 0.03587544, 0.01393338, 0.05086260, 0.03521997, 0.02453523, -0.00497735, 0.04250345, -0.04267924, -0.00327047, -0.02455411, -0.03704955, -0.05852762, 0.07857881, 0.03679844, -0.00422949, 0.01427383, -0.06009389, 0.00662586, -0.00876742, 0.01872111, -0.05352037, -0.05020807, 0.05902366, -0.04847194, 0.01956902, -0.00831722, 0.06652219, 0.03558722, 0.01673707, 0.00042816, 0.02898427, -0.00688321, -0.03640212, -0.02352608, -0.00712495, -0.01247025, 0.04594696, 0.03826321, -0.00213671, 0.05650265, -0.04680014, -0.05268611, 0.04326018, 0.07384653, -0.01398931, 0.02778474, -0.03339691, -0.06906643, -0.02322892, 0.06428909, 0.13370641, 0.01991657, -0.07571357, -0.04779225, 0.02977314, 0.01982211, 0.05333085, -0.01545039, 0.09581213, -0.00664401, -0.06469294, 0.03977185, -0.03719188, -0.04691453, -0.07619344, -0.01818546, 0.02789358, -0.03769761, -0.06204243, 0.10113224, -0.00421688, -0.06831259, 0.01328298, 0.02540011, 0.03309641, 0.01769101, 0.03530569, 0.05304718, 0.07142738, -0.01872356, -0.03828631, -0.08047991, 0.01011839, 0.01078989, -0.00984127, -0.01682720, -0.08303599, 0.02991656, -0.03449912, 0.05328373, -0.03279931, 0.04507187, -0.04327023, 0.03366803, -0.02655008, -0.01890342, -0.00968690, 0.09046228, 0.05030742, 0.05912881, 0.04317113, 0.08624399, 0.03146612, -0.04149294, -0.02755623, 0.12139209, -0.03507273, -0.06111917, -0.10125007, 0.01427102, 0.00910281, -0.02379234,
-0.07999286, -0.16386431, -0.16446447, -0.07031649, -0.07040436, 0.05907203, -0.00060247, -0.00787784, 0.04282221, -0.02119765, 0.04086172, 0.10889190, 0.05553712, -0.07090519, 0.06531660, -0.04779862, -0.03659004, -0.03328016, 0.05535542, 0.02724946, -0.01967737, 0.03230359, 0.14539285, -0.04401548, 0.07664850, -0.01612633, 0.03364011, -0.00850167, 0.02967804, 0.01465193, -0.15612671, 0.05693814, 0.05932272, -0.01622966, -0.05135340, 0.01063844, -0.11850309, 0.00262982, -0.00240166, 0.11730479, 0.03791166, 0.00716416, 0.00512914, -0.12167250, -0.01227250, 0.05476662, -0.03636507, -0.01346371, -0.07235468, -0.02580403, 0.03407618, 0.01499011, 0.01789782, 0.10461304, -0.04047560, 0.00439098, 0.06661328, 0.02796966, 0.00181938, 0.04446076, 0.06390104, 0.00426545, 0.00534163, -0.02367812, -0.03389896, 0.08399560, -0.02643139, 0.06375335, -0.00783243, 0.04950661, 0.11565650, 0.01678138, 0.07087746, -0.00732624, 0.05247664, 0.07024023, 0.00913642, 0.04939494, -0.03523190, -0.00121745, -0.01271109, -0.02658875, 0.03420759, -0.06973631, 0.06692181, 0.00351455, -0.05503879, -0.01887915, 0.00269278, 0.09384539, -0.01275022, -0.01577706, 0.17784208, 0.02288200, 0.06286123, -0.01763958, 0.04456813, 0.05703064, -0.07090852, -0.02248290, 0.09607001, -0.10391025, 0.01370892, -0.03536732, 0.08014490, -0.03709716, 0.02040214, -0.14306550, 0.00188165, -0.03437490, -0.01731570, 0.05478077, 0.03033326, -0.04970084, 0.01267568, 0.12129750, -0.03864187, 0.04634031, 0.12802424, -0.05091415, -0.05279419, 0.09763753, -0.01519867, -0.00448232, 0.04861409, 0.10633465, -0.04942810, 0.05809813, 0.01695736, 0.01007899, 0.04393683, -0.01068586,
-0.11057457, 0.06245939, 0.08529273, -0.06799118, 0.06997510, -0.04537065, 0.03638248, -0.05475879, 0.04115887, -0.03725992, 0.03416668, -0.09209893, 0.00936379, -0.02504935, 0.00539213, -0.02252706, -0.02016767, -0.00535716, 0.02880476, -0.02874644, 0.03111580, -0.04917642, 0.06088506, -0.02798234, -0.04789915, 0.01732297, -0.02408498, -0.01884365, 0.03324731, -0.00562096, -0.08544428, -0.05349085, 0.02229981, -0.02266224, -0.02257793, -0.03668808, -0.01916241, 0.01511134, 0.03699935, -0.01878419, 0.02054344, -0.00541717, -0.04874795, -0.00172079, -0.09613352, 0.03132492, -0.05149978, 0.04376988, -0.04148624, 0.00154054, 0.04568205, -0.04803016, -0.06385131, -0.03814239, 0.08526467, -0.01059354, -0.07511345, 0.09425484, 0.00082973, 0.05225296, -0.03566823, 0.04042096, -0.02949982, 0.03193346, 0.00152271, -0.04460467, -0.03718306, 0.05043195, -0.04067609, -0.03508993, -0.04238671, 0.05834956, -0.01963803, 0.05200686, -0.00072844, 0.04170243, 0.02879539, -0.03092358, 0.04682367, -0.01412401, 0.02877068, 0.03381309, 0.03732744, -0.14592306, 0.02550599, 0.06073515, -0.01528301, -0.01738064, 0.00425747, 0.01942811, -0.06973345, -0.00247408, 0.04004724, -0.06598178, 0.11055131, -0.01118905, 0.00792638, -0.03031568, 0.09132199, 0.08977309, 0.01474008, 0.01725691, 0.07260594, -0.01158836, -0.04802480, -0.04796022, -0.00108683, 0.04849976, 0.01524596, -0.03505823, -0.01343241, 0.02816111, -0.03941913, 0.04812916, -0.01927731, 0.04913270, -0.00767332, 0.12295518, -0.01586053, -0.03184355, -0.03031299, 0.04252398, -0.02001674, -0.01861266, 0.01937621, 0.02670274, 0.05545677, 0.06379689, -0.03491709, 0.01205506, 0.04635239, -0.03416352,
-0.08791004, -0.05165267, -0.02064104, 0.02944619, -0.04405010, 0.04343878, -0.08167583, -0.08166800, 0.07886972, 0.02713215, -0.05304398, 0.09372231, 0.05673201, -0.01957691, 0.02850992, 0.06688865, 0.00872324, -0.02375834, -0.01285856, 0.04265060, 0.02000785, -0.01007838, 0.03279642, 0.04318624, 0.10526777, 0.00255651, 0.05074989, 0.09264424, 0.02288661, 0.03761946, -0.03318994, -0.04915776, 0.00826934, 0.10859293, -0.00276627, 0.06560726, -0.06941968, 0.01494262, 0.02075248, 0.01150581, 0.00331955, 0.06525747, -0.05866665, -0.09478274, -0.00493089, 0.08791798, -0.11063030, -0.05865895, 0.06186292, 0.03816826, 0.02738306, -0.07283729, -0.00381954, -0.06651008, 0.02494386, -0.06219626, 0.01668249, -0.02101859, -0.03584866, 0.06955127, 0.04930671, -0.04609046, 0.09802613, 0.03723779, -0.02149868, 0.03810330, 0.03542367, -0.01801591, -0.04143637, 0.01903952, -0.00680405, 0.04738874, 0.00991447, -0.00272020, -0.00543774, 0.07955847, 0.03909549, -0.02255907, 0.00684349, -0.08326185, 0.01865734, 0.00402118, 0.03069817, -0.09137966, 0.01935079, 0.05871561, 0.03402086, -0.02146434, -0.00656109, -0.01206156, -0.01441292, -0.04819065, 0.05069013, -0.00223640, 0.10148580, 0.03378564, -0.03670184, 0.04164772, -0.03160454, -0.00039625, 0.00905298, -0.06839388, -0.04003748, 0.04964835, -0.01342852, 0.01199625, -0.02848446, -0.04516722, -0.05840321, 0.11044072, 0.05701570, 0.02684579, 0.01272938, -0.03493271, -0.01602666, 0.02875162, -0.04782626, 0.01449594, 0.00105037, 0.14841029, -0.05502439, 0.10978839, 0.04515751, -0.02334390, -0.00041450, 0.10980719, -0.06566902, 0.02906308, 0.00303724, 0.02857368, 0.02016063, -0.05058450,
0.06619459, 0.01820006, 0.01344193, 0.07611249, -0.03753719, -0.02267298, 0.01339530, 0.01669751, 0.05321440, -0.00430353, 0.00844788, 0.04377227, -0.02491404, 0.00176439, 0.01450676, -0.03171591, -0.01174707, 0.02649122, 0.03019075, 0.11488675, -0.06148811, 0.08920225, 0.15136115, -0.02617761, 0.01808118, -0.04413483, 0.12750953, 0.04823374, 0.05611026, 0.09321597, -0.02549882, -0.03647295, -0.07041387, -0.03411832, -0.05219975, -0.03944950, -0.04830028, 0.01048913, 0.04084144, 0.09537931, 0.01015614, -0.03781386, 0.10909202, -0.05910337, 0.02999555, 0.03327147, -0.02134675, 0.02171500, -0.03463883, 0.03420956, -0.03592078, 0.00570093, -0.05284564, 0.00165684, 0.06673968, -0.00602559, 0.06061127, -0.04553985, 0.10441396, 0.10807831, 0.03745827, -0.00999289, -0.01861793, -0.02032139, -0.03292188, 0.05462259, -0.00953579, -0.03316794, 0.05390495, 0.03418627, -0.02151587, 0.05232036, 0.02014993, 0.04791335, 0.04298541, -0.01927933, -0.04752938, -0.02608712, -0.10650130, 0.03122537, 0.03694171, 0.02231879, 0.06338186, -0.01189038, 0.01396701, -0.06561911, 0.10597538, -0.00579674, -0.03416156, -0.01621286, -0.01088928, 0.06979058, 0.13197544, -0.07091105, -0.06056389, -0.11568941, 0.00591681, 0.00117163, -0.01451886, 0.05512414, 0.01025082, -0.05625093, -0.04945315, 0.00928491, 0.04269172, -0.05324231, -0.03267371, 0.01524599, 0.05897578, -0.03826215, 0.00606073, 0.04563715, -0.01893507, 0.08031802, 0.05270259, 0.10206893, -0.08327831, 0.00275575, 0.02563994, 0.02801151, -0.10992792, 0.07391059, -0.05026836, -0.00387851, -0.03288073, 0.01634243, -0.06894743, 0.07198388, 0.03071195, -0.04312383, 0.07518958, 0.00035363,
-0.02404326, -0.00378043, 0.04811889, 0.09695466, 0.00168081, 0.03070123, 0.02236225, -0.02950456, 0.06409650, -0.04525723, 0.09202258, 0.05884565, 0.09927693, 0.00879424, -0.01273799, 0.02024469, -0.02394073, -0.03576754, -0.00294855, 0.01813037, 0.09166979, 0.01334839, 0.12810504, 0.03118272, -0.00020494, 0.01815920, 0.03456676, 0.04697917, -0.05005129, 0.05779073, -0.09866936, -0.05051710, 0.06546017, 0.03688867, -0.07267530, 0.05188286, 0.08066313, -0.02591264, -0.05228655, -0.04563210, 0.02170081, -0.01163398, -0.03952884, 0.02653709, 0.01261205, -0.03175120, -0.04353547, 0.05874629, 0.01762521, -0.01841244, -0.00949314, 0.04082863, -0.07003224, 0.00077379, 0.00196756, 0.02686028, -0.00054516, -0.04664620, -0.02519568, 0.00351734, 0.05081977, 0.02297104, 0.03779344, -0.04443064, -0.08828282, -0.00162361, -0.07153406, -0.02872454, -0.02572158, -0.00610103, -0.08227301, 0.02110214, -0.04183495, 0.05359797, -0.02608302, -0.00626675, -0.00882425, 0.02449438, -0.05103870, -0.01191230, -0.06824999, -0.02970289, 0.01211130, 0.01718452, -0.00513351, -0.01021580, 0.03766902, -0.03177681, 0.09635182, -0.00048007, -0.00661734, 0.04967733, 0.05550885, 0.02118173, 0.00933556, -0.00916668, -0.02736494, 0.04691553, 0.03279731, -0.06764795, 0.09294368, 0.00473422, 0.00053880, 0.04046177, 0.02484955, 0.03109331, -0.03221871, -0.06298533, 0.04842858, 0.02436933, 0.05516540, 0.01937893, 0.00604213, 0.05848490, 0.01726718, 0.04772297, 0.10136340, 0.04856334, 0.06237570, 0.01985641, -0.02259913, 0.06083887, -0.06208860, -0.00617511, 0.01540860, 0.05460295, -0.02137804, -0.04208886, -0.08312520, 0.01735728, -0.03467612, 0.00372358,
0.27746981, 0.19257450, 0.29425448, 0.23490678, -0.10597418, 0.03238203, 0.02509594, -0.02822170, 0.08052814, 0.03091597, 0.18449168, 0.07375025, -0.02204799, -0.03047345, 0.01877026, 0.02644957, 0.01422462, -0.01104815, -0.01772323, 0.03909100, 0.05247669, -0.01106661, 0.02336489, -0.01129420, 0.01292857, -0.05681284, 0.05886164, 0.03923960, 0.03866023, 0.04977384, 0.00161299, -0.12776828, 0.03389462, -0.04099484, 0.04714413, -0.07773398, -0.04023224, 0.00088787, 0.11738205, -0.00377794, 0.06204815, -0.13725525, 0.10401446, -0.09256601, -0.04641499, 0.08081827, -0.01204471, 0.02776013, -0.01306695, 0.00659566, -0.06530902, 0.03561417, 0.03972591, 0.03542374, 0.10008203, -0.01638235, 0.03703284, -0.06012775, 0.03662358, 0.05570775, -0.02410045, -0.11468247, 0.05916239, -0.00891809, 0.00565908, 0.01417453, 0.01269210, -0.07040048, -0.07560489, -0.02939958, 0.01951443, -0.04348059, 0.01134276, 0.03999291, -0.00597493, 0.00994092, -0.00911358, 0.01882766, -0.00684787, -0.00570366, 0.00316960, 0.01824292, -0.07549102, -0.03406366, -0.03614021, 0.02753723, 0.06281845, -0.02272587, 0.05600764, 0.04477327, -0.05762271, 0.04966543, 0.04754263, -0.06270841, -0.05579265, -0.01017788, 0.04433079, 0.04770440, -0.04599432, 0.06258270, -0.06258660, -0.10155634, -0.02801285, -0.06772429, -0.08329951, 0.03283199, -0.03264917, -0.08566505, 0.10599605, -0.01100547, 0.00795461, -0.01027923, 0.10826319, -0.03571584, -0.05491493, 0.02909665, -0.02970423, 0.03937555, -0.00992723, 0.04247453, -0.12369014, -0.12389585, -0.11754027, 0.10293327, 0.04642555, -0.09482717, 0.03578723, 0.03087356, 0.14083675, -0.08521061, 0.00065579, -0.05194736,
0.08185115, 0.14908019, 0.19566946, 0.20106292, -0.02822656, 0.00775601, 0.01738256, 0.01857548, 0.02434043, -0.01906235, -0.05193059, 0.06994295, -0.05544544, 0.05080029, -0.04274537, -0.06156924, -0.06434011, 0.03109653, -0.01746842, -0.00973259, -0.06296338, 0.19156875, 0.15955222, -0.03445601, 0.08203903, 0.01244729, 0.10286731, 0.00409247, 0.10076769, 0.06031023, -0.12600715, 0.00532719, 0.05970108, -0.19862898, 0.03419023, -0.01210864, -0.04693739, -0.01877269, 0.00833903, 0.12131312, 0.03605788, -0.01679951, -0.09240774, -0.03815858, 0.11598305, 0.01568930, -0.04980961, 0.01890002, -0.15039207, -0.00384252, 0.01598927, 0.10714978, 0.03241925, 0.09222835, 0.04006141, 0.04402951, 0.00225671, -0.08390106, 0.07498149, -0.02158123, 0.13406160, 0.05805330, -0.02574065, -0.04819319, -0.01985598, 0.15908921, -0.04328217, 0.05968977, 0.02084904, 0.02747829, -0.02569878, -0.00583420, 0.05622543, 0.04208213, 0.04967133, 0.06996415, -0.02986593, -0.05166104, -0.24747518, 0.08403187, 0.07173823, -0.05726184, -0.08748212, -0.00831992, 0.12644458, 0.08814224, 0.02882769, -0.00741685, 0.08040360, -0.03336295, -0.04054829, 0.10976259, 0.26775798, 0.12846041, 0.09232195, -0.08466792, 0.05987633, -0.03513381, -0.15039948, -0.04802164, 0.00939851, -0.07311732, 0.07467480, -0.12281007, -0.01047804, 0.03773209, 0.01855157, 0.07026204, 0.14376552, -0.03934719, -0.02826924, 0.06628523, 0.17857124, 0.00813043, -0.04752556, 0.02821702, -0.02682032, -0.01347964, -0.00865979, -0.08662950, -0.15860148, -0.02371956, -0.08685522, 0.10520637, -0.00176694, -0.04622421, -0.10108256, 0.06720729, 0.11513718, 0.02575850, 0.08424635, -0.03869891,
0.09706321, 0.19637534, 0.19012527, 0.05888358, 0.01762764, 0.04680529, 0.09020565, 0.00962046, 0.11888339, -0.03994613, 0.04212111, 0.13047649, 0.02059904, -0.03479250, -0.04540610, -0.01813625, 0.01049847, -0.05028162, -0.04782398, -0.01230170, 0.00386994, 0.02568056, -0.05490066, 0.10452179, 0.01377744, -0.03261505, 0.04930368, -0.04377095, 0.03444456, 0.01462860, 0.00923169, -0.03669988, 0.01543044, -0.04673233, -0.07351017, 0.04152527, -0.06385546, 0.06000410, -0.03422993, 0.03394788, 0.05380245, -0.05811208, -0.04035467, -0.05034805, -0.03699331, 0.01876589, -0.01755247, -0.11161157, 0.03921431, -0.05309701, 0.02962990, 0.05607492, -0.00254385, 0.07477974, -0.00268747, -0.02343181, -0.05813313, 0.07765695, -0.02181504, 0.10036756, 0.11367278, 0.04635424, 0.07739713, -0.00497968, -0.01078169, 0.01810895, -0.02188292, 0.00158158, 0.00408127, 0.05599733, 0.06598520, 0.02465623, 0.05307712, 0.01186020, -0.01188011, -0.05393435, 0.09375624, 0.09342232, -0.05779517, 0.01694951, -0.03099930, 0.13456467, 0.00652357, -0.08386821, -0.04014973, 0.01665450, 0.11607969, -0.02620148, -0.10058527, 0.03025093, -0.05867051, 0.11961617, 0.04737337, -0.03037481, -0.10865327, -0.09394493, -0.02726078, 0.07765628, -0.01003183, -0.02343419, -0.07825617, -0.03590324, -0.02920081, 0.01236742, -0.00559819, 0.00457712, -0.07226924, 0.06614271, 0.04599242, -0.04019309, 0.01737851, -0.05624655, -0.03118556, -0.04436124, 0.10966889, 0.01802933, 0.06925929, 0.00315382, 0.00774240, 0.11937121, -0.01785911, -0.04640044, 0.03299382, -0.17253728, 0.00570815, -0.04659330, -0.04049163, 0.00150037, 0.02182109, 0.02708744, 0.05791062, -0.02065302,
0.11578579, 0.09478296, 0.00023605, -0.02347968, -0.05877626, 0.03116046, 0.02268483, -0.04863757, 0.05670664, 0.02634617, 0.02565681, 0.01343694, 0.04150449, -0.01811309, 0.00629393, -0.07026395, -0.07390878, -0.01299831, -0.00164341, 0.03624640, -0.02674034, 0.03289846, 0.07143125, -0.00039440, 0.05575780, -0.08262502, 0.12781899, -0.04489568, -0.00567483, -0.05755097, 0.07377195, -0.09500945, 0.00835802, 0.00056918, 0.04614271, 0.05581337, 0.05257055, -0.01647192, 0.02972545, 0.06092786, -0.03352156, -0.01026106, -0.00499044, -0.13325933, -0.03975433, -0.06038426, -0.06295820, 0.00707888, 0.01211181, -0.03194801, -0.04293556, 0.03061222, -0.02418663, -0.02479825, 0.06324212, 0.00622129, 0.00944058, 0.00449096, 0.04899987, 0.02648876, 0.08848929, 0.00193657, -0.00297108, -0.05316480, -0.12067708, -0.00157602, -0.04817861, -0.03137707, 0.04935362, 0.13055573, 0.07867537, 0.03791710, 0.04756383, 0.08576030, 0.04676978, 0.08186097, 0.00603354, 0.06553925, -0.01494012, 0.00918630, 0.01737531, 0.01056513, 0.03388333, -0.09439664, 0.00317006, -0.01968645, 0.09450792, 0.04598553, 0.09178904, 0.02858759, -0.07126924, 0.00563738, 0.12269547, 0.05736420, 0.00106728, -0.03663543, 0.02044442, 0.07874069, 0.02788565, 0.05779901, 0.00373976, -0.04452040, 0.08494437, -0.01400184, -0.02028229, 0.02857692, 0.03019528, -0.02465924, 0.09879570, 0.02233707, -0.04437439, 0.06703910, 0.09692629, 0.09222802, 0.04029062, 0.03462259, -0.03300100, 0.00655704, 0.08332483, -0.06632446, -0.12952159, 0.03490902, 0.05320888, -0.05879438, -0.00027033, -0.07907568, 0.02166650, 0.04152128, 0.22035156, 0.05534997, 0.03612509, 0.03530667,
-0.09194071, -0.04233292, 0.03064081, 0.06924716, -0.11851098, -0.01353168, -0.03232540, -0.12258518, 0.11119590, 0.02972379, 0.02232226, 0.00972495, 0.00160043, -0.04497646, 0.06560954, 0.06187387, 0.02804918, 0.01386832, 0.03201853, 0.09165584, 0.00501794, 0.04030507, 0.03206229, 0.05072885, 0.06094345, -0.03285166, 0.02958620, 0.02337636, 0.02165549, -0.04352704, -0.12675804, -0.03046180, 0.00364792, -0.03857904, -0.00880969, -0.06690872, -0.08578507, -0.04188155, -0.01539142, -0.00349994, 0.04365006, -0.05875392, 0.05604033, -0.08153718, -0.06347004, 0.09350289, 0.05197088, -0.05769303, -0.03325966, 0.02163876, -0.03540822, -0.03335174, -0.05176166, 0.01419184, 0.12071575, -0.10172420, 0.01672150, -0.01302681, 0.02151903, -0.02789910, 0.10523104, -0.05240800, 0.08690532, 0.02323808, -0.13777661, 0.07497270, -0.05918591, -0.01850387, -0.03861525, -0.07598306, -0.05795606, -0.03613793, -0.04071214, -0.04502814, 0.11694881, 0.02895097, 0.02530606, 0.05508774, 0.00598008, -0.02194210, 0.07994699, 0.09440262, 0.02715262, -0.02091324, 0.04004426, -0.00155416, 0.05281411, -0.00391303, 0.06711094, -0.03121325, -0.10953728, -0.00672898, 0.17704998, 0.02287290, 0.03828400, -0.03447446, -0.07032352, -0.02228687, 0.01022339, 0.02473870, -0.01082003, -0.15020558, 0.15446213, -0.02034252, 0.00875874, 0.03739154, 0.00054768, 0.06137285, 0.03648892, 0.00335980, 0.10299360, -0.01314158, -0.07796728, 0.06649209, 0.02398282, 0.09025641, 0.02147690, 0.05737140, 0.04076461, 0.05792760, -0.09900077, 0.14018402, -0.07602793, 0.03560967, -0.01064344, 0.08061809, -0.01066034, -0.12318444, 0.03309694, -0.00382931, 0.12157175, 0.04621236,
-0.03261202, -0.07396208, 0.02536202, 0.06223950, -0.11252607, 0.11176418, 0.07727600, -0.06825213, 0.08400921, 0.05675863, 0.03320866, 0.02122047, -0.02418064, 0.01576486, -0.02283677, -0.05044269, -0.02827556, -0.02135052, 0.02536336, 0.10595041, -0.04074043, 0.11849649, 0.12866311, -0.02531414, 0.07977317, -0.03901434, 0.09990915, 0.03949343, 0.04418850, 0.01556132, -0.12488230, 0.11692400, -0.00127783, -0.13439244, -0.09692125, -0.03717475, -0.06303888, -0.04029548, 0.07922028, -0.00834178, 0.02506224, -0.00059274, 0.05760889, -0.12695608, 0.05765256, 0.04276579, -0.06715947, 0.07234903, -0.03600085, 0.07688287, -0.02277239, 0.01605038, -0.08990481, 0.04937130, 0.06509279, 0.00382075, 0.03409017, 0.01684259, -0.01246474, -0.02438201, 0.05085802, -0.02255554, 0.06442364, 0.01082726, -0.03089803, 0.09257102, -0.06001773, 0.08292703, 0.07056402, 0.03760001, -0.02237942, 0.06932944, 0.03693844, 0.03213783, -0.00888243, 0.06451300, 0.01428683, 0.06503874, -0.14157443, -0.04297110, 0.06247346, 0.00284080, -0.03365938, -0.04884009, 0.10123597, -0.07044259, 0.06192603, -0.06368121, 0.00189774, 0.01629326, -0.03043832, -0.00322621, 0.16863647, -0.02705558, 0.13275310, -0.10660701, -0.00834651, 0.01655797, -0.06747901, -0.06452265, 0.00209536, -0.10216800, 0.08864179, -0.06550130, 0.05803629, 0.00682411, -0.03148185, -0.05912086, 0.06783125, -0.06757870, -0.10578024, 0.04821447, 0.12183548, 0.00469027, 0.02764804, -0.01651090, -0.02509177, -0.00821716, 0.06331881, -0.02280885, -0.10949912, 0.11549321, -0.16844070, -0.02244652, -0.03821458, -0.04712751, -0.03863886, 0.03992401, 0.05557159, -0.01635651, 0.05822602, -0.07335240,
-0.10143426, 0.04187307, -0.12249442, 0.01494852, 0.03958421, -0.03805243, -0.03890463, -0.00319053, 0.09410105, -0.02298066, -0.00064365, 0.05053251, 0.01260993, 0.06267375, 0.07052442, 0.00420034, 0.03203587, -0.01498592, 0.06395163, 0.05431810, 0.06844028, 0.05088623, 0.04211160, -0.00588302, 0.02510044, -0.04996539, 0.05493953, -0.03419077, 0.06841368, -0.00412961, -0.08382251, 0.04641547, 0.07255445, 0.00748330, -0.01008222, 0.05464567, -0.17402476, 0.03416966, 0.07374687, 0.02520524, 0.05459112, -0.06184181, -0.01273409, -0.00048773, -0.00232424, 0.00289436, -0.02774205, -0.01177155, -0.04400271, 0.01916715, -0.02821458, 0.00465388, -0.01250842, -0.05250873, -0.06690348, -0.03402554, 0.05817587, 0.07191358, -0.03390625, 0.03971181, 0.13546616, 0.07258833, 0.03899400, -0.10292580, -0.02869383, -0.01284030, -0.04899105, 0.02349428, -0.00840507, 0.08886898, -0.00618955, 0.04913894, -0.04588605, -0.02197884, 0.09048288, 0.00858987, -0.01370293, 0.07634005, 0.02470076, -0.08296478, 0.02938511, 0.00041137, -0.02577606, -0.04896577, 0.05028358, 0.03749643, -0.02588989, -0.04358614, 0.00313062, 0.03611877, 0.04300079, -0.01082218, 0.10047141, 0.05760185, 0.05050464, -0.03171035, -0.07096927, 0.00805616, 0.02204762, 0.02713521, 0.07542486, -0.09053351, 0.01534546, -0.05429281, 0.03631682, -0.04792189, -0.07006790, 0.00440953, 0.15063055, -0.00269250, 0.06092898, -0.01920954, -0.02669242, 0.00456986, -0.00074927, 0.04005741, -0.06621588, -0.00721544, -0.03873242, -0.06081867, -0.13785891, 0.13824633, -0.04460403, -0.05891334, -0.03305537, 0.06898891, 0.01824440, 0.06543081, 0.09338097, 0.02325637, 0.06588054, -0.06624499,
-0.02285607, -0.12192649, 0.03299697, 0.01809223, -0.13962622, -0.00958309, 0.02427419, -0.01012725, 0.05021055, 0.06827807, 0.01728236, 0.05483589, -0.01671109, 0.02516377, 0.00491107, -0.04708633, -0.07022275, -0.05048257, 0.00036667, 0.04576889, 0.07735662, 0.05507021, 0.07542661, 0.06324951, -0.03824826, -0.08871840, -0.03179429, -0.03589896, 0.11235975, -0.03722514, -0.08352877, -0.01908042, -0.03294139, -0.07894436, -0.01360682, 0.02615026, -0.02936302, -0.02804858, -0.01360430, -0.05546483, 0.01491039, -0.01023709, 0.03469218, -0.00244872, 0.00865593, 0.02454888, -0.04459098, -0.05615589, -0.04799965, -0.02644798, 0.02712840, 0.02437440, -0.03733292, -0.02957926, 0.07345517, -0.02706374, 0.01341747, -0.00341116, 0.00513284, 0.10449360, 0.03123105, 0.04912089, -0.02722299, -0.02277730, -0.05142213, -0.03247430, -0.07857842, -0.02218900, -0.03796761, -0.00038331, 0.02424440, -0.03845348, -0.06490328, -0.02567295, -0.00313548, -0.01434708, -0.07211034, 0.06176354, -0.01593190, -0.00961290, -0.00234377, 0.06803370, 0.04769131, -0.05574076, 0.01163993, 0.05829829, -0.00239007, -0.01196220, 0.06672820, -0.04755366, -0.05623702, -0.00210851, 0.04750119, -0.01662747, 0.09878368, -0.02377376, -0.02875924, 0.04810239, 0.02242702, 0.02890581, 0.08619062, -0.16300404, 0.10260366, 0.04106948, 0.05052884, -0.05698290, 0.02863479, -0.07729632, 0.05260261, -0.02871054, 0.08508512, -0.00198597, 0.04413083, 0.02189065, -0.03019748, 0.01554829, -0.04464205, -0.00339126, 0.05215896, 0.04537275, -0.08696412, 0.07621240, -0.03751794, 0.03120675, -0.08145963, 0.20736472, 0.03444746, -0.01414079, 0.00757421, 0.01124598, 0.09464873, -0.06021582,
0.02441331, 0.01245374, 0.10400521, 0.01319650, -0.03057691, 0.06330793, 0.04307299, -0.04367335, 0.11851612, 0.08100497, -0.04086789, 0.00341717, 0.05499617, -0.01068818, -0.02169555, -0.03422635, -0.02032714, 0.01324232, 0.12340340, 0.05537462, -0.04594459, 0.01662913, 0.02915409, 0.04783781, -0.01672106, 0.01442621, 0.03048028, 0.03479252, 0.08309320, -0.04319676, 0.00927046, 0.00285252, 0.01044756, 0.00467402, -0.02408474, 0.07504045, -0.01903839, 0.00957159, 0.02641842, -0.01801769, -0.02777780, 0.04615271, -0.03584625, -0.08136113, -0.05050514, 0.00356672, 0.01893420, -0.08134974, -0.00739441, 0.00232314, 0.02948141, 0.05663114, -0.05028448, -0.05014659, -0.02103022, -0.07630176, 0.10199773, -0.01207493, -0.02141963, -0.06410609, 0.14787164, 0.01224614, 0.00840692, 0.07419970, -0.04739467, -0.09223416, -0.04794864, -0.05291681, 0.00508241, 0.04949526, 0.11692793, 0.01809940, 0.01202435, 0.06397820, 0.03493881, 0.04370370, 0.02741632, -0.00410679, 0.02590895, -0.03024681, 0.04374665, 0.02064633, -0.01252149, -0.05149832, -0.01845738, -0.05467835, 0.08461773, -0.02853619, -0.01159097, 0.04299856, -0.06748897, 0.08405103, 0.02717332, 0.00036320, 0.03263836, 0.01998484, -0.01385910, 0.05414082, -0.06408751, 0.12025476, 0.00367440, -0.05149897, 0.04422553, 0.09906013, 0.03107540, -0.01694911, -0.11377712, 0.04083681, -0.01031032, 0.05122351, -0.00560543, 0.06979768, -0.06766600, 0.04490170, 0.05820813, 0.04903271, 0.10454918, 0.02304345, -0.01952836, 0.08336908, -0.04239661, 0.05231071, 0.02046397, -0.02432630, -0.03064424, 0.00860551, 0.07979416, 0.01920118, 0.04977516, 0.02599104, -0.06007821, 0.01860310,
0.17239423, 0.25782737, 0.27386570, 0.18700212, -0.20280442, -0.06813779, 0.10617357, 0.13708970, 0.10191951, 0.07571573, 0.05970927, -0.00506631, -0.13924225, 0.10497148, -0.04751397, -0.11323804, -0.12567380, 0.09975056, -0.02515275, 0.14724503, -0.10345519, 0.29224011, 0.34072176, -0.14795886, 0.13567966, 0.11630021, 0.30706781, 0.02124720, -0.01896508, 0.20571804, -0.23630057, 0.11026870, 0.01216832, -0.44035551, -0.11664226, -0.13070083, -0.03711346, -0.18477945, 0.06571420, 0.11381620, 0.03618956, -0.10569596, -0.16180143, -0.12862241, 0.11936009, 0.07845245, -0.03312335, 0.20692202, -0.29268059, -0.04275170, -0.12850119, 0.16080767, 0.08644687, -0.12791575, 0.18414891, 0.07620595, -0.00044065, -0.17314212, 0.20461196, -0.17239065, 0.08844674, 0.06140215, 0.00869789, -0.04768198, -0.18614650, 0.19271198, -0.01357342, 0.16886415, 0.07095919, -0.01208941, -0.00212708, 0.01442161, 0.18126953, 0.10094241, -0.02741280, 0.02085202, -0.14237301, -0.03708092, -0.30819145, 0.08652936, 0.10420005, -0.19362801, -0.13862403, -0.03717967, 0.09517341, 0.06405934, 0.06109745, 0.08330569, 0.17217381, -0.07708583, 0.04865206, 0.23240560, 0.53571588, -0.00694788, -0.17224748, -0.24967450, 0.01482032, 0.07874625, -0.16505001, 0.04703905, -0.06441154, -0.40023166, 0.11127270, -0.39696032, -0.14005591, 0.15455802, 0.16436140, -0.12075810, 0.21847375, -0.10843144, -0.11449800, -0.07828522, 0.29445466, -0.03364671, -0.20744020, 0.05741243, -0.12504072, -0.11838688, 0.04299288, -0.11822646, -0.27618414, -0.15530401, -0.30825579, 0.13338253, 0.07892650, -0.12615679, -0.01429469, 0.16695882, 0.35570344, -0.06219440, 0.18936987, 0.09752074,
-0.06711947, -0.04414069, -0.01024397, 0.08979394, -0.00252187, 0.12837897, 0.00806646, -0.07189472, 0.05430587, -0.00244870, 0.01846153, -0.00449904, 0.02136532, -0.03738807, 0.00685965, -0.00892969, 0.00863718, 0.02633337, -0.03334061, 0.00083005, 0.02186822, 0.00600247, 0.00498828, 0.06045273, 0.07380923, -0.01444697, 0.10729945, 0.00715540, 0.08255648, -0.04664956, 0.03168669, -0.04641187, 0.00344707, -0.00874177, -0.03838416, -0.00764282, 0.00854125, 0.04025663, -0.01370743, -0.01794234, -0.00365500, 0.05150976, 0.00754929, -0.10195137, -0.04917369, 0.02973598, 0.07665722, -0.02578985, 0.02919796, 0.01834103, 0.00124857, -0.12881851, -0.03792290, 0.07742283, 0.04877725, -0.03706716, 0.03672063, 0.09160819, 0.01444351, -0.01259784, -0.00357843, 0.06112861, -0.08471303, 0.07036663, -0.00588004, 0.02866760, 0.00771465, -0.03863949, 0.05569762, 0.07449996, -0.08820420, 0.04608113, 0.00511687, 0.04455278, 0.07836597, 0.02406955, -0.01619668, -0.00723676, 0.05882550, 0.00711272, -0.04889997, -0.02449483, -0.00290062, -0.09942735, -0.04101307, -0.04993951, 0.02331581, -0.02459213, -0.03735887, 0.03745141, 0.01816015, -0.03564071, 0.13242127, -0.04142867, 0.00482399, 0.02492088, -0.06747271, 0.07664223, -0.04628288, -0.04313761, -0.00380466, -0.01312920, 0.08653779, 0.08238494, 0.01773938, 0.06503315, -0.00097393, -0.03664324, 0.00884405, -0.02480775, 0.03817030, 0.02894014, -0.04076313, 0.06862684, -0.01120323, 0.08069874, 0.04730515, -0.05622774, 0.01268730, -0.00676655, -0.05999601, 0.12555821, 0.00764230, 0.03026155, 0.02288936, 0.07270432, -0.04073339, -0.04119461, -0.02434344, -0.06358782, 0.07537869, -0.08330433,
-0.07286334, -0.00773084, -0.06326164, 0.01525713, 0.06429294, 0.07487986, -0.02304648, -0.08124916, 0.07658653, -0.03130514, -0.03842799, 0.05701157, 0.01155818, 0.00417469, 0.08569512, 0.06316347, 0.04906859, 0.07232486, 0.05358809, -0.02928378, 0.06904998, 0.00824367, 0.03697173, 0.05784480, -0.00177299, 0.03627894, 0.08526491, -0.00024082, 0.07194860, 0.00975774, -0.05979270, -0.04849527, 0.05605416, 0.00760196, 0.02611350, 0.07792536, -0.08523890, 0.04032143, -0.03708307, 0.00087517, -0.00596849, -0.03495049, 0.03449392, -0.09494019, -0.06380426, -0.06735135, -0.05191898, -0.00713080, -0.03666403, 0.03904944, 0.01110232, -0.09024796, -0.06615271, 0.02870761, 0.02052049, -0.05558725, 0.06090133, 0.08974501, -0.00526241, 0.10365434, 0.09307550, -0.02298408, -0.03892906, -0.02323073, 0.00960663, -0.01849421, -0.01519634, 0.02481155, 0.04365849, -0.07072033, -0.06375300, -0.08746394, -0.06727175, -0.02840060, -0.00997460, 0.00260280, -0.03596691, 0.05211477, -0.00536248, -0.03174658, 0.00035541, 0.09471464, 0.02767919, 0.02492628, -0.08799924, 0.02232834, 0.09323229, -0.01597608, 0.02774032, 0.00088137, -0.04457494, 0.00550873, 0.10929040, 0.09250187, 0.08815664, -0.04438033, -0.01509747, 0.03563169, -0.04853437, 0.05875314, 0.14429834, -0.05859543, 0.04777754, 0.01580816, 0.06485784, -0.03815247, 0.01295192, 0.01527934, -0.01972816, 0.01546348, -0.00730384, -0.04170755, 0.00363358, 0.04390204, 0.01596038, 0.02732217, -0.03997251, 0.05199474, 0.08057427, 0.05382007, -0.03309992, 0.26970780, 0.02176365, -0.06819469, -0.04631927, 0.14557977, -0.04241291, -0.01859427, -0.01313298, -0.02924432, 0.00551523, -0.00114476,
0.24472922, 0.24440597, 0.28795880, 0.23917100, -0.04697452, 0.04686755, -0.02794075, 0.04050631, -0.01755811, -0.04435701, 0.10533459, 0.02115377, -0.03876517, -0.00409294, 0.02369167, -0.07250132, -0.05583585, -0.01291809, -0.03500913, -0.04192342, 0.10810523, 0.01769941, -0.04705404, 0.07888842, 0.05419386, -0.00623973, -0.01551829, -0.01853067, 0.00281482, -0.06061784, 0.08857327, -0.00720892, -0.02232627, -0.02309236, -0.05669748, -0.00543998, -0.02849600, -0.05992302, 0.03831344, -0.00101249, -0.06707240, 0.03970730, 0.03862826, 0.00001212, 0.06938391, -0.06234145, -0.02072957, 0.04077641, 0.07771046, -0.03573851, -0.02092343, -0.04324760, -0.00036105, 0.02596761, -0.01940711, -0.01035365, 0.02405290, -0.06259265, 0.01936605, 0.01624671, -0.01512756, 0.01288386, -0.00777700, -0.06131552, 0.04832950, 0.05262470, 0.04412683, 0.00606228, 0.04847887, -0.01578825, -0.04167479, -0.01927026, 0.00846589, 0.05707386, -0.04357585, -0.00036594, -0.02330143, -0.11410592, -0.02694270, -0.01590690, 0.03728191, -0.01772835, 0.04361146, 0.01511748, -0.00909957, 0.04050120, 0.06493223, 0.04823901, -0.05244493, -0.04129994, -0.01280765, 0.11796986, -0.13171178, 0.03304713, -0.15386537, 0.02983134, 0.05536459, -0.07221871, -0.08095264, -0.01837229, -0.15262829, -0.06724565, 0.01467563, 0.04239383, -0.09469632, 0.09801674, 0.02475742, 0.02398634, -0.02921884, -0.04920452, 0.02912493, -0.06398326, -0.06107604, 0.07941700, -0.00693827, -0.01453249, -0.04956723, 0.03108341, -0.07792795, 0.04381608, 0.06151319, -0.18812083, 0.11433685, 0.07921237, 0.02191855, -0.23466779, 0.06265957, 0.06388028, 0.11432623, 0.02585687, -0.18429691, 0.01017278,
0.00690150, 0.05538882, -0.01200027, 0.08389540, 0.02439224, -0.01436020, -0.09049974, -0.05658869, 0.02040333, 0.01511327, 0.00364986, -0.02996759, 0.02493575, 0.00342134, 0.00893995, 0.00817908, -0.03625240, -0.02406448, -0.03211942, 0.02961449, 0.02418145, -0.00505619, -0.02191527, 0.00902503, 0.02016120, -0.02400153, 0.05639568, -0.00594725, -0.01236450, -0.03426363, 0.03388137, -0.05357031, 0.09472743, -0.05875211, 0.00793509, 0.04447873, -0.06767140, 0.03194103, -0.03817024, -0.01751352, 0.06446523, 0.08562166, -0.02463246, -0.01091618, -0.01886305, -0.03328164, -0.02719842, -0.00723224, -0.00585259, -0.06105221, -0.01521792, -0.01144213, 0.00788066, -0.03683649, -0.03757933, -0.00159760, 0.06502233, 0.01545342, -0.04052863, 0.01562631, 0.01314593, 0.02271393, 0.03108256, -0.01294332, 0.02131403, -0.08569647, -0.04315279, -0.05218135, -0.09787993, 0.02757394, 0.05716375, 0.03100224, -0.00388775, 0.00928290, 0.06456835, -0.01225620, 0.04434430, 0.08558615, 0.00693341, -0.06355440, -0.02324399, 0.02366554, 0.06702615, 0.04743425, -0.10207681, -0.02209818, 0.06289814, -0.12422532, -0.02107661, 0.03259398, 0.10210839, -0.02009699, 0.06713796, -0.01981789, 0.06157634, 0.01263664, -0.02617644, 0.01106925, -0.06436642, -0.02637951, -0.07809445, 0.13352066, 0.04565420, 0.01852279, 0.04618612, -0.02282302, 0.01053118, 0.02976589, 0.01626381, 0.03647792, 0.02115321, -0.00659093, -0.01739101, 0.02922985, 0.06488755, 0.03079977, -0.04425407, -0.00884250, 0.08905178, -0.03404002, 0.01479789, 0.11265560, -0.02787201, -0.06502641, -0.09482445, 0.01347420, -0.01043810, -0.06852275, 0.03639520, 0.03305508, -0.00624076, 0.00153626,
0.23499639, 0.17837849, 0.15368100, 0.22411895, -0.09933960, 0.02336191, 0.04407770, -0.06142510, 0.03771209, 0.00405128, 0.04186988, -0.04557055, 0.00787507, 0.02557852, 0.04072117, 0.00672551, -0.07240082, -0.06174263, -0.03405826, 0.03533710, -0.02737478, -0.00271371, 0.06488375, -0.06484769, 0.04094609, -0.05910264, 0.10345526, 0.01092411, 0.06723998, -0.03326194, -0.03778517, -0.08721571, 0.01667246, -0.03554224, 0.03566523, -0.00399233, -0.00092768, 0.01135535, 0.04599164, -0.04164976, -0.00462177, -0.03087355, -0.01114949, -0.06423017, -0.04768432, 0.08308675, -0.08216835, -0.02100138, 0.03095439, 0.01147656, 0.00826446, -0.01576448, 0.12089492, 0.05009386, -0.02718838, -0.10803252, 0.00396239, 0.04900321, 0.01124829, -0.04551254, 0.09301457, -0.01455807, 0.09808588, 0.01702023, -0.01702651, -0.10571928, -0.01189787, -0.00518418, 0.01721929, 0.01224601, 0.05067939, 0.03145345, -0.04228453, -0.01673901, 0.02811983, -0.08111998, 0.00107232, 0.00963002, 0.03862536, -0.08369097, 0.00431407, -0.03129802, 0.07459392, -0.04548097, -0.06124908, 0.03809088, 0.04091648, -0.00011581, -0.05730524, 0.03103627, -0.03042029, 0.08434729, -0.03387045, 0.05363330, -0.10122836, -0.03110562, -0.00220402, 0.00095114, -0.02083986, 0.01757747, -0.13345629, 0.01348506, -0.08051631, 0.01302145, 0.01382607, 0.02087656, -0.03184697, -0.00409271, 0.09968778, 0.02475675, -0.01291729, -0.03450059, 0.00442547, 0.12077949, -0.03311299, 0.04179800, -0.00917411, 0.09520228, -0.00327219, -0.03743525, -0.03726687, -0.04986308, -0.06818181, -0.02822512, 0.02089961, -0.07081343, 0.02094738, 0.00278756, 0.08456808, 0.02096690, -0.00284793, -0.15854979,
-0.03676771, -0.06452077, -0.11369828, 0.00142498, -0.11736176, 0.04559431, 0.02607575, -0.02278599, 0.12491957, 0.06320704, 0.12302081, 0.06434245, -0.01335581, 0.02756838, -0.06193191, -0.04127849, -0.05357406, 0.02779177, -0.08997623, 0.06082653, -0.03016556, 0.10741073, 0.18768150, -0.08085269, 0.08828893, -0.01557714, 0.21442500, 0.16664852, 0.17037854, 0.07349243, -0.17836264, -0.02988172, 0.09718195, -0.20737487, -0.05537816, -0.09353878, -0.02159561, -0.05111356, 0.07760229, 0.03067214, 0.00928868, -0.06552536, -0.04605397, -0.03170640, 0.01818179, 0.03107272, -0.04579686, 0.14367463, -0.10703984, 0.07503818, -0.04668541, -0.00135123, -0.03282729, 0.06874370, 0.12757882, -0.01496272, 0.10595565, 0.02049286, 0.12444162, 0.01301783, 0.09282799, 0.03985644, 0.00862092, 0.01025018, -0.22006080, 0.11183009, -0.12105224, 0.02090618, 0.03123955, 0.01588024, -0.01892794, 0.07219245, 0.04783123, -0.00669250, -0.01290875, 0.05894991, 0.02355555, 0.06536474, -0.08358790, 0.04003025, 0.04161327, -0.00968702, -0.07623898, -0.03326354, 0.01468535, 0.01690944, 0.18977712, -0.01848604, 0.04227931, 0.05156042, 0.03505142, 0.05146885, 0.23551510, 0.00288513, 0.05272878, -0.07152528, -0.12392172, 0.02373659, 0.02847023, -0.01457961, -0.05001985, -0.22295164, 0.10230895, -0.09042676, -0.02731264, -0.00828965, 0.01472220, 0.00557120, 0.16677170, -0.04069586, 0.04457038, 0.03769762, 0.07969633, 0.06217240, -0.00385357, 0.08404351, -0.03212025, 0.02986829, -0.00430638, -0.06960429, -0.15999475, 0.08230936, -0.15457959, 0.04548309, -0.04352094, 0.10664343, -0.10039399, 0.03283744, 0.10466197, 0.01915754, 0.05112997, -0.02396355,
0.02256766, -0.10055040, 0.03795137, -0.03629495, -0.06678101, -0.04685505, 0.07723550, 0.01659711, 0.04909223, 0.06708724, 0.04608381, -0.00807040, 0.00506089, 0.00675998, -0.01277024, -0.05036468, 0.11010996, 0.05522591, -0.03928688, 0.01850771, -0.08363681, 0.09259403, 0.03385352, -0.00695314, 0.00810341, -0.11736094, 0.01618463, 0.02057477, -0.03449577, 0.03675949, -0.04605181, -0.05419910, -0.03462166, 0.09149686, 0.04631811, 0.02494981, -0.04358409, 0.05793267, 0.07657995, -0.09426033, -0.00077652, -0.07954691, -0.08256453, 0.06918237, 0.00529792, 0.08456423, 0.05400762, -0.01768013, -0.13669705, 0.06125522, -0.01291077, -0.02244756, 0.06710318, -0.00501877, 0.04133042, -0.05936866, 0.06156214, -0.06378309, 0.02268862, 0.07910001, 0.01261378, -0.00082855, 0.05254453, -0.01910204, -0.01574227, -0.02093647, 0.00792549, 0.02125620, -0.02486424, -0.01746084, 0.01284918, 0.08108781, -0.00378398, -0.00739867, 0.10998496, 0.08224443, 0.03007837, 0.08517759, -0.04863549, -0.08825380, -0.03059607, 0.02155481, -0.02372113, -0.05006177, 0.00023510, 0.02801786, -0.01397266, 0.00739809, -0.01915231, 0.01780080, 0.03707925, 0.01490593, 0.14326547, -0.08936206, -0.00845280, -0.00894325, 0.04315940, 0.02996316, 0.02660881, 0.03543711, 0.06885505, -0.07334343, 0.10685270, -0.11145158, -0.05554245, -0.01806868, -0.06346715, 0.01414498, -0.01374020, 0.04748919, -0.01578571, -0.12792306, 0.04709667, 0.01034249, -0.05721655, 0.01876667, 0.07188476, 0.07675221, -0.01027016, -0.07947036, -0.06395612, 0.03032786, -0.09191208, 0.02559187, 0.04288232, -0.01584569, 0.07002421, 0.02039093, -0.00765306, -0.10215447, 0.12610510, -0.04048023,
-0.04341084, 0.01923089, 0.09537962, 0.11735260, -0.03869826, 0.03801138, -0.02071092, -0.03097607, 0.06358206, 0.02941010, -0.03341605, 0.02294619, 0.02660268, -0.04933659, 0.01147577, -0.05947392, 0.00569592, 0.01959915, 0.03014105, 0.06584074, 0.00450923, -0.09457339, 0.11208195, -0.01420767, 0.07424918, -0.05964458, 0.09867430, -0.04984993, 0.00330622, 0.05452561, -0.09766810, -0.06441332, 0.05579119, -0.06998960, -0.06447192, -0.05577836, -0.06075376, 0.00226141, -0.01549731, 0.03234858, 0.00078383, -0.07600905, 0.10214483, -0.07716177, 0.00130465, -0.02027380, 0.00904538, -0.06213775, -0.00910871, 0.07082653, -0.06332704, 0.03536011, 0.03037916, 0.07188582, 0.03776914, -0.06279558, 0.08669168, 0.03896661, -0.02319289, 0.04493978, 0.03085985, 0.03476173, -0.00573528, -0.02258408, -0.10067568, -0.00027495, -0.02996557, -0.01708255, -0.06237792, -0.01439249, -0.00340231, 0.03359259, 0.02060766, -0.03812179, 0.05514857, -0.01209516, -0.03536207, 0.03890304, -0.03921348, -0.02454294, -0.00142747, 0.03519510, -0.02964842, -0.10099361, -0.02174428, -0.01648951, 0.03560276, -0.02303452, 0.05491463, 0.00179880, -0.01767370, -0.08002716, 0.13501064, 0.02788677, 0.09006442, -0.00820463, 0.01931352, -0.02033860, -0.03169598, 0.00029411, -0.03391870, -0.03091360, 0.03653624, -0.07081688, -0.06681856, -0.08398406, -0.01404969, 0.03264530, 0.10829911, 0.05937224, 0.02656810, 0.03961428, 0.06787945, 0.05140869, 0.00202734, 0.04652871, 0.03289342, 0.04358806, 0.08269437, -0.01002587, -0.10308030, 0.16142204, -0.06008250, -0.04646900, -0.03291738, 0.00414157, 0.00624223, 0.08950524, -0.11298347, 0.02954571, -0.01992779, 0.03238119,
-0.09128229, -0.06857061, -0.06532151, -0.10742452, -0.07041392, -0.06666414, 0.00908932, -0.05698721, 0.09618749, 0.02417683, -0.01234561, 0.12695470, 0.02662784, -0.04972459, 0.02504369, -0.03303917, 0.07528734, -0.01540795, -0.02951639, -0.01603971, 0.05862648, 0.15431105, 0.13442853, 0.04109054, 0.03432783, -0.03266402, 0.05988296, 0.00692521, -0.01682636, 0.01254799, -0.04220208, -0.05190741, -0.09119919, 0.06027568, -0.02721341, -0.03936626, -0.14131467, -0.05621441, 0.01777050, -0.14298141, 0.04580419, 0.00432898, 0.00730707, -0.10412432, 0.00725514, 0.05139891, -0.02727572, 0.08776245, -0.10607582, -0.00286280, 0.04517154, 0.00318142, 0.00448718, 0.03956653, 0.01262396, 0.00038243, -0.01971513, 0.01467873, 0.00430853, -0.05280189, 0.09454451, 0.03118180, 0.06477372, 0.01265351, -0.09067183, 0.01645358, -0.00857335, -0.07165682, 0.01250630, 0.00113965, 0.05820508, -0.00009406, 0.01383266, -0.10630244, 0.02096789, 0.06472016, 0.02090418, -0.02399581, -0.05207354, 0.05817162, -0.04225365, -0.03757662, -0.01686764, 0.10230660, -0.05361733, -0.02265900, 0.04588317, -0.05704355, 0.05750775, -0.01419398, -0.05015068, 0.02200351, 0.17048271, -0.04776651, -0.07850716, -0.01750306, 0.01613951, 0.01732503, -0.00125171, 0.06494178, 0.06699872, -0.11779988, 0.00707338, -0.04728274, -0.01228202, 0.03445033, -0.04946573, -0.00834110, 0.04369843, 0.01751615, 0.05299069, 0.00116075, 0.08235445, -0.01689878, -0.03466883, -0.00475482, 0.00135387, 0.06729071, 0.00087266, 0.08081338, -0.01360887, 0.05473906, -0.08452291, 0.05281242, -0.02787124, 0.09038758, 0.05565559, 0.10046952, 0.08147504, -0.00577359, 0.11286969, 0.01716967,
0.03541773, -0.07670709, 0.12359083, -0.06459069, -0.02665467, 0.02401214, 0.10867910, -0.03738737, -0.00676975, 0.05441529, -0.01002622, 0.01696370, 0.00434370, 0.01730071, -0.03302462, -0.10710509, -0.10194895, 0.03406537, 0.05195293, 0.11968907, -0.04064135, 0.23853542, 0.16356543, -0.05436552, 0.06753287, -0.02011652, 0.10677801, -0.00199085, 0.02896613, 0.01892072, -0.14830831, 0.01324208, -0.09588653, -0.16816153, 0.02256959, -0.04926723, -0.02313904, -0.02361059, 0.06066348, 0.00238140, 0.12401286, -0.02940778, -0.00921168, -0.19144540, 0.00315600, 0.05166175, -0.14867236, 0.05860612, -0.08689629, 0.02284388, -0.04042048, 0.09873117, -0.02878228, -0.03624835, 0.04049402, 0.00196338, 0.03623774, 0.02946332, 0.03821560, -0.04968733, 0.06707859, 0.06782638, 0.03328097, -0.07211075, -0.10002064, 0.11325335, -0.05248493, 0.01300538, 0.04878211, -0.04945358, -0.01433434, -0.02961150, 0.08614025, -0.00369583, 0.07184625, 0.04531434, -0.05306584, 0.03924803, -0.21309826, 0.06386141, -0.04953252, 0.00776524, -0.00688191, -0.01487312, 0.01871587, 0.00890034, 0.06300861, 0.01946821, 0.07836068, 0.03893372, -0.01699373, 0.07385156, 0.26503038, -0.01091154, 0.01531735, -0.12349915, -0.05689861, 0.01395908, -0.13915603, -0.06785013, 0.06691907, -0.14276208, 0.02936614, -0.13775572, 0.01181384, 0.07186952, 0.07340908, -0.04441622, 0.14374861, -0.12706371, -0.00711048, -0.05377060, 0.07510169, -0.01257891, 0.05144455, 0.05332110, -0.03002428, 0.06188965, 0.05665199, -0.05494425, -0.17324261, 0.09951686, -0.12430742, 0.07052506, 0.02082002, -0.02611673, -0.02241717, 0.08590640, 0.22549324, 0.05543414, 0.05756994, 0.01608294,
0.12222984, 0.08128437, -0.03111760, 0.16916724, -0.07275581, 0.01026728, 0.09602051, -0.00632502, 0.00049823, 0.04554981, 0.04065487, 0.09876924, -0.08335789, -0.03809302, 0.04787528, -0.01151874, -0.01350519, 0.02310289, -0.00259707, 0.06771959, -0.02796352, 0.09460416, 0.08563334, -0.02622668, -0.01979689, -0.02399519, 0.11747259, 0.08102956, 0.03335310, -0.05358183, -0.02251749, -0.05341724, 0.05092995, -0.09385905, 0.03699030, -0.07464112, -0.06668624, -0.02972753, -0.06019441, 0.01728888, -0.06518123, -0.05097331, 0.02862980, -0.05575093, 0.00860089, -0.04839676, -0.11223676, 0.04103875, -0.04666344, 0.00760979, -0.06885681, -0.00770772, -0.11684571, -0.03400129, 0.03352870, -0.03672609, 0.07261899, 0.02363978, 0.08176932, -0.04834377, 0.07619406, 0.05051593, 0.04117852, -0.08168513, -0.08841725, 0.04893165, -0.01607942, 0.02251734, 0.02468696, -0.03164750, -0.01618481, -0.01584808, 0.06045104, 0.05169899, -0.06717189, 0.04625613, -0.02539639, 0.00426688, -0.14331453, -0.01262310, -0.00234891, -0.03245859, 0.05665051, -0.10266308, 0.08495472, 0.00978978, 0.11239385, -0.00605437, -0.11315630, -0.02055680, -0.00084915, -0.00705006, 0.07608795, 0.07749134, 0.00031153, -0.08296172, -0.03490588, -0.00310731, -0.02235178, -0.02038860, -0.07078991, -0.05106006, 0.04652151, -0.05711349, -0.04793604, 0.01955279, 0.11527569, -0.07332370, 0.01829997, -0.02848937, 0.01499637, 0.04122260, -0.00829256, 0.01912270, 0.01295339, 0.05161637, 0.04455595, -0.01376142, 0.02215129, 0.02948973, -0.02472926, 0.04362111, -0.11943386, -0.04023695, 0.07263841, 0.01213601, -0.06803954, 0.14033413, 0.11836272, 0.03725772, 0.04575440, 0.04084135,
0.00629398, -0.06287075, -0.03970144, 0.00867458, -0.01495725, -0.01337148, 0.04206897, -0.04529166, 0.08229980, -0.02256164, 0.00696219, 0.06541943, 0.02389093, -0.06065218, 0.03504698, 0.08692066, -0.00487077, -0.06626719, -0.02634780, 0.09867806, 0.03030293, 0.00658972, 0.06806591, 0.05139421, 0.01747320, -0.06584066, 0.04926040, -0.01740400, 0.10328223, -0.01671421, 0.02972898, -0.06019789, 0.04043418, 0.00344150, -0.06350317, 0.01852642, -0.03054458, 0.07384659, 0.05204995, 0.06934645, -0.07534396, 0.00421860, -0.00570815, -0.06391627, -0.02955368, 0.01658856, 0.00435903, 0.00505154, 0.00272620, 0.03835787, -0.06862189, 0.01581720, -0.07054456, 0.05965193, -0.01833795, -0.05639919, -0.01086006, 0.00391050, 0.01711977, 0.05705423, 0.04073835, -0.01102195, 0.00496364, 0.05494755, -0.00749021, -0.00652002, -0.08690795, 0.03407886, 0.01924764, 0.00279722, 0.00724782, 0.03354880, -0.02791441, 0.02573715, 0.02142093, 0.03433239, -0.00374370, 0.03330030, 0.05001379, -0.00468214, 0.04026550, -0.02110100, 0.08167706, 0.04009307, -0.06062132, 0.03712977, 0.02902889, -0.00468270, 0.05804346, 0.04850538, -0.08181846, 0.04750638, 0.01735432, -0.01565131, -0.02084810, -0.06372306, -0.06410345, -0.06323441, 0.05262123, 0.02361452, 0.00127349, -0.05797052, 0.09671780, 0.00682347, -0.01304657, 0.02286032, -0.09703207, -0.04218762, 0.01358213, -0.01247727, 0.05491367, -0.04625608, 0.02163666, -0.05780365, 0.01210363, -0.01286453, 0.00842187, 0.02924839, 0.05866520, -0.05300659, -0.09203158, 0.07531079, 0.00079767, -0.04619692, -0.03196067, -0.02322518, -0.05021089, 0.01613975, -0.01054984, -0.01026244, 0.01717338, 0.00754834,
0.03615431, 0.03822181, 0.00531814, 0.10840753, -0.14226560, 0.04484564, 0.03305871, 0.03977830, 0.05044983, -0.08828604, -0.00069773, 0.04887235, -0.08354730, -0.09356623, 0.01684918, 0.06211281, -0.04693296, -0.06458857, 0.10553967, 0.00793303, 0.00087324, 0.02663330, 0.10990769, 0.02477015, 0.08145176, 0.03471410, 0.13246407, -0.06081623, 0.05469358, -0.09835595, -0.01158707, 0.03218511, -0.01127670, 0.00932211, -0.05432036, 0.02982908, -0.02378939, -0.01712155, 0.04379832, 0.04306823, -0.04455308, -0.02637749, 0.02903669, -0.06401437, 0.07427485, -0.07926668, 0.03337603, -0.10163753, 0.11419743, -0.06023625, -0.08483200, -0.00314091, 0.05974664, -0.03177610, -0.00184817, -0.02087349, 0.06731503, 0.00207162, 0.04442613, 0.01754922, -0.01851352, 0.02020534, 0.01594985, -0.08403747, -0.00622950, -0.00800194, -0.04227861, 0.00124371, -0.05998722, -0.04263195, 0.04653283, -0.03924266, -0.02547109, -0.03885531, 0.01097873, 0.05475818, 0.07635120, 0.01388542, -0.01508381, 0.03122563, 0.02844239, -0.03404440, 0.10473625, 0.04757565, 0.01679822, -0.03224172, 0.07056420, -0.05567893, -0.04053865, 0.10252788, -0.01238587, 0.20268989, 0.13581342, -0.02064162, -0.06835127, -0.09972166, 0.04491896, 0.00241927, -0.00461624, -0.05847941, -0.08641919, -0.16932897, 0.02704578, -0.01196237, 0.06397127, 0.09872010, -0.09361467, 0.00483851, 0.11265007, 0.04058265, -0.06256036, 0.00284005, 0.04523893, 0.06804679, -0.07306024, -0.01455778, -0.02275025, 0.04278526, -0.05263234, 0.04712075, -0.11887459, -0.03006853, -0.04050228, -0.03243069, 0.03690398, -0.00137976, -0.02971264, 0.04793321, 0.17334551, -0.02866609, -0.00324038, -0.03701232,
-0.04864104, -0.13017887, -0.14517924, -0.12771140, -0.02349946, -0.06130707, 0.01391540, -0.02084001, 0.08538446, 0.16361383, -0.05333097, 0.09405495, 0.05361825, 0.04228871, 0.01765917, -0.00395603, 0.04627828, 0.01076935, 0.01027095, -0.02919502, -0.03196902, -0.04475860, 0.06362306, 0.03105061, 0.10367977, -0.08191751, 0.07482556, -0.07617483, 0.02827584, -0.04760300, -0.07640858, 0.02430708, 0.04925092, -0.02830980, -0.07346661, 0.03133016, -0.04896086, 0.02655442, 0.05442612, 0.02938772, 0.05516832, -0.05132682, 0.03427796, -0.15883133, -0.01434071, -0.02078904, -0.06016604, -0.02104631, -0.03926823, 0.02365222, -0.09235317, -0.00169354, -0.05632887, 0.05440680, 0.11882953, -0.00585162, -0.02776776, 0.02161471, 0.01244442, 0.01774709, -0.03831206, 0.05046277, 0.03004633, 0.08108111, -0.04581137, 0.02243569, -0.11008351, 0.01259664, -0.03605472, -0.05425804, 0.05388862, 0.02498212, -0.06304774, -0.14757846, 0.01106142, 0.01293702, 0.06855897, 0.10933847, 0.01295452, 0.00627779, -0.02449698, -0.03069981, 0.02235406, -0.12793203, -0.02266556, -0.01706303, 0.12999350, -0.03416486, -0.03160885, 0.13236383, -0.09648809, -0.01076944, 0.18564846, 0.05970224, 0.04924058, -0.05219823, -0.06819021, -0.02262619, -0.03131827, 0.00682245, 0.02085804, -0.07508465, 0.04149842, -0.04244287, -0.04301818, 0.00442712, 0.06334209, -0.08404385, 0.03681407, 0.07749142, 0.14103168, -0.00466830, 0.02395011, 0.02391133, 0.01556223, 0.03826009, 0.05344659, -0.03471518, 0.00931691, 0.01732574, -0.07685648, 0.05692663, 0.03135851, -0.07885180, -0.05346131, 0.16587470, 0.00394210, -0.01314681, 0.03427442, 0.00697532, -0.00512634, -0.00133912,
0.06566467, -0.08131412, -0.06372655, 0.01457959, -0.14239825, 0.00215258, 0.11115421, -0.09843684, 0.00474839, 0.07106041, 0.03327512, 0.04549665, -0.04654087, -0.04507881, -0.03208410, -0.02122675, -0.10063046, 0.05413960, 0.04354624, 0.06521226, -0.02008347, 0.07262515, 0.09769445, 0.03983277, 0.00109615, -0.09445489, 0.12659895, 0.01646972, 0.08988016, -0.02852686, -0.06239624, -0.09309298, 0.02826922, -0.08480763, -0.01442747, -0.00714745, -0.05991332, -0.07229149, 0.03872134, 0.02834562, 0.07272890, -0.04124504, 0.00384312, -0.12370657, -0.04571202, 0.09283128, -0.04716495, 0.04617089, -0.09347419, -0.03189603, 0.11054231, -0.02019883, -0.02040211, 0.03731447, 0.00860235, 0.02218767, -0.00959623, -0.02632072, -0.00923461, 0.02928240, 0.11512414, 0.10314088, -0.00470065, 0.06692340, -0.12770276, 0.09213463, -0.00080917, 0.04006626, 0.00160670, 0.03170964, 0.02787668, 0.01369068, -0.03116307, -0.04062386, 0.13684665, 0.03981780, 0.02732276, 0.06530991, -0.07531826, 0.04461214, -0.02062841, -0.01051235, 0.02575170, -0.01062617, 0.08311629, -0.08245326, 0.03549663, -0.00742640, 0.00615670, 0.00670754, -0.03218887, 0.02524265, 0.16300641, 0.02061899, 0.08265162, -0.03598629, -0.13615099, 0.04943795, -0.04764469, -0.04558913, 0.12913722, -0.07775438, 0.08446655, -0.10445119, 0.03839832, -0.00823329, -0.04298262, -0.01961097, 0.09328224, -0.03707461, -0.01823971, -0.06348435, 0.10832649, 0.11192244, -0.07435064, 0.05990799, 0.00035596, -0.02414724, 0.00816900, 0.01702729, 0.00379315, 0.06978356, -0.08265601, 0.04832046, -0.13607424, 0.03303199, -0.01718068, 0.07497682, 0.18921567, -0.03766106, 0.11358801, 0.04459841,
-0.07657929, -0.03043540, -0.09995799, -0.20078328, 0.05477649, 0.04875898, -0.00268367, -0.01607139, 0.03214886, 0.04449619, 0.03888180, 0.03043836, 0.03245888, -0.10140372, 0.04532536, 0.01425739, -0.00900587, -0.00596721, 0.02944729, 0.06725486, 0.00365698, 0.00171496, 0.00335170, 0.00608797, 0.11739943, -0.10726304, 0.08489594, 0.07929882, 0.10667248, -0.14178449, -0.12134681, -0.07941529, 0.09768004, 0.03767565, -0.05293330, 0.02755905, -0.05475803, 0.07426250, 0.02214510, -0.05656892, -0.11673728, -0.03660899, 0.04450060, 0.03145401, -0.02128833, 0.12947048, 0.02597390, -0.14911392, 0.02544489, 0.05074251, 0.07925842, 0.00838761, 0.03616994, -0.02913455, 0.04605215, 0.00684548, 0.03441648, 0.02786510, -0.06373883, 0.09518170, 0.00303255, -0.07192019, 0.02999058, -0.09572040, -0.15904506, 0.01428143, -0.04249234, 0.06150642, -0.04647843, -0.01273391, 0.07269234, 0.04301587, -0.02609420, -0.02469939, -0.06488525, -0.03787813, 0.03150360, 0.18821828, -0.02911888, 0.02431312, -0.12351926, 0.01342011, 0.06039743, -0.10828218, -0.02606052, -0.01586594, 0.08515774, 0.01329330, -0.01983721, 0.00407579, -0.01994125, -0.01456635, 0.05785483, 0.01183989, 0.07321101, 0.02110686, -0.03331588, 0.04327252, 0.03655533, -0.02442716, -0.02328575, -0.02499419, 0.04494607, 0.04595787, -0.04317720, 0.01855503, 0.02374613, -0.02026400, 0.08350562, 0.02413692, -0.03876572, -0.02354762, -0.07458344, 0.10751270, 0.05628901, 0.01492605, -0.00169312, 0.01490708, 0.05225422, 0.11709655, -0.06326117, 0.05706025, 0.08877377, -0.00236450, -0.04785649, 0.03469346, 0.03910452, -0.04442483, 0.08019554, -0.01652505, 0.01906736, -0.07964304,
0.09373060, 0.13227361, 0.04646864, 0.13055547, -0.06580774, 0.08826187, -0.03542375, -0.02636280, 0.00852983, -0.03732731, 0.03114191, 0.01522681, 0.01467760, -0.01681474, 0.05041334, 0.05038936, 0.07357834, 0.00306817, 0.05947980, 0.07165601, 0.03484728, -0.03194424, 0.00830653, 0.04483927, 0.04951175, -0.02276898, -0.01186751, -0.02249349, 0.00832369, 0.03601109, 0.00749454, 0.07159222, 0.00549688, 0.00746892, -0.05255071, -0.00111888, 0.00130652, -0.03272089, 0.00211377, -0.04850927, 0.01016789, 0.04405062, 0.04382692, -0.04159669, -0.12705775, 0.01310116, 0.00139400, 0.04499136, -0.07805736, 0.07098697, -0.08930245, 0.01047668, 0.01023446, -0.01141847, -0.04397428, 0.03512286, -0.04494702, 0.13266249, -0.02651009, 0.05855329, 0.06686379, 0.00626591, 0.03882433, 0.02679334, -0.01793228, 0.00046670, 0.06608447, -0.02288612, -0.00358197, -0.01808963, -0.05738791, 0.05246679, 0.08218126, -0.02931088, -0.02977090, -0.09041622, 0.07470468, 0.12037711, -0.05635653, 0.02580406, 0.01398297, -0.03880405, 0.05015302, 0.05146293, -0.05224641, 0.00314915, -0.01857358, -0.04935780, -0.00026228, 0.02629310, -0.03926197, -0.02061247, 0.00246727, -0.06384370, 0.05185508, 0.03186837, -0.05729178, 0.07219313, -0.01015639, 0.05860103, -0.02816560, -0.05159068, 0.07105073, 0.00760082, 0.01806354, 0.00684035, 0.03414119, -0.04158752, -0.01887699, -0.06581076, -0.04560310, -0.00687168, -0.08207239, 0.04400737, 0.04600102, 0.02062265, -0.06880298, 0.01905664, 0.01212286, 0.04936840, -0.07734961, -0.01984340, -0.00014089, -0.00020093, -0.06845206, 0.03937773, 0.05525269, -0.02108299, 0.02667444, 0.05007981, -0.05022613, 0.00204754,
0.18529874, 0.33716211, 0.21615042, 0.23942374, -0.08504259, 0.05533986, 0.07896195, -0.03810506, 0.03010293, 0.04932886, 0.10045422, 0.00873503, 0.01987611, 0.03188737, -0.01189431, -0.01920857, 0.03871218, -0.03541308, -0.14820009, 0.10621355, 0.11459000, 0.08708268, 0.09286302, -0.03817834, 0.08868019, -0.02489361, 0.09608983, 0.09038387, 0.07995578, 0.00022545, 0.01492779, -0.16311532, -0.03290236, 0.00955507, -0.04638810, -0.02359610, 0.03523821, 0.05144569, 0.00190995, 0.02103566, 0.00778126, -0.13679470, 0.06581305, -0.00356676, -0.08400494, 0.01541434, -0.01911651, 0.00745684, -0.01833596, 0.01755983, 0.00672966, -0.02364586, -0.06150928, 0.01755457, 0.06263886, 0.03547780, 0.02996818, 0.01404368, 0.05456366, -0.03530918, -0.05522476, -0.01174864, -0.05456344, 0.03417225, -0.02321960, 0.05317166, -0.00882150, -0.02681713, 0.00036683, 0.07341388, 0.01646654, 0.06609221, 0.04762108, -0.05955457, -0.00994376, -0.04879782, 0.11244171, 0.05753857, -0.11420774, -0.06499844, 0.00268189, -0.01363211, -0.06773017, -0.08404532, 0.04556069, 0.02434107, 0.00457873, -0.00067142, 0.07561656, 0.04597752, 0.05624112, 0.01805642, 0.05849468, 0.04320164, -0.06396154, -0.08416403, 0.00365691, 0.02749194, 0.01949557, 0.09372878, -0.04694195, -0.15547526, 0.05573562, -0.02809252, -0.00699376, 0.06258532, 0.01823472, 0.00214486, 0.02289388, 0.05696726, -0.00990774, -0.00675123, 0.12001170, 0.03197033, -0.04020818, 0.05132155, 0.01771970, -0.03647143, -0.07266396, 0.00842090, -0.11165494, -0.02526482, -0.08714323, -0.04469161, -0.02922573, -0.10671847, 0.07546208, -0.01005360, 0.07475021, -0.11833914, -0.02037868, 0.01074052,
0.02396410, -0.09034821, 0.09085892, 0.02946700, -0.06762871, 0.02509334, -0.03996859, -0.08506060, 0.04079729, 0.05699016, 0.00239025, 0.01486111, -0.01374299, 0.01445527, -0.04606114, 0.03284981, 0.01752249, -0.00831700, -0.04017672, -0.01150375, -0.00164965, -0.03636774, -0.03276237, -0.02157761, -0.03626358, -0.03224722, 0.05526662, 0.06597935, 0.00732684, -0.04269405, -0.06314900, -0.08476578, -0.05458268, -0.03619143, 0.00242298, -0.03163837, -0.05815078, -0.03776726, -0.01385279, -0.04818400, 0.02301840, 0.00714452, -0.02648252, -0.09710795, -0.06951181, 0.04468682, 0.02377012, -0.01145956, -0.02603671, -0.05651411, -0.00707361, 0.01548619, -0.05090510, -0.05691510, 0.00627674, -0.02062228, 0.01943271, 0.03068026, 0.07490136, 0.07733992, 0.08486199, 0.03568121, -0.02734275, -0.00234309, -0.06794821, 0.06620716, -0.09308884, -0.05497300, -0.03686886, -0.01960152, 0.08100036, -0.04297106, 0.05321911, -0.04455579, 0.04203360, 0.00083607, -0.01003352, 0.15328763, -0.00444332, 0.01440702, 0.08559778, -0.05635395, 0.02770454, -0.03473157, -0.01359256, 0.02231435, 0.14059447, -0.04869546, 0.00729393, 0.07574149, -0.00518654, -0.04283891, 0.14123787, -0.00904910, 0.06219581, -0.14127783, -0.05301465, -0.06442334, 0.03765465, 0.00449953, 0.11167759, -0.10847834, -0.03380747, -0.02377006, -0.03506316, -0.04216596, 0.00640207, -0.00141164, 0.01361115, -0.08898865, 0.01098942, -0.00044073, -0.01435705, 0.00734742, -0.01539983, 0.02905239, -0.03465475, 0.01244513, 0.09373096, 0.01859714, -0.14481542, 0.14668079, -0.06029022, -0.05282721, -0.07623766, 0.04647506, -0.01736190, 0.09573178, 0.01879788, -0.02257570, 0.01552434, 0.04324177,
-0.10377771, -0.07599283, -0.03251827, -0.01648151, -0.07619414, 0.01094880, 0.07876156, -0.02048362, 0.10258737, 0.00566605, 0.08109166, 0.07039075, 0.03616015, -0.06255720, 0.07468110, -0.01366979, 0.05288962, -0.04770574, -0.02096473, 0.03386141, 0.01529176, 0.04456039, 0.08165393, 0.07953650, 0.00444735, -0.03236547, 0.07921667, 0.04653443, 0.04097163, 0.03173989, -0.04182395, -0.07362062, 0.03625267, -0.02759472, -0.05704445, -0.02333392, -0.03745452, 0.07419048, 0.02533520, -0.00896589, -0.01102707, -0.04332216, 0.00109136, -0.02096736, -0.09396338, 0.04060893, 0.00213663, -0.03900679, 0.03764193, 0.08752818, -0.02259352, -0.00029586, 0.04077986, -0.05744470, 0.08661727, -0.06360401, -0.02313095, -0.08339597, -0.04047842, 0.00264538, 0.03313256, 0.04214190, 0.11084660, 0.02405694, -0.04191926, 0.07034204, -0.04898589, 0.00701889, -0.07913849, 0.04514720, 0.06368537, 0.04962474, -0.08663367, -0.06949058, -0.00180528, -0.05016294, -0.00192174, 0.02751648, 0.03319601, 0.02279943, -0.06258748, -0.00183389, 0.09091189, -0.04314082, -0.03985715, 0.02374926, -0.01660765, -0.06697176, -0.05763371, -0.00681147, 0.03480109, 0.03610730, 0.03598366, -0.06724139, -0.03060921, -0.06548156, -0.13006020, 0.02258415, 0.01554266, 0.03847452, -0.00378234, -0.05976892, 0.03313653, 0.08065933, 0.04728824, -0.07048625, 0.07056556, 0.04478372, 0.03928902, 0.09952490, -0.00571291, 0.00608251, -0.00296898, 0.00802042, -0.00251292, 0.01947551, 0.12338792, -0.04310382, -0.04545126, 0.04754211, -0.08104831, 0.08575995, 0.07238624, 0.03178652, 0.07045645, -0.06329380, 0.00171047, 0.07838015, 0.03235701, -0.02447460, 0.02194588, -0.00481982,
-0.05073020, -0.03430922, -0.06165714, 0.09522024, -0.00720390, -0.02989337, -0.02949369, -0.01260936, -0.01159894, 0.06321160, 0.06229227, 0.04764074, 0.07182018, 0.01585228, 0.01592459, 0.07207834, 0.00446098, 0.00168774, -0.01815512, -0.00193696, -0.03927750, -0.03369641, 0.03871873, -0.01674663, 0.10306193, -0.07815222, 0.07116226, -0.01810919, 0.03618275, -0.04092620, -0.12783144, 0.00426037, -0.00688088, -0.11370337, -0.07187106, 0.00288148, 0.03700669, 0.02180960, -0.05760583, -0.01674423, -0.02620347, -0.01299795, -0.03528387, -0.06592302, -0.03450222, -0.04188899, 0.01880117, 0.01623924, 0.00915282, 0.01256887, -0.01786772, 0.04266842, -0.01753729, -0.02868259, -0.03368996, -0.00110163, 0.08385502, -0.08991299, 0.09007841, -0.00995632, -0.03612968, 0.00339587, 0.00409224, 0.02359568, -0.12035259, -0.02430392, -0.01216948, 0.06080146, -0.01430494, 0.01863434, 0.02138865, 0.01893406, -0.02544924, 0.02057723, -0.01151238, -0.00588918, 0.03630450, 0.01820744, -0.06795320, 0.00964710, 0.06293808, 0.00848300, 0.04738278, -0.02587096, 0.04268647, -0.03320294, 0.05306091, 0.07545754, -0.03833774, 0.12385563, -0.04069012, 0.09363564, 0.08843114, -0.06924772, -0.03576909, 0.07506570, -0.03265008, 0.04914339, 0.02771224, -0.04654830, -0.00815594, -0.08062267, 0.06571616, -0.03794686, -0.00160026, -0.00552724, -0.03997932, -0.01907635, 0.08791626, -0.01350703, 0.00038236, -0.04990530, 0.02189799, 0.01914284, 0.01574176, -0.00250355, -0.05847981, 0.02794425, -0.07277387, 0.01740659, -0.06213148, 0.00477647, -0.01899796, 0.01776720, 0.07511069, -0.03216247, 0.02882158, 0.00910203, 0.06150359, -0.04549759, 0.08958163, 0.03319103,
-0.08065664, -0.12666446, -0.06699432, 0.04683483, -0.04388278, -0.02417978, 0.09245330, -0.06337924, 0.02671616, 0.01389754, -0.01565624, -0.02350277, 0.02125108, -0.02883185, 0.08348160, 0.01266898, -0.03577064, -0.02161364, 0.02817956, -0.01378321, 0.03333186, 0.13316096, 0.07245100, -0.01385500, 0.05582133, 0.10583183, 0.02399416, -0.03688924, 0.04159973, -0.06513431, -0.07466309, -0.10969217, 0.05901346, -0.07587226, -0.03310969, -0.03996097, 0.00413783, 0.01514597, 0.08028039, 0.03312072, -0.01840689, -0.09111306, 0.04426809, 0.00235691, -0.09583081, 0.06506488, 0.04543364, 0.02530951, -0.03737409, -0.01340828, 0.03978922, -0.01215354, 0.00180244, 0.05180201, 0.03482388, 0.05469266, 0.04787578, -0.04316219, -0.01985271, -0.03213448, 0.06159913, -0.05509016, 0.03495032, 0.05098079, 0.04285232, -0.00993567, -0.00358245, 0.03337479, -0.02632416, -0.04167739, 0.06268919, -0.01279705, -0.02485191, -0.07071931, 0.09892832, 0.00118102, 0.05840538, 0.08650259, -0.08176027, -0.03800950, 0.03790936, 0.05506355, 0.09635224, -0.03469073, 0.02552155, -0.00891708, 0.05029506, -0.04293193, 0.08328624, 0.03280967, -0.01751765, -0.11107121, 0.16343947, 0.00698390, 0.11620671, 0.01068652, -0.06169753, 0.01205339, 0.03451548, 0.00105905, 0.04937511, -0.08309456, 0.04427726, -0.00445222, -0.01903949, -0.09059202, 0.06130277, 0.02655223, 0.04528435, 0.04235264, 0.04725562, -0.00766619, -0.02449946, -0.03331427, 0.02382338, 0.06082582, 0.02160955, -0.00124281, 0.01018329, 0.04502272, -0.04477431, 0.08543400, -0.05677349, 0.04866200, -0.00560635, 0.09235927, -0.00422992, 0.01577443, -0.03016047, -0.07064522, 0.16038324, -0.08063075,
-0.00732702, -0.07101654, -0.01216894, 0.10948907, 0.04703096, -0.04967990, 0.01076962, -0.05433240, 0.00539083, -0.01324987, 0.00017866, -0.02969055, 0.07055420, 0.03337133, -0.01197053, -0.02187890, -0.00655586, 0.03596656, 0.01322456, 0.00317337, -0.05421566, 0.07903717, 0.05115148, -0.00445389, 0.00466846, 0.03772866, 0.05861226, 0.01789892, 0.10053149, 0.07614290, -0.12562329, -0.05659411, 0.01133468, -0.01905871, -0.00141513, -0.03122871, -0.03594878, -0.02705291, 0.00715714, -0.01640994, -0.05980700, 0.00187235, -0.01006458, -0.01788627, 0.04028163, -0.00020422, -0.02365509, -0.05207203, -0.10681383, 0.01883259, 0.02527276, -0.05085375, 0.03954031, 0.05915652, 0.04790698, 0.07548352, -0.01665335, -0.01772488, 0.06108720, 0.02088490, 0.02814138, -0.05110675, 0.01199826, 0.01035658, -0.03213558, -0.00142663, 0.03425033, -0.04261472, -0.00219184, 0.10518052, -0.01857480, -0.05341407, 0.00958446, 0.06866918, 0.02368780, -0.06293458, 0.06340969, 0.02222602, -0.00401095, -0.03381021, -0.01919879, 0.01637720, 0.00746729, -0.01515144, 0.06422111, 0.07251724, 0.04929188, -0.06135803, -0.00455158, 0.03762593, 0.00495049, 0.03082301, 0.08236970, 0.00171617, 0.08095919, -0.07114726, -0.04145803, -0.10086311, 0.00267119, -0.00885116, 0.06374353, -0.04273413, 0.02888029, 0.04034914, 0.04783400, 0.01451381, -0.02982163, -0.08385640, 0.08829154, -0.02512382, -0.01755954, -0.04569598, -0.01749849, -0.01694862, 0.06752355, -0.03911821, 0.00250792, -0.03717868, 0.07633469, -0.06942390, -0.03909282, 0.04122210, 0.00332494, -0.07102577, -0.01659056, -0.00898990, -0.05190995, -0.00813585, 0.02653636, 0.01596394, 0.09955885, 0.00771802,
0.10563342, 0.03607067, -0.02846011, 0.03646595, -0.04834209, 0.06815717, 0.07956690, -0.06384336, 0.04140165, 0.03534030, 0.02224542, -0.01870998, 0.02193153, 0.01710495, 0.08061815, 0.01592424, -0.06890484, -0.05160056, 0.04529212, 0.05884524, 0.00835666, 0.07904643, 0.07275897, -0.01982042, 0.05669888, -0.07661710, 0.13370004, -0.00868817, 0.05861124, 0.05578407, -0.08484689, -0.06291119, -0.00244357, 0.00027148, 0.03377658, -0.11138766, -0.03454141, -0.00662791, 0.01839496, -0.06063328, 0.02924431, -0.02276160, -0.03391168, -0.03164737, 0.08965865, 0.00387986, -0.10671363, 0.01025632, -0.05064019, -0.02205800, -0.06891343, 0.03112087, -0.05445170, 0.00227321, -0.02103347, -0.03847761, 0.01467532, -0.00396506, 0.08071350, -0.08685062, 0.06397058, 0.07888804, 0.00941054, -0.07471814, -0.11408225, 0.10690325, -0.02495482, -0.04068847, -0.00595326, 0.08951674, 0.03233414, -0.01867277, 0.09769978, 0.05196640, 0.05313793, 0.08316428, 0.04230540, 0.05429125, -0.05891346, -0.00409553, 0.00612214, 0.02055282, -0.04442717, -0.06502881, 0.09335096, -0.07604060, 0.09648596, 0.03305856, 0.03528143, 0.02187089, 0.04754278, 0.06508555, 0.11534137, -0.06738306, -0.01515749, -0.12304959, -0.01567100, -0.00409718, -0.01479718, 0.04142176, -0.05006665, -0.04570695, 0.06185884, -0.07770761, -0.00418653, 0.02264639, 0.01269684, 0.01828898, 0.13649812, -0.03656878, 0.01008996, 0.02394915, 0.11942405, 0.09023063, 0.02335230, 0.00435476, 0.02511180, 0.04011974, -0.04531834, 0.00784933, -0.11420575, 0.06501202, 0.03694328, -0.01016742, 0.01620313, 0.04879509, -0.01109874, 0.02405047, 0.23417816, 0.00385326, 0.02000496, -0.09269562,
0.05612607, -0.10918063, -0.00217037, 0.03686878, -0.06026483, 0.07099438, 0.02258500, -0.00843817, 0.00346611, 0.05079179, 0.05471319, 0.00955234, 0.01204926, 0.03240144, 0.06576616, 0.03609262, 0.07311368, -0.00450869, 0.02911007, -0.02152052, 0.04774162, 0.04944176, 0.05790943, -0.03859505, 0.07862937, -0.00665665, 0.02536429, 0.00410837, 0.05415593, -0.02666852, -0.10741387, -0.08601703, -0.07303194, -0.02705920, -0.02647092, 0.03975114, -0.06777654, 0.04019482, 0.05179333, -0.00963998, 0.08398975, 0.04383734, 0.01857776, -0.06632686, -0.02797831, 0.08229822, -0.00927748, -0.10444483, -0.02331464, 0.01106033, 0.01671778, 0.01261552, 0.06169017, -0.00809165, -0.04646891, 0.04112685, 0.07536320, 0.00545917, 0.00691118, 0.06504676, 0.00370454, 0.05404970, 0.01107456, 0.11515959, 0.09664101, 0.03114619, -0.07602891, 0.00249049, 0.03533026, -0.03810357, -0.02140721, 0.04178258, 0.01859765, -0.06886893, -0.03810573, -0.03948909, 0.07259201, 0.03160403, 0.01662828, -0.14393775, 0.01372519, 0.07511088, 0.01399961, 0.04950634, -0.03952835, 0.03007664, 0.10887486, -0.10454868, 0.06195207, 0.11472815, -0.03131384, -0.05521610, 0.14816926, -0.01644643, 0.07810675, -0.03292939, -0.08065043, -0.00239291, -0.02410823, -0.00197584, -0.01199624, 0.00330418, 0.02828571, 0.00868372, -0.05961914, 0.03510023, 0.03551830, -0.01738895, 0.07716866, -0.00804340, 0.02717384, -0.02247978, -0.00454052, 0.03778568, 0.06560343, -0.01767585, 0.06816769, 0.01634623, 0.05860423, 0.02609015, -0.05642406, 0.07084733, -0.01675885, -0.02413607, 0.03712243, 0.11484133, -0.02684466, -0.09913114, -0.01157691, -0.03334811, 0.04866451, 0.03146432,
