#include"constants.h"

const FDATA_T fc_kernel_1[FC_OUTPUT_SIZE1*FC_INPUT_SIZE1] = {
-0.015948235989, -0.059315405786, -0.008183259517, -0.016488442197, 0.041779313236, 0.056174948812, -0.066998869181, -0.081070855260, -0.012612057850, -0.029574913904, 0.042926475406, -0.026461135596, 0.006954226643, 0.004327860661, 0.037210330367, -0.001361205708, 0.013426864520, 0.005810389761, -0.038903001696, -0.057093996555, -0.083170235157, -0.068365722895, -0.005611054134, -0.052598759532, 0.062082875520, -0.043429847807, 0.003516059835, -0.005794696510, 0.001633893466, 0.063267603517, 0.001322852448, 0.002355564851, -0.056750152260, -0.058136355132, -0.062344320118, -0.011935657822, -0.057874299586, -0.004522984847, 0.058447547257, -0.086328975856, -0.032520242035, 0.038984116167, -0.038668103516, 0.045578673482, 0.078595787287, 0.045501310378, 0.030163537711, -0.071753524244, -0.025301152840, -0.067311339080, -0.077743731439, 0.054869953543, 0.013824156485, -0.021783599630, 0.045572794974, -0.004521626048, -0.029061071575, 0.005539356265, 0.057380039245, -0.001855362789, 0.035801187158, 0.057440578938, 0.055955976248, 0.059245847166,
-0.052392996848, -0.049825139344, 0.013745125383, 0.013648980297, 0.005893274676, -0.011043310165, 0.006211855449, -0.070206798613, 0.046349763870, -0.026692235842, 0.038596138358, -0.077819965780, 0.083668582141, 0.035293713212, 0.037020377815, -0.031587105244, 0.007189674769, 0.045625653118, 0.000353460899, -0.014634630643, 0.002846324351, -0.050102401525, -0.018436528742, -0.039866767824, 0.039121683687, -0.022778162733, 0.017280561849, -0.000131100533, 0.029833791777, -0.013965570368, 0.071172848344, -0.053791191429, -0.053154248744, -0.044541426003, -0.014178019017, 0.031954653561, -0.070821508765, 0.032088350505, 0.037522267550, -0.074715346098, 0.002905884292, 0.069114886224, -0.030938904732, 0.050071947277, 0.069786749780, 0.001108287834, 0.059519574046, -0.028639696538, -0.073761716485, -0.035879142582, 0.010211792774, 0.052468698472, 0.018902609125, 0.051636561751, 0.066624276340, -0.003518684767, -0.065830737352, 0.056743517518, 0.050458077341, -0.035334244370, 0.082812845707, 0.009647018276, 0.046073812991, -0.004685977008,
0.034182049334, 0.078471325338, 0.020681906492, 0.061473328620, -0.054437637329, -0.025865292177, 0.010536261834, 0.049492761493, -0.038632765412, 0.014891999774, -0.050540730357, 0.018680945039, -0.073547162116, -0.052265807986, -0.071072086692, 0.059363864362, -0.029833164066, -0.044349599630, 0.008154996671, 0.019391713664, 0.055331967771, 0.050848700106, 0.009690100327, -0.015855155885, -0.025473067537, 0.002805068390, -0.071931920946, 0.010176811367, -0.028890931979, -0.029879277572, -0.104607120156, 0.058727364987, -0.012419507839, 0.016937630251, 0.003535124939, -0.005771713797, 0.036935694516, -0.001175637823, -0.009825713933, 0.001058107591, -0.024341292679, -0.063433572650, 0.031686481088, -0.035767957568, -0.020699294284, -0.021827498451, -0.089173629880, -0.013454079628, 0.066695913672, -0.018083706498, 0.079385817051, -0.066596955061, -0.013747688383, -0.070349648595, -0.023751160130, 0.033630926162, 0.017453620210, -0.039809465408, -0.072882071137, 0.055689752102, -0.075711652637, -0.040988121182, -0.018062565476, -0.075297012925,
0.076331630349, 0.068390578032, 0.021480053663, 0.032889317721, -0.010499525815, -0.085421800613, 0.076839119196, 0.050570312887, -0.045126818120, 0.004586325027, -0.049509108067, 0.022631844506, 0.006216414273, 0.003818431403, -0.008551778272, 0.074479855597, -0.005543177947, -0.018199320883, 0.037729825824, -0.005560938735, 0.077859312296, 0.034223489463, 0.054908610880, 0.061811976135, -0.008842245676, 0.000542264199, -0.030281435698, -0.049044590443, -0.011444512755, -0.023852115497, -0.080138824880, 0.015276036225, 0.014055578969, -0.004564958625, 0.017428815365, -0.022699974477, 0.008536692709, 0.007743499707, -0.052580062300, 0.059145130217, 0.031554084271, -0.061070684344, 0.026823541149, -0.076365865767, -0.044282104820, -0.028014326468, -0.000935536984, 0.012038818561, -0.008019528352, 0.056695837528, 0.054377555847, -0.071015857160, -0.038231454790, 0.011585579254, -0.042849183083, 0.017550576478, 0.058502148837, -0.068717770278, -0.077303260565, 0.053617630154, 0.004969946574, -0.018015032634, -0.022597393021, 0.005754147191,
-0.015205067582, 0.010552945547, -0.064132191241, -0.070817202330, 0.072388730943, 0.016104638577, -0.059971172363, -0.058999273926, 0.047909516841, -0.011501440778, 0.014565046877, -0.007202352863, 0.037783056498, 0.017576858401, 0.004201540723, -0.048878896981, 0.000677988748, 0.038625549525, -0.030129518360, -0.071865126491, -0.071896992624, -0.060596723109, -0.048119563609, -0.035885397345, 0.062595315278, -0.044330596924, 0.036574222147, -0.012535173446, -0.007342512719, 0.065234109759, -0.024680996314, -0.044722635299, -0.052246224135, -0.039540179074, -0.008915497921, 0.071228124201, -0.073606662452, 0.055027812719, 0.063427977264, -0.029626553878, -0.057055830956, 0.041014891118, -0.067167207599, -0.007200838998, -0.004754931666, 0.031523667276, 0.060392733663, 0.010947510600, -0.078215777874, 0.003387964331, -0.061309922487, 0.001497226069, 0.060984186828, 0.041845601052, 0.006705468521, -0.007552216295, -0.059566117823, 0.019627071917, 0.017424339429, 0.014630470425, 0.032362509519, 0.043370679021, 0.071787133813, -0.011673865840,
0.081386432052, 0.005798081867, 0.048046074808, 0.071841850877, -0.012741792947, -0.008581126109, 0.045267477632, 0.020697433501, -0.042683295906, -0.009215487167, -0.059251517057, 0.081711925566, -0.029335141182, -0.026967564598, -0.048968680203, 0.072209209204, -0.024629445747, 0.007531335112, 0.051381088793, 0.049827028066, 0.044544924051, 0.029884602875, 0.060621924698, -0.016143957153, -0.022068677470, 0.056872490793, -0.082619689405, -0.041673544794, -0.057118721306, -0.022559432313, -0.028938811272, -0.029695812613, 0.083436325192, 0.000417028670, 0.035885207355, -0.007468631957, 0.002749236766, -0.041816890240, 0.015939729288, 0.042928583920, 0.035952471197, -0.011658804491, -0.003464365378, -0.043152287602, -0.002816485008, -0.074713930488, -0.038051031530, 0.050826549530, 0.041313219815, -0.019550243393, 0.012752924114, -0.050894696265, -0.040785688907, 0.021603332832, -0.067837692797, 0.031599119306, 0.011511713266, -0.079007953405, -0.035682573915, 0.024099869654, -0.059994768351, 0.014347855002, -0.082606911659, -0.044227793813,
-0.045508697629, -0.039407435805, -0.021537991241, -0.019719025120, 0.059631239623, 0.045466370881, -0.023783611134, 0.012238750234, 0.033930011094, -0.047797709703, 0.013146011159, -0.053840048611, 0.031386245042, 0.026614138857, 0.047204453498, -0.065131753683, 0.096343033016, 0.076376393437, -0.045517805964, -0.030634103343, 0.007947865874, 0.002005877672, -0.028430279344, -0.009667763487, 0.058024823666, -0.073873445392, 0.054040417075, 0.065598845482, 0.044705685228, 0.024135097861, -0.006913866382, -0.060891292989, -0.044716611505, -0.080279856920, -0.064246736467, -0.003014836228, -0.041180893779, -0.002598836320, 0.064997583628, -0.001366010401, -0.007834456861, 0.007644776255, -0.044064573944, 0.034144777805, 0.040323272347, 0.029255649075, 0.035192720592, -0.079917788506, -0.060795407742, -0.035493202507, -0.041456267238, -0.001242143451, 0.017066210508, 0.059264540672, 0.004479259718, -0.048894144595, -0.004201464821, 0.042669750750, 0.045359689742, -0.064160548151, 0.015175910667, 0.044160529971, 0.027538416907, 0.063915073872,
-0.075469367206, -0.054797720164, -0.032446589321, 0.012306786142, -0.003710037330, 0.078888170421, -0.069387033582, -0.059450458735, -0.010488683358, -0.057944450527, 0.051659647375, -0.007276347838, 0.051286779344, 0.065154537559, 0.009842846543, 0.013225397095, 0.091904811561, -0.007154117804, -0.027761982754, -0.027196913958, -0.008371433243, -0.055471461266, 0.011602100916, -0.014892462641, 0.016073254868, -0.080883026123, 0.024247622117, 0.041598271579, 0.057546544820, 0.010492407717, -0.001212073024, -0.015572315082, -0.004105906934, -0.090991035104, 0.010734433308, -0.014204756357, -0.022122282535, -0.017952920869, 0.024536842480, -0.084120169282, -0.044653322548, 0.051787637174, -0.052403546870, 0.019869480282, 0.052322003990, -0.006382581312, -0.024722183123, -0.009921494871, -0.003299550153, -0.016242094338, -0.003897070885, 0.017930677161, 0.058341957629, 0.064124062657, 0.039388988167, -0.072521679103, -0.005212984513, 0.057119436562, 0.062672860920, -0.059623237699, 0.045508272946, 0.024894185364, 0.044042974710, 0.077939376235,
0.026723157614, 0.054097350687, 0.067793801427, 0.017530674115, -0.045988138765, -0.059805199504, 0.022773118690, 0.027108471841, -0.033657256514, 0.011910506524, -0.064054705203, 0.025785025209, -0.002756174188, -0.038303729147, -0.079008691013, 0.060397207737, -0.017716575414, 0.008316920139, 0.050923477858, -0.009794251993, 0.063879407942, -0.028479864821, -0.002340729116, 0.044048402458, -0.072252072394, -0.015819989145, -0.032006725669, -0.039629895240, -0.074328325689, -0.058004520833, -0.062660686672, -0.011223466136, 0.001289741485, 0.076749071479, 0.069631323218, -0.064861685038, 0.090614244342, -0.007025664672, -0.048674892634, 0.010622159578, 0.050820842385, 0.012606238946, 0.053255505860, -0.051511682570, -0.022288851440, 0.009372514673, -0.042654693127, 0.016125570983, 0.044571097940, 0.048928536475, 0.035364404321, -0.008674241602, -0.073504596949, -0.064526259899, -0.056969322264, 0.047926131636, 0.006408505607, -0.032982531935, 0.007352647372, 0.009400269017, -0.030181637034, -0.043429851532, -0.067933991551, -0.026611208916,
0.058277402073, 0.013311565854, 0.058350723237, 0.038040377200, -0.059836685658, -0.050649594516, 0.056617066264, 0.003437228035, -0.017005715519, 0.050510335714, -0.041146174073, -0.018962766975, -0.032800000161, -0.081027589738, -0.041127581149, 0.029669387266, -0.004040184896, -0.069134108722, 0.081063188612, 0.001722374465, 0.016013886780, 0.018925223500, 0.072577171028, 0.038579225540, -0.015644142404, 0.039585892111, -0.033438302577, -0.026545314118, 0.012980001979, -0.044202178717, 0.010972425342, 0.034069821239, 0.047015130520, 0.073045998812, 0.082925446332, -0.041721794754, 0.035614244640, -0.020249452442, -0.023358590901, 0.078038655221, -0.026055285707, -0.027627406642, -0.024943070486, -0.052045565099, -0.024362528697, -0.079370833933, 0.018135983497, -0.006624509115, 0.061080776155, 0.065326191485, -0.003138472559, -0.019869934767, -0.069845646620, -0.017533756793, -0.053989443928, 0.022329190746, -0.000554939674, -0.006316929590, -0.034885510802, 0.005757478997, -0.022680759430, -0.019017899409, -0.037799362093, -0.053609099239,
0.004316417500, -0.072596251965, -0.032718904316, -0.024780662730, 0.023807596415, 0.074938945472, -0.081111274660, -0.078597605228, 0.044445466250, -0.070609405637, 0.045144792646, -0.036589968950, 0.011226629838, 0.056975767016, 0.081042245030, -0.008312421851, 0.024575857446, 0.084224268794, -0.072796657681, -0.015866048634, -0.039477456361, 0.011059890501, -0.061819083989, -0.051394257694, 0.017478328198, -0.018905797973, -0.005953228567, 0.032475974411, -0.004356231540, 0.056319657713, 0.032078716904, -0.008387014270, -0.058482717723, 0.006517014932, -0.051709514111, -0.009215286933, -0.079909324646, 0.072523921728, 0.012972638942, -0.005738602486, -0.027175035328, 0.022142091766, 0.019713694230, 0.026648158208, 0.060622103512, 0.077822588384, 0.055711638182, -0.066244155169, -0.006203542929, -0.022865232080, -0.067678675056, -0.025699656457, -0.005921781063, 0.063318356872, 0.045667916536, -0.040472511202, -0.085490025580, 0.070228017867, 0.009444113821, -0.033034086227, 0.034968510270, -0.012004640885, 0.046140454710, -0.013029059395,
0.018438093364, -0.032199501991, -0.008661433123, -0.058829583228, 0.029156900942, -0.004199123476, -0.035332191736, -0.056943286210, 0.047886073589, -0.015212829225, 0.063627608120, -0.072685956955, 0.017768222839, 0.066946908832, 0.024531850591, -0.033183861524, 0.089607492089, 0.004084781278, -0.039091855288, -0.029257014394, -0.064710617065, -0.037139054388, -0.046185903251, -0.044321700931, 0.041370108724, -0.013203191571, 0.089374646544, -0.002204481279, 0.049954965711, 0.054716270417, 0.031382389367, -0.031674239784, -0.067922629416, -0.037082549185, -0.028817854822, 0.062179293483, -0.005911271553, -0.009575927630, 0.018380226567, -0.060391061008, -0.027447843924, 0.051741924137, -0.059271462262, 0.003905087011, 0.066807880998, 0.021964950487, -0.007918575779, -0.025673069060, -0.075903259218, -0.035002756864, -0.056023053825, -0.008158763871, 0.047158550471, 0.060641150922, 0.066388316453, -0.035397596657, -0.081717044115, 0.067909076810, 0.035633940250, -0.064342647791, 0.065531075001, 0.068053871393, 0.054644633085, 0.058818548918,
-0.046056587249, -0.009529299103, 0.010325753130, -0.020863125101, 0.016110073775, -0.005887735169, -0.069065868855, -0.057896915823, 0.037577912211, -0.011792926118, 0.084077410400, -0.024696800858, 0.075157657266, 0.018759254366, 0.083299718797, -0.035285916179, 0.088191665709, 0.070258833468, -0.038961373270, -0.085663020611, -0.034869171679, -0.012737808749, 0.013582366519, -0.050835367292, 0.033277589828, -0.006349840667, 0.038281872869, 0.059906061739, -0.018618935719, 0.037087924778, 0.075125411153, -0.057570673525, -0.079482175410, -0.042042218149, -0.085355177522, 0.026872036979, -0.016440082341, 0.067969970405, -0.007009350695, -0.010281735100, -0.044925063848, 0.053181823343, -0.026966160163, 0.055001009256, -0.010547162034, 0.054917439818, 0.026811640710, -0.060969512910, 0.008030395024, 0.021497063339, -0.002833724022, 0.062737949193, -0.017866754904, 0.029013017192, 0.063355609775, -0.076032608747, -0.001406080322, -0.015008597635, 0.043086942285, -0.042042523623, -0.001907337923, 0.028046138585, 0.029016932473, 0.023963058367,
-0.002691579517, -0.040307492018, 0.021514471620, -0.017932714894, 0.063381299376, 0.047975700349, -0.037332653999, -0.022709012032, -0.023225190118, -0.007608105429, 0.011504390277, -0.030545121059, 0.031138002872, 0.023665312678, 0.042751256377, -0.004878798034, 0.062953419983, 0.068889595568, -0.076428055763, -0.042315777391, -0.028778584674, -0.044424787164, -0.085340924561, -0.034084443003, -0.019299164414, -0.015437205322, 0.000792849110, -0.009576173499, 0.019321501255, 0.028726259246, 0.040836922824, -0.044897601008, -0.046108637005, -0.058460850269, -0.063073441386, 0.061629418284, 0.012758509256, 0.006088193506, 0.036895938218, -0.023693341762, -0.055920016021, 0.056814789772, 0.019743595272, 0.050779744983, 0.055953919888, 0.017713790759, 0.008553826250, -0.025489328429, -0.056059665978, -0.058117650449, -0.017172226682, 0.029961282387, -0.015336464159, 0.050234794617, 0.080557286739, -0.034426018596, -0.026228891686, 0.045359209180, 0.043076895177, -0.084093987942, 0.024878451601, 0.080451309681, 0.044740628451, 0.043812632561,
-0.055515639484, -0.051270987839, -0.059977132827, -0.005685397889, 0.022003367543, 0.023747922853, -0.054350372404, -0.034095834941, 0.042160406709, -0.063902929425, 0.059372529387, -0.016884529963, 0.066525541246, -0.006596701685, 0.015543090180, -0.055750120431, 0.069744005799, 0.073977254331, -0.020786691457, -0.079441346228, -0.053687993437, -0.049178835005, -0.047273259610, 0.001355489949, -0.002255547326, -0.066640861332, 0.045033227652, 0.002115501091, 0.066795475781, 0.029338166118, 0.035713229328, 0.034730076790, -0.000977750169, -0.062765918672, -0.053768582642, 0.028331186622, -0.062279172242, 0.066014938056, 0.040811467916, -0.077617362142, -0.022071599960, -0.009525115602, -0.052439603955, 0.000785219308, 0.025977630168, 0.041399147362, 0.028762158006, -0.015347026289, -0.055700466037, -0.066462397575, -0.062404830009, 0.037215184420, 0.032513231039, -0.008566136472, 0.012212458067, -0.027947029099, -0.047307144850, 0.049046088010, 0.010626472533, 0.008902612142, 0.022040203214, -0.007575338241, 0.048959713429, -0.010841708630,
-0.059948526323, -0.038141462952, -0.027261653915, -0.069248065352, 0.077082231641, -0.011790865101, -0.020462498069, -0.040593616664, 0.020824199542, -0.064224541187, 0.009522247128, -0.022101899609, 0.071110889316, 0.005809612572, 0.041016481817, -0.030937595293, 0.059164699167, 0.031373962760, -0.089344546199, -0.058094020933, 0.024513019249, -0.045756176114, -0.048974774778, -0.002750079380, -0.009729842655, -0.047801736742, 0.002960371552, 0.060857266188, 0.031190430745, 0.065352156758, -0.027315683663, -0.040403306484, 0.002176959300, -0.063018299639, 0.017394492403, 0.041799530387, -0.013272345066, 0.046178724617, -0.018040774390, -0.085741579533, -0.032835770398, 0.060427147895, -0.066677294672, 0.031488869339, 0.031478267163, 0.041517049074, -0.016549935564, -0.048194330186, -0.022255858406, -0.042976144701, 0.004425059073, 0.045660972595, 0.027408059686, 0.013513525017, 0.051819566637, -0.027833316475, -0.011923649348, 0.047705587000, -0.013515548781, -0.073351882398, 0.053102113307, 0.057826694101, 0.008913371712, 0.078391626477
};
const FDATA_T fc_bias_1[FC_OUTPUT_SIZE1] = {
0.296750277281,
0.247195377946,
-0.346883207560,
-0.288721203804,
0.206562668085,
-0.288606345654,
0.203274741769,
0.240521594882,
-0.246416702867,
-0.223623886704,
0.296567589045,
0.194692045450,
0.260957241058,
0.310259163380,
0.250505089760,
0.199965327978
};

const FDATA_T fc_kernel_2[FC_INPUT_SIZE2] = {
	0.071694187820, 0.065958164632, -0.099263459444, -0.088440790772, 0.071261659265, -0.080892227590, 0.070726394653, 0.060988921672, -0.068713776767, -0.061830852181, 0.076171971858, 0.075864493847, 0.073138311505, 0.066980607808, 0.067474223673, 0.065471410751
};
const FDATA_T fc_bias_2 = 0.172884285450;

//FDATA_T lstm_hidden_1[LSTM_BATCH_SIZE1*LSTM_OUTPUT_SIZE1];
const FDATA_T lstm_kernel_i_1[LSTM_OUTPUT_SIZE1*LSTM_INPUT_SIZE1] = {
	0.063949063420, 0.071169637144, 0.050793301314, 0.026964280754,
-0.321293562651, -0.332020521164, -0.424674689770, -0.540615737438,
-0.179426416755, -0.091958411038, -0.216705113649, -0.233607694507,
-0.087186820805, 0.057640209794, -0.034446358681, -0.062000058591,
-0.077553100884, 0.071429692209, -0.121379919350, -0.134635478258,
0.088022686541, 0.229139432311, 0.129158243537, 0.172958716750,
0.180187061429, 0.189080759883, 0.098329223692, 0.085747957230,
0.098303027451, 0.092010825872, 0.014832517132, 0.099408887327,
-0.056461878121, 0.000307662907, 0.022377757356, 0.035775054246,
0.034478668123, 0.161423921585, 0.093999579549, 0.071650929749,
-0.105376750231, 0.029176574200, 0.038914944977, 0.029355144128,
0.026655875146, -0.039276145399, -0.017176244408, -0.016611756757,
0.234307974577, 0.397803843021, 0.390088945627, 0.192393958569,
-0.306951165199, -0.231550693512, -0.186617806554, -0.355514585972,
-0.020983669907, -0.133174553514, -0.066836960614, -0.112700514495,
0.132350489497, 0.129332721233, 0.049004551023, 0.139518618584,
0.213394522667, 0.296140968800, 0.152714088559, 0.279873996973,
0.070579096675, 0.066698350012, 0.088774845004, 0.036542844027,
0.231325343251, 0.290448606014, 0.223201096058, 0.243460103869,
0.113901935518, 0.165161356330, 0.197275578976, 0.112356007099,
-0.020641805604, 0.029084688053, -0.002963413019, 0.071276746690,
-0.087768651545, 0.007297412492, 0.077802337706, -0.014457605779,
0.114980347455, 0.179371416569, 0.219908729196, 0.112136073411,
0.330907821655, 0.377196043730, 0.324882537127, 0.280460804701,
-0.107444398105, 0.049009080976, -0.090313769877, 0.015530099161,
0.318699926138, 0.226098239422, 0.208746746182, 0.290904194117,
0.176648199558, 0.257984369993, 0.204240798950, 0.250850528479,
-0.139477178454, -0.210382804275, -0.218504846096, -0.121359631419,
-0.148371919990, -0.102582149208, -0.034273866564, 0.023099558428,
0.096821464598, 0.099325306714, -0.006464012433, -0.029238110408,
0.014391625300, 0.003963557072, -0.058656629175, 0.006287026219,
0.005472592078, 0.161103323102, 0.012538508512, 0.154019430280,
-0.305805027485, -0.416309028864, -0.284555435181, -0.262025833130,
0.004646833520, 0.014384147711, 0.063061855733, 0.070770658553,
-0.066983208060, 0.008015996777, -0.018688524142, -0.052382539958,
0.227666556835, 0.274104893208, 0.093737691641, 0.161232575774,
-0.051318354905, -0.084082946181, -0.179950311780, -0.184799656272,
-0.143019556999, -0.308157563210, -0.155306264758, -0.263702929020,
-0.091780297458, -0.003876019269, -0.114299364388, -0.176642566919,
0.240564256907, 0.221650138497, 0.102112226188, 0.120230726898,
0.108205646276, 0.100348971784, -0.002776640933, 0.028053581715,
0.043592490256, 0.122284516692, 0.099687017500, 0.022703029215,
-0.644953787327, -0.658295691013, -0.632883071899, -0.605796694756,
-0.124234683812, -0.220095634460, -0.070700533688, -0.112799182534,
0.015409531072, 0.129519179463, 0.124887697399, 0.081648245454,
-0.014097959734, 0.063074186444, 0.131263226271, -0.008828477003,
-0.035776525736, -0.068742685020, -0.110844008625, 0.036623932421,
0.046969905496, 0.009839302860, -0.037504673004, 0.164288252592,
-0.671083569527, -0.739125609398, -0.631154000759, -0.714963972569,
-0.053724821657, -0.087841168046, -0.090623073280, 0.106925867498,
0.226654917002, 0.301881372929, 0.229452311993, 0.267903149128,
-0.006358320359, 0.021925898269, -0.024604799226, 0.014726869762,
-0.602030932903, -0.553043425083, -0.631521582603, -0.571794867516,
0.347318500280, 0.318516552448, 0.177478954196, 0.298362910748,
0.288827031851, 0.122416265309, 0.263040632010, 0.275706619024,
-0.106732144952, -0.065719716251, -0.046068470925, -0.051730543375,
-0.034715916961, 0.089477419853, 0.108874425292, 0.105747990310,
0.260063767433, 0.188239723444, 0.098645620048, 0.046304721385,
0.077841036022, -0.039610039443, -0.039663664997, 0.065143175423,
-0.071997471154, 0.018194038421, -0.115623585880, 0.027727639303,
0.169524058700, 0.038555584848, 0.192702770233, -0.000062875741,
0.070160828531, 0.086205616593, 0.070125564933, 0.115778483450,
-0.355261296034, -0.253915846348, -0.280136615038, -0.355023175478,
-0.061139971018, 0.001271780347, 0.092334933579, 0.056229684502,
0.097485974431, 0.049467712641, 0.110295124352, 0.014676226303,
0.032604031265, 0.054371003062, 0.008170777932, -0.120521932840,
-0.046961002052, 0.014824320562, -0.068651184440, 0.010253164917,
-0.708681404591, -0.719545900822, -0.770428895950, -0.597632229328,
-0.033314362168, 0.092369541526, -0.054070111364, 0.072591051459,
0.081734545529, 0.054820604622, 0.070860855281, 0.036844935268,
-0.144266992807, 0.021736700088, -0.120796874166, -0.072170302272,
0.075774438679, 0.126542061567, 0.143017262220, 0.030905453488,
0.073134958744, 0.027100380510, 0.175148144364, 0.101743988693,
0.120954811573, 0.281125068665, 0.182705670595, 0.209247052670,
0.030073549598, -0.020203178748, 0.090117879212, 0.073052719235,
0.043361213058, 0.047495074570, 0.031683586538, 0.019813790917,
-0.044246431440, -0.068664222956, -0.038637671620, 0.008775687777,
-0.058491036296, 0.111863724887, 0.017586771399, 0.055327869952,
-0.113992139697, -0.237778469920, -0.205285549164, -0.189828544855,
-0.051170591265, -0.073605746031, -0.003166726790, -0.000439445634,
-0.096605554223, 0.036231581122, -0.096948832273, -0.075590364635,
-0.114910148084, -0.090931504965, -0.189062029123, 0.019400406629,
-0.526128768921, -0.678440809250, -0.642691612244, -0.725901901722,
0.107902973890, 0.038808099926, 0.164941474795, 0.157053947449,
0.084267757833, 0.032639641315, 0.012655975297, 0.196681931615,
0.334380388260, 0.351792365313, 0.210502728820, 0.177579194307,
0.055948864669, -0.104953996837, 0.025572447106, -0.001833742135,
-0.028487628326, -0.076194532216, -0.014720343985, 0.021971108392,
-0.000134834147, 0.160687237978, -0.053514435887, 0.095434233546,
0.043432965875, 0.119814030826, 0.202014252543, 0.250625550747,
-0.059250939637, -0.048143193126, 0.006414117292, -0.157772094011,
-0.003585601924, 0.069591104984, 0.129461944103, 0.115805126727,
0.108899012208, 0.277433872223, 0.203750550747, 0.206928148866,
0.026536606252, 0.093652047217, 0.044281117618, 0.097823821008,
-0.093469366431, 0.015060067177, 0.044313184917, 0.082869403064,
0.002413324779, 0.059873372316, 0.090193793178, 0.020322764292,
0.081020221114, 0.143225178123, 0.065563291311, 0.007499740925,
0.245690152049, 0.276730984449, 0.421519607306, 0.401935070753,
0.020587360486, 0.022121287882, -0.079021275043, -0.036421440542,
-0.003509555245, 0.113181605935, 0.033292941749, 0.012428099290,
-0.098862051964, -0.100987084210, -0.160072356462, -0.088584281504,
-0.052401132882, 0.023258293048, -0.084811747074, 0.008176623844,
-0.160802215338, -0.085893139243, -0.264469742775, -0.167094364762,
0.071997329593, 0.012674760073, 0.038787838072, 0.208400592208,
-0.014756682329, -0.080407179892, 0.074776120484, 0.156431809068,
0.051494430751, 0.023848773912, -0.002799462993, -0.016560301185,
0.095492765307, 0.122412167490, -0.084282897413, -0.094362780452,
0.216494932771, 0.290850937366, 0.210612073541, 0.278552561998,
0.234128832817, 0.134130343795, 0.166608795524, 0.221888154745,
-0.617282867432, -0.614892363548, -0.541434407234, -0.535401940346,
-0.150888785720, 0.008071326651, -0.017554605380, -0.078931793571,
0.057483881712, -0.092911452055, -0.013857100159, -0.051620755345,
-0.007561194245, -0.089724205434, 0.070230416954, -0.098407857120,
0.053956255317, 0.170726850629, 0.170145094395, 0.200523138046,
-0.079930484295, -0.133310124278, -0.097914040089, -0.038056198508,
-0.096676953137, -0.227819964290, -0.131077915430, 0.004314254038,
0.045938607305, -0.138582020998, 0.024811971933, -0.038242001086,
-0.082138322294, -0.014540005475, -0.012216362171, -0.102890804410,
0.082541391253, -0.060593593866, -0.063863702118, 0.056642495096,
0.632228672504, 0.479102492332, 0.660177767277, 0.486198484898,
-0.057802177966, -0.089468300343, 0.097592845559, 0.031811166555,
0.157086610794, 0.210840374231, 0.315120369196, 0.190225273371,
0.037326239049, -0.019596967846, -0.051620248705, -0.075509041548,
0.164893433452, 0.201829507947, 0.127777516842, 0.077168069780,
0.253668010235, 0.284788995981, 0.281148046255, 0.188652634621,
0.021792454645, -0.008400220424, 0.096005059779, 0.202229633927,
-0.043721515685, 0.005760102998, 0.026729233563, 0.015164420009,
0.179431498051, -0.001265336992, 0.127621456981, 0.097140111029
};
const FDATA_T lstm_kernel_f_1[LSTM_OUTPUT_SIZE1*LSTM_INPUT_SIZE1] = {
	-0.204238325357, -0.123067639768, -0.135731130838, -0.107707709074,
0.010416476056, 0.081431902945, 0.007248618640, 0.087553188205,
-0.239705115557, -0.295857965946, -0.205693766475, -0.064507402480,
0.129630118608, 0.063570164144, 0.025261489674, 0.145369380713,
-0.175197437406, -0.113546840847, -0.032473884523, -0.191701486707,
-0.173075124621, -0.177503451705, -0.183361157775, -0.034079786390,
-0.109825633466, -0.040572408587, -0.139826104045, -0.131913691759,
-0.141629040241, -0.140910431743, 0.034294299781, 0.013793066144,
-0.186561763287, -0.044045079499, -0.013905676082, 0.015052466653,
0.039357464761, -0.143934726715, -0.118400804698, -0.011175439693,
-0.045060675591, -0.235486522317, -0.189567729831, -0.156256124377,
-0.097693957388, -0.254841417074, -0.037963427603, -0.137256607413,
-0.133555144072, -0.077056214213, -0.125016093254, -0.028124645352,
-0.138806447387, -0.145699590445, -0.105163104832, -0.209188356996,
-0.120478287339, -0.094919987023, 0.006605260540, -0.095836833119,
0.037738792598, -0.164187431335, -0.021058408543, 0.009003310464,
0.043132174760, -0.055733047426, 0.015380441211, 0.019807903096,
-0.070702716708, 0.069701328874, -0.114313066006, -0.091568656266,
-0.021381720901, -0.096138879657, -0.185923308134, -0.177012041211,
-0.070100925863, 0.005000768229, -0.030658191070, 0.140227898955,
-0.098892964423, -0.193942829967, 0.013875065371, -0.062775626779,
0.004473805428, -0.137276366353, -0.028814677149, -0.014969453216,
0.000349056121, -0.055932238698, 0.119071796536, -0.009472345933,
0.018169105053, -0.003030731576, 0.040194194764, 0.013442661613,
0.179784178734, 0.080425418913, 0.074843183160, 0.166660144925,
-0.059813208878, -0.170919537544, 0.052648607641, 0.065609931946,
-0.213043823838, -0.156496495008, -0.171137124300, -0.137124627829,
0.096048109233, 0.262298762798, 0.286139369011, 0.324476242065,
-0.077931188047, -0.220403105021, -0.092439472675, -0.103545650840,
-0.015542682260, -0.034280005842, -0.080498814583, -0.058796826750,
-0.193718701601, -0.118686556816, -0.039102360606, -0.149565875530,
-0.268874496222, -0.124055981636, -0.304767072201, -0.263286203146,
0.022886848077, -0.006038904190, 0.159961685538, 0.182782575488,
-0.153510928154, -0.067380160093, -0.156709149480, -0.119145713747,
-0.107820600271, -0.142752632499, -0.118524290621, -0.099706090987,
-0.227641850710, -0.251859337091, -0.272200375795, -0.229409143329,
-0.001384959091, -0.074917912483, -0.106946066022, -0.079249180853,
-0.192460671067, -0.246108412743, -0.136539727449, -0.065642006695,
-0.238715261221, -0.255633592606, -0.183671176434, -0.166937664151,
-0.100019983947, -0.109746783972, -0.192384630442, -0.066491074860,
-0.602692961693, -0.661469042301, -0.542878866196, -0.618654370308,
-0.165722727776, -0.141128450632, -0.109095677733, -0.046649988741,
0.490380555391, 0.433118820190, 0.386960297823, 0.375798702240,
-0.049457862973, -0.204645559192, 0.043003555387, 0.000282419438,
-0.185991629958, -0.096413262188, -0.035984702408, -0.089807569981,
-0.169708237052, -0.303336024284, -0.147546246648, -0.209878951311,
-0.140237510204, -0.074502401054, -0.102953627706, -0.204105675220,
-0.241480469704, -0.247606411576, -0.111105494201, -0.071393989027,
0.342764049768, 0.332192689180, 0.431439399719, 0.433546423912,
-0.198142707348, -0.142467662692, -0.150471612811, -0.112243995070,
0.250887453556, 0.141676664352, 0.319757044315, 0.154726549983,
-0.188151672482, -0.239454224706, -0.184609025717, -0.158000931144,
0.314214974642, 0.312821865082, 0.430431693792, 0.552664458752,
-0.124933600426, -0.114529423416, -0.188204959035, -0.167774975300,
-0.003546223044, -0.106364674866, -0.071832165122, 0.060457065701,
-0.179040208459, -0.061030056328, -0.186088144779, -0.069929085672,
0.178925141692, -0.028836626559, 0.117220230401, 0.189538702369,
-0.148996412754, -0.131072640419, -0.178841575980, 0.005618217867,
-0.176444366574, -0.264308840036, -0.202711239457, -0.014416499995,
-0.177908122540, -0.349135816097, -0.194553270936, -0.257313460112,
0.177089288831, 0.182933971286, 0.049758411944, 0.090096153319,
-0.112568616867, -0.186820536852, 0.035296510905, -0.065537445247,
0.218011856079, 0.292635798454, 0.202473893762, 0.376088827848,
0.007225845475, 0.097964897752, 0.024171674624, 0.093816891313,
-0.130338013172, -0.251464873552, -0.084572546184, -0.233349725604,
0.103578902781, -0.027944019064, 0.082863651216, -0.004898353480,
-0.191128164530, -0.215202838182, -0.075772747397, -0.126015841961,
0.456196367741, 0.423818856478, 0.523127019405, 0.488270372152,
-0.163728773594, -0.058507326990, -0.128236398101, -0.070090815425,
-0.007523079403, -0.041911501437, -0.025117615238, -0.018558952957,
0.138963714242, 0.020314920694, 0.044872779399, 0.077752262354,
-0.156197056174, -0.150592118502, -0.100263416767, -0.112985998392,
0.402092099190, 0.598215818405, 0.418794721365, 0.425617039204,
-0.188461109996, -0.149579897523, -0.199043616652, -0.141932561994,
-0.189728364348, -0.156516253948, -0.095362409949, 0.018258254975,
-0.152685731649, -0.092194803059, -0.155246421695, 0.049331221730,
-0.405413448811, -0.469508916140, -0.364918708801, -0.504762470722,
0.072074182332, 0.160210862756, -0.011112379842, 0.063367195427,
-0.297671228647, -0.150490552187, -0.290420860052, -0.167769044638,
-0.188674271107, -0.164469540119, -0.125084966421, -0.113844133914,
-0.111941806972, 0.007334664930, -0.047098111361, -0.133945286274,
0.025361176580, -0.014596978202, -0.109210684896, 0.033511310816,
0.266895622015, 0.264184683561, 0.245383381844, 0.407882452011,
0.036617379636, -0.020867431536, -0.041241310537, 0.080599091947,
-0.092004530132, -0.064476184547, 0.037570286542, 0.042026974261,
-0.111967824399, -0.096804998815, -0.049227271229, 0.032542470843,
-0.161127477884, -0.174945339561, -0.048993311822, -0.135480538011,
0.031971469522, 0.078221216798, 0.074468441308, 0.129372119904,
0.030833955854, 0.097760282457, 0.074736565351, -0.065166689456,
0.050778750330, -0.067150771618, -0.133856743574, 0.062898114324,
-0.233236804605, -0.286970406771, -0.111909642816, -0.169094711542,
-0.316067278385, -0.336201190948, -0.345238447189, -0.289963513613,
0.253069758415, 0.211098581553, 0.096205316484, 0.010793140158,
-0.164295643568, -0.051428150386, -0.079246446490, -0.101127535105,
0.114276468754, 0.117709927261, 0.034275624901, 0.119659714401,
0.001329165418, -0.146825522184, -0.069180533290, 0.019760945812,
-0.156407445669, -0.164445951581, -0.063307143748, -0.123223297298,
-0.748244225979, -0.869257092476, -0.784840285778, -0.765609085560,
0.211147248745, 0.046799529344, 0.264377444983, 0.216018259525,
-0.275707304478, -0.197245299816, -0.224564597011, -0.183829575777,
0.191600158811, 0.026145784184, 0.004610452335, 0.140458062291,
-0.166690409184, -0.255344629288, -0.139534398913, -0.082727506757,
-0.123994216323, -0.127840831876, -0.220826774836, -0.140134632587,
0.007119966671, -0.084802359343, -0.043643102050, 0.024060655385,
0.006684926804, -0.056931983680, 0.092242643237, 0.027270792052,
0.116360440850, 0.021335346624, 0.003021425102, 0.051788259298,
-0.305668830872, -0.225265040994, -0.268584340811, -0.091506108642,
-0.144425690174, -0.122127085924, -0.136967167258, -0.008794198744,
-0.070069193840, 0.043538779020, -0.077404305339, -0.013921652921,
0.266559511423, 0.222964167595, 0.348747849464, 0.288872569799,
-0.028722200543, -0.016153682023, 0.098833121359, 0.095176801085,
-0.020942715928, -0.031609311700, -0.030183309689, -0.086066119373,
0.046300247312, 0.075004324317, 0.017761703581, -0.008535101078,
-0.114651575685, -0.110507093370, -0.056459933519, -0.018159454688,
-0.213864758611, -0.061661433429, -0.217830985785, -0.145117834210,
0.338361382484, 0.137640014291, 0.277770876884, 0.359592974186,
0.022048229352, -0.105426095426, 0.056153014302, -0.123408392072,
-0.157218515873, -0.039480235428, -0.128052949905, -0.180370375514,
-0.197467163205, -0.122555777431, -0.181781873107, -0.276769608259,
-0.236093252897, -0.093777015805, -0.255409896374, -0.154022067785,
-0.005605445243, -0.005480913445, 0.038867443800, 0.160354897380,
-0.032289255410, 0.099741876125, 0.061027444899, 0.088209912181,
-0.237558633089, -0.132857501507, -0.266502946615, -0.087724439800,
-0.133760720491, -0.039534792304, -0.055564947426, 0.020121278241,
-0.272532224655, -0.360963314772, -0.336699038744, -0.407442539930,
-0.152684316039, -0.147211253643, -0.184995144606, -0.074232771993,
0.105893909931, -0.021282738075, 0.118813358247, -0.041201841086,
-0.165840387344, -0.128234609962, -0.037146750838, -0.044742859900
};
const FDATA_T lstm_kernel_o_1[LSTM_OUTPUT_SIZE1*LSTM_INPUT_SIZE1] = {
	-0.531761705875, -0.527697145939, -0.430013805628, -0.396452099085,
-0.227322325110, -0.237080886960, -0.279065072536, -0.247787192464,
-0.078441932797, -0.221583053470, -0.084192030132, -0.125849157572,
0.280538439751, 0.298140704632, 0.196830824018, 0.236210256815,
-0.099816448987, -0.002349812072, 0.080213136971, -0.077369272709,
0.188109070063, 0.164695963264, 0.039425089955, 0.019715894014,
0.070163212717, -0.032034892589, -0.038600720465, 0.121971480548,
-0.016247157007, -0.043284535408, -0.051638089120, -0.138672202826,
-0.065020583570, 0.054010152817, -0.136414125562, -0.130804866552,
0.004372007679, -0.036211088300, -0.049520917237, -0.081329844892,
-0.443406909704, -0.328037828207, -0.365051597357, -0.309868365526,
-0.140898019075, -0.139046445489, -0.001497883350, 0.019333602861,
0.259241163731, 0.352577090263, 0.291099488735, 0.181172415614,
-0.319123148918, -0.235128998756, -0.385064929724, -0.198686793447,
-0.087997332215, -0.143920540810, -0.113336682320, -0.174345776439,
0.103599943221, 0.036441057920, 0.043909624219, 0.009134740569,
0.100963063538, 0.101088263094, -0.026061169803, 0.150734499097,
0.036764908582, 0.162811383605, 0.126264661551, 0.086451373994,
0.205265000463, 0.162262737751, 0.211804330349, 0.232435226440,
0.069392248988, -0.091979578137, 0.030834304169, 0.003999453504,
-0.286390572786, -0.376489847898, -0.337743520737, -0.290845662355,
-0.032803677022, -0.041265018284, 0.011609476060, -0.118950679898,
0.202330142260, 0.222665250301, 0.278441190720, 0.122338019311,
0.202751517296, 0.260238319635, 0.260478228331, 0.317429274321,
0.249107912183, 0.192255601287, 0.175655022264, 0.270683526993,
-0.008670822717, -0.000245116913, -0.087150685489, 0.048203725368,
0.000371630071, -0.164308071136, -0.132555529475, 0.013199051842,
0.174585983157, 0.278901904821, 0.281749218702, 0.114235870540,
-0.421045750380, -0.372759908438, -0.432130068541, -0.496277391911,
0.063976548612, 0.080341003835, -0.002747690538, 0.063965953887,
-0.120750628412, -0.183818906546, -0.042954023927, -0.162854954600,
0.047432795167, -0.042237583548, 0.086906820536, 0.078154444695,
-0.103565074503, -0.118724070489, -0.049364853650, 0.067274451256,
-0.398365408182, -0.402611523867, -0.471228748560, -0.390871137381,
-0.285612285137, -0.268261343241, -0.271380007267, -0.333267003298,
0.037426061928, 0.011496511288, 0.014990466647, -0.015013059601,
-0.095465116203, -0.241870671511, -0.211111426353, -0.121215470135,
-0.275727093220, -0.237846672535, -0.418974846601, -0.266638755798,
-0.076240673661, -0.012534406036, -0.146825894713, -0.009753964841,
-0.028619704768, -0.034487266093, -0.081281393766, -0.086726062000,
-0.005897490773, -0.143838062882, -0.192272454500, -0.049870591611,
-0.155119255185, -0.000739919487, -0.153609797359, -0.173720046878,
0.743784606457, 0.676136851311, 0.648452997208, 0.751056611538,
-0.260854482651, -0.353817492723, -0.354785680771, -0.293440550566,
0.041978914291, -0.017989454791, -0.028980681673, 0.068003311753,
-0.309571176767, -0.336063951254, -0.363481372595, -0.369761109352,
-0.174496084452, -0.050030037761, 0.012058234774, -0.160053893924,
-0.259895384312, -0.314307212830, -0.273777842522, -0.132289379835,
0.645755469799, 0.669047832489, 0.556259870529, 0.714892387390,
-0.222339093685, -0.229979336262, -0.108082100749, -0.027086824179,
0.452140122652, 0.367458611727, 0.483021765947, 0.329282402992,
-0.346992999315, -0.263765692711, -0.272139161825, -0.192593932152,
0.635082066059, 0.516437888145, 0.653357803822, 0.555678009987,
0.195794895291, 0.301611602306, 0.245979622006, 0.313315242529,
0.231649652123, 0.083526350558, 0.028061032295, 0.107305064797,
0.013868011534, 0.006742036436, -0.014988458715, -0.076383002102,
0.068558573723, 0.119434408844, 0.028745843098, 0.139137625694,
0.137985914946, 0.147235542536, 0.036605358124, 0.105111345649,
-0.231876641512, -0.255755424500, -0.257243365049, -0.260886400938,
-0.381840586662, -0.271082967520, -0.255303025246, -0.303227841854,
0.138241812587, 0.155362352729, 0.069575674832, 0.047632571310,
-0.193455547094, -0.074534639716, -0.181845039129, -0.232757538557,
0.117014057934, 0.143621593714, 0.042463701218, 0.085147656500,
0.150636926293, -0.071982793510, 0.111939921975, 0.052649520338,
-0.292730480433, -0.329171985388, -0.423352450132, -0.491511076689,
-0.158144995570, -0.023628035560, -0.155227094889, -0.030440287665,
-0.311907589436, -0.283359557390, -0.343098878860, -0.348610788584,
0.448576986790, 0.569717109203, 0.579928755760, 0.563458085060,
-0.062256507576, 0.017938550562, 0.121378205717, -0.068325579166,
0.004559325520, -0.113284714520, -0.137155845761, -0.033904302865,
0.081557624042, 0.155879676342, 0.089266084135, 0.107758320868,
-0.343326598406, -0.427073746920, -0.449546486139, -0.452940642834,
0.191466793418, 0.189774960279, 0.159375116229, 0.245730996132,
-0.126254677773, -0.257340013981, -0.211049616337, -0.100150413811,
-0.161336556077, -0.161976754665, -0.207138210535, -0.310702860355,
0.034484080970, -0.087122663856, -0.007969092578, -0.155788570642,
0.012173092924, 0.112437948585, 0.151640266180, -0.019843678921,
0.042089305818, 0.225974604487, 0.171470865607, 0.218797892332,
-0.072580851614, -0.250256717205, -0.153131455183, -0.302033334970,
-0.152314975858, -0.117231756449, -0.082544684410, -0.178079098463,
0.018895253539, 0.035801563412, 0.013976340182, 0.077546797693,
-0.162753745914, -0.150327786803, -0.129386857152, -0.303614675999,
-0.111407026649, -0.035203456879, -0.136182799935, -0.017654269934,
-0.006194355898, -0.007763832342, -0.005368872080, -0.018420904875,
0.122487232089, 0.107323601842, 0.105929471552, 0.139393076301,
0.129200249910, 0.214304029942, 0.167817473412, 0.089887000620,
0.060880191624, -0.090740211308, -0.053133703768, -0.021232303232,
0.085904136300, 0.007262144238, -0.072840616107, -0.049392189831,
0.199339255691, 0.061002317816, 0.187654361129, 0.065572254360,
-0.057202246040, 0.029358921573, 0.153122037649, -0.007255222648,
-0.272951304913, -0.267572760582, -0.393814504147, -0.390758156776,
0.102002814412, -0.020214110613, 0.037776667625, -0.061125870794,
0.161214292049, 0.256604105234, 0.337143689394, 0.271638154984,
-0.368759930134, -0.397044986486, -0.396819978952, -0.397387027740,
-0.000495513785, 0.051060080528, -0.041098196059, 0.082783132792,
0.060434352607, -0.109745182097, 0.053179495037, 0.053278867155,
0.040127553046, -0.036726858467, -0.082039445639, -0.109658539295,
0.318566113710, 0.330779194832, 0.189503550529, 0.270389258862,
0.188195466995, 0.013011192903, 0.094259522855, 0.109576933086,
-0.337064802647, -0.318376481533, -0.349515885115, -0.283626556396,
0.120147630572, 0.030734078959, -0.003374352353, 0.158244639635,
-0.463205546141, -0.463262140751, -0.448654025793, -0.313527494669,
-0.647459805012, -0.612876176834, -0.595677852631, -0.667943000793,
0.092503100634, 0.093037091196, 0.129315361381, 0.206525653601,
0.005519042257, -0.040906842798, 0.073269762099, -0.063191287220,
0.024365773425, -0.128747105598, -0.081171579659, -0.019711665809,
-0.136347979307, -0.131389886141, -0.259022444487, -0.294501960278,
0.051664132625, 0.042858425528, 0.211963921785, 0.211401209235,
0.289537459612, 0.292581856251, 0.140632733703, 0.266674280167,
0.062878288329, 0.169018074870, 0.046927321702, 0.160538583994,
0.010648760013, -0.051461420953, 0.090284980834, 0.058275051415,
-0.284180909395, -0.164614453912, -0.205212548375, -0.130737051368,
-0.226648971438, -0.174807935953, -0.162597507238, -0.188730061054,
-0.059904158115, -0.069157294929, -0.133443593979, -0.097473792732,
-0.461263537407, -0.450111210346, -0.406626105309, -0.450225770473,
0.127195596695, 0.139768794179, 0.194245770574, 0.218728765845,
-0.144349381328, -0.187535002828, -0.115341104567, -0.189206346869,
-0.139405876398, 0.021629946306, -0.054710842669, -0.051741950214,
0.016970017925, 0.024406239390, -0.109669305384, -0.141053780913,
0.741883575916, 0.791364967823, 0.738242864609, 0.621335148811,
0.067512802780, 0.140852391720, -0.017481137067, 0.140764638782,
0.208578810096, 0.320931732655, 0.164835855365, 0.234327852726,
0.083042137325, -0.053654327989, -0.020452354103, -0.046275548637,
-0.055639155209, -0.227748155594, -0.205698475242, -0.117483109236,
0.220735162497, 0.173314720392, 0.320841372013, 0.216829419136,
-0.161849170923, 0.002652583877, 0.024980651215, -0.032954644412,
-0.199293777347, -0.213839426637, -0.034588743001, -0.137538135052,
0.121199212968, -0.015200757422, 0.079280555248, 0.061789151281
};
const FDATA_T lstm_kernel_c_1[LSTM_OUTPUT_SIZE1*LSTM_INPUT_SIZE1] = {
	-0.150656461716, -0.006368105765, 0.048308096826, 0.033871125430,
0.061462949961, 0.020426683128, 0.059543997049, 0.156864061952,
0.019060432911, 0.003199546831, -0.094680473208, -0.080576419830,
-0.088721670210, -0.077880471945, -0.144131839275, -0.012124425732,
0.084117725492, -0.081002518535, 0.056397028267, -0.051621410996,
-0.040343679488, -0.079216897488, -0.062660895288, -0.035621989518,
-0.026174493134, -0.044104140252, 0.042346239090, -0.115065567195,
0.003497706726, -0.061632614583, -0.013326846994, 0.071034789085,
0.056090395898, 0.037852622569, -0.010602111928, 0.040803372860,
0.041380397975, -0.130787387490, 0.013206995092, 0.121416136622,
-0.061341945082, -0.033658079803, -0.074571475387, 0.068820588291,
0.007976932451, -0.033032841980, 0.029446493834, -0.033398356289,
0.047662131488, 0.077157087624, 0.059503149241, -0.060571294278,
0.025686766952, 0.026890072972, -0.114153474569, -0.100197449327,
-0.044634368271, -0.061681076884, 0.048665385693, 0.072541080415,
-0.025734007359, 0.026735844091, 0.020726559684, -0.130019262433,
-0.013497606851, 0.071215152740, -0.033681266010, -0.152968719602,
-0.028123164549, 0.090153858066, -0.037212070078, -0.139753654599,
-0.003345440375, -0.012215369381, -0.007126073353, -0.125520244241,
0.027252839878, -0.119860455394, 0.076191641390, 0.125132650137,
-0.067144520581, -0.008892418817, 0.046880453825, 0.076874256134,
-0.102005094290, -0.046813074499, 0.100695759058, -0.039603143930,
-0.087430663407, -0.100126445293, 0.075820572674, 0.117770344019,
-0.043396629393, 0.136630401015, -0.101710475981, -0.096432924271,
-0.009072791785, 0.061329253018, 0.013806467876, 0.095166712999,
-0.120399907231, 0.007500042673, 0.023952031508, 0.103956252337,
0.001034196583, 0.114447839558, -0.039473406971, 0.004702045582,
0.102373659611, 0.030253252015, 0.046821132302, 0.121378414333,
0.010035827756, -0.003983087838, -0.134828761220, 0.014375335537,
0.086836069822, 0.007392458152, 0.064852334559, 0.019525503740,
0.018661949784, -0.013269172981, -0.040063749999, 0.053839955479,
0.045775186270, 0.122836187482, -0.103431724012, -0.095563180745,
-0.104518912733, -0.057435173541, -0.022725932300, -0.119679749012,
0.048388648778, -0.047370161861, 0.035579022020, -0.112715423107,
-0.095737636089, -0.054108001292, 0.077081769705, 0.059384997934,
0.170780271292, 0.009939142503, 0.096908159554, -0.039259072393,
-0.066216669977, -0.088907085359, 0.031266022474, 0.009312645532,
-0.109066672623, -0.154138818383, -0.036195572466, -0.142917215824,
-0.021489122882, -0.033855061978, -0.034252144396, 0.078135333955,
0.117581896484, 0.066301286221, -0.014110530727, -0.002444111975,
-0.027053948492, -0.047503978014, 0.048038758337, 0.019388249144,
0.014035974629, 0.007582349237, 0.058403044939, 0.016567559913,
-0.057668481022, -0.084645912051, -0.011700157076, -0.226671427488,
0.123139478266, -0.001549654407, -0.028979822993, -0.095699675381,
-0.086509026587, -0.004122046754, -0.056437954307, 0.117674492300,
0.070208005607, 0.018236845732, 0.084054514766, -0.003062596545,
0.085382573307, 0.058552611619, -0.100397199392, 0.051622871310,
0.031619131565, -0.044090498239, -0.066975623369, -0.044011175632,
0.151262536645, 0.074679061770, 0.190196692944, 0.093948081136,
0.057014603168, -0.122725911438, 0.057917151600, 0.037002362311,
0.134886607528, 0.252149075270, 0.167818173766, 0.120745435357,
0.011679210700, -0.101262062788, 0.046270772815, -0.019146017730,
-0.043635223061, 0.050839100033, 0.118076123297, 0.162922918797,
0.004351951182, 0.032558713108, -0.110569790006, 0.109373979270,
0.060350965708, -0.121455095708, -0.075210057199, 0.071649417281,
-0.057298414409, -0.139146044850, 0.071844339371, 0.141969516873,
-0.000356803648, 0.026705211028, 0.078671857715, 0.157959729433,
-0.061320137233, -0.016954785213, -0.051116500050, 0.079052343965,
0.156641304493, 0.067709051073, -0.011901585385, 0.159030064940,
0.024105209857, 0.024727966636, -0.016644909978, 0.090956948698,
0.068272806704, -0.120446413755, -0.069474056363, 0.157607629895,
-0.128683164716, 0.005104084965, 0.054561179131, 0.081580683589,
-0.007455537561, 0.039365720004, -0.049737956375, -0.168953239918,
0.023207249120, 0.034024696797, -0.069498918951, -0.159508481622,
0.004171424545, 0.101956136525, 0.041683577001, 0.062000885606,
-0.130064129829, -0.013784757815, 0.053552921861, 0.127448022366,
0.006009377073, -0.147300407290, 0.034289453179, 0.067850284278,
0.016380524263, -0.083489783108, -0.157425969839, -0.130487173796,
0.072014868259, -0.102252982557, -0.088997684419, 0.148898869753,
0.051436834037, 0.081586197019, -0.048250719905, -0.073318742216,
0.021638460457, 0.035948693752, 0.015011201613, 0.148997411132,
0.103868275881, -0.043624412268, 0.026677507907, -0.071777537465,
-0.073945641518, -0.117551229894, -0.028613008559, 0.076085738838,
-0.037437185645, 0.116148486733, -0.021860292181, -0.025085637346,
0.159414410591, 0.008434273303, 0.030798932537, 0.004087375943,
0.059869166464, -0.007518342696, 0.058383338153, 0.017696645111,
0.232830673456, 0.352026313543, 0.253918886185, 0.243507564068,
-0.036832246929, 0.065796077251, -0.062746152282, -0.131391972303,
0.048195883632, -0.003835743759, -0.050673488528, -0.114087715745,
-0.051855117083, 0.085234239697, 0.075531080365, 0.033977575600,
-0.009979123250, -0.022096473724, -0.064023919404, -0.002661920851,
-0.052007328719, -0.048868875951, 0.025778273121, 0.052808169276,
-0.049676686525, -0.021762099117, -0.070443652570, -0.208850249648,
-0.073204286397, -0.091392189264, 0.080957703292, 0.137228861451,
-0.099391169846, -0.076999031007, 0.100908041000, 0.147525310516,
-0.073016673326, -0.037614069879, -0.046933297068, 0.121891148388,
0.023405453190, -0.017003983259, 0.065567173064, -0.046672485769,
-0.107057087123, 0.008822835982, -0.115908510983, 0.024307435378,
-0.008631965145, -0.083599388599, -0.079841472208, 0.131518349051,
-0.052227094769, -0.103022918105, 0.046987887472, 0.136344566941,
0.011515292339, 0.051026746631, 0.076602958143, -0.040640998632,
-0.073390960693, -0.079957388341, 0.076401978731, -0.019582206383,
0.040683522820, 0.091410443187, 0.064459912479, -0.100114367902,
0.112870343029, -0.005725353025, -0.060546837747, -0.044113487005,
-0.096305362880, -0.017194617540, 0.115688510239, 0.144837260246,
0.076591074467, -0.031210685149, 0.066316224635, -0.017143832520,
-0.074256494641, 0.028802126646, 0.012468216009, 0.092479012907,
0.029298705980, 0.082743905485, -0.065510533750, 0.117068402469,
0.074504025280, -0.033337160945, 0.077084884048, 0.136043116450,
-0.037320878357, -0.126508772373, 0.043828628957, -0.095379061997,
0.005004429724, 0.019018918276, -0.137515842915, -0.145196482539,
-0.021570164710, -0.123075447977, 0.039157904685, -0.108169615269,
-0.097841158509, -0.038595046848, -0.040297672153, -0.096925638616,
0.015649346635, 0.113062694669, -0.115667447448, -0.077668614686,
0.012471331283, -0.023566238582, 0.077421195805, 0.133575186133,
-0.017615716904, -0.011035767384, -0.005922503304, -0.141931325197,
0.077066540718, -0.054202258587, -0.006228621583, -0.030998356640,
0.034165158868, -0.133263111115, 0.066191174090, 0.100722275674,
0.075933195651, 0.065265946090, 0.022683579475, -0.170005708933,
-0.117995113134, 0.102113805711, -0.071994788945, -0.076132707298,
-0.054164409637, -0.089198611677, 0.058844141662, 0.109007969499,
0.036717414856, 0.029668398201, -0.010749378242, -0.006345189642,
0.057483371347, -0.078299462795, -0.061954479665, 0.142463758588,
0.003538853256, 0.016917204484, -0.014206719585, 0.121574476361,
0.105007268488, -0.053858663887, -0.067683473229, 0.107149995863,
0.090924769640, -0.080349355936, 0.085112959146, 0.137493878603,
0.025015976280, -0.009072576649, 0.024408521131, 0.078605949879,
-0.003688346827, 0.021431589499, -0.051804732531, 0.019893720746,
-0.065001912415, 0.068919174373, -0.061637192965, 0.037335116416,
0.146351337433, 0.154870018363, -0.033847864717, -0.013980551623,
0.064777359366, -0.013440643437, 0.042722992599, 0.082466103137,
0.062001150101, 0.057416584343, 0.057288985699, -0.148445188999,
0.119075164199, -0.010955085047, 0.066780008376, -0.021180931479,
0.030676236376, -0.034934852272, -0.054922733456, 0.097768411040,
0.097291029990, 0.076080754399, 0.011011077091, 0.075212232769,
-0.067153021693, -0.092807002366, 0.071036130190, 0.067304037511,
-0.076150797307, -0.006286764517, 0.094037391245, -0.116203933954,
-0.032739646733, -0.000367386587, 0.009791471064, -0.098981425166
};
const FDATA_T lstm_recurrent_kernel_i_1[LSTM_OUTPUT_SIZE1*LSTM_OUTPUT_SIZE1] = {
	-0.095020875335, -0.039832498878, 0.098874434829, 0.000718974043, 0.177219003439, -0.324623048306, -0.061668805778, -0.086976133287, 0.164263680577, -0.043247465044, -0.046560365707, 0.044837277383, 0.184464454651, 0.035868212581, -0.045705761760, -0.003678250592, 0.052221462131, 0.087425753474, 0.008980419487, -0.051974687725, 0.028474075720, -0.251302212477, -0.241870462894, 0.079724200070, -0.059397567064, -0.166655883193, 0.132345229387, 0.021858943626, -0.004775533453, 0.179873868823, 0.169435188174, 0.141955226660, -0.096917696297, -0.091959305108, -0.019269198179, 0.257618635893, 0.020922839642, -0.108762040734, -0.206173539162, 0.171309649944, -0.253757745028, 0.191021442413, -0.007860351354, 0.108553774655, -0.201098933816, 0.010619220324, 0.229312866926, 0.020399920642, 0.176440969110, -0.080725602806, 0.162217631936, -0.078773558140, -0.001344522811, 0.010372787714, 0.006840084679, -0.212143227458, 0.065838836133, -0.008769928478, 0.122027993202, -0.063237629831, -0.259249269962, -0.089708790183, 0.119912393391, -0.100159339607, 0.045436777174, -0.062282763422, -0.073970869184, -0.289243727922, -0.174190595746, 0.089002631605, 0.289392560720, -0.051768876612, -0.130325645208, 0.045297879726, 0.133944913745, 0.267030507326, -0.208358272910, -0.048589568585, 0.127745777369, -0.086885683239, -0.101636268198, -0.174988299608, -0.012260137126, -0.092684671283, -0.174246340990, -0.058620359749, 0.012444820255, -0.189097955823, -0.203412473202, -0.142441257834, 0.039677489549, 0.160927295685, 0.179264619946, 0.118876546621, 0.010516593233, 0.055886637419, 0.020453799516, 0.239596933126, 0.176640808582, -0.018659165129, -0.014260805212, -0.033210325986, -0.052427154034, 0.042208135128, 0.096900165081, -0.010477630422, -0.103589750826, -0.096104472876, 0.120891124010, 0.045718848705, -0.202970594168, 0.025428149849, -0.065939933062, 0.089783899486, 0.057826139033, 0.078643955290, 0.168491467834, 0.110670708120, -0.154321506619, 0.192354202271, 0.091449446976, 0.136950522661, -0.079545088112, 0.023885097355, 0.054501112550, -0.147801339626, -0.065965563059, -0.127707034349,
-0.100863829255, 0.195760905743, -0.226833611727, -0.199016511440, 0.056500982493, -0.165043711662, -0.073460556567, -0.065455973148, 0.146799474955, -0.015762897208, -0.182514667511, 0.003397930879, -0.156363949180, -0.115413375199, -0.113530166447, -0.096936754882, 0.019267655909, 0.207679539919, -0.189776450396, 0.028698958457, -0.014393812977, -0.094980724156, -0.175347790122, -0.047034967691, 0.330372631550, -0.035820055753, 0.033796366304, 0.320118457079, 0.007703735959, 0.138466894627, -0.042612418532, 0.179860517383, -0.102275900543, -0.118470355868, -0.140973001719, 0.132323816419, -0.327273458242, -0.097280427814, 0.045543726534, 0.142623081803, 0.065736711025, 0.013438307680, 0.082001194358, 0.176585808396, -0.007376311813, 0.146507874131, 0.132901504636, -0.195996269584, -0.220684722066, -0.083129145205, 0.203150093555, -0.004192216322, -0.150725007057, 0.247189849615, 0.057050585747, -0.167027667165, 0.083127588034, -0.036254115403, 0.087892547250, 0.037111375481, -0.244684532285, -0.053597643971, 0.312645643950, -0.065554626286, 0.214688643813, -0.035821672529, -0.153633818030, -0.034708309919, -0.229601219296, 0.019489225000, 0.093322090805, 0.196883276105, -0.284022033215, 0.177745282650, 0.067750468850, 0.082916237414, 0.234239414334, -0.142307415605, -0.225048407912, 0.180246144533, -0.150461912155, -0.107598915696, -0.108739204705, -0.069072715938, -0.066570870578, -0.025341950357, 0.111892208457, -0.100901678205, -0.145107328892, -0.153879702091, 0.231718063354, 0.000052392366, 0.186794474721, 0.106738574803, 0.160348251462, 0.079420216382, 0.090917058289, 0.268130034208, 0.140674695373, -0.017636857927, -0.256141930819, -0.099270410836, -0.113733336329, 0.239097476006, 0.096775449812, -0.099559642375, 0.190636768937, 0.064531691372, 0.259962439537, -0.084554813802, -0.032816488296, -0.003943827469, 0.073426485062, 0.111145958304, -0.027878168970, -0.122720181942, 0.031575851142, -0.030144888908, -0.064567893744, -0.175910443068, 0.183332890272, 0.236008673906, 0.003757660510, -0.132779017091, 0.282277256250, -0.042409930378, -0.033699721098, -0.233121529222,
-0.136139079928, 0.016177523881, -0.146026253700, -0.297382354736, 0.146978899837, -0.343277812004, -0.174086809158, -0.149034067988, 0.303539603949, -0.188629522920, -0.107138849795, 0.010047681630, 0.186559692025, -0.101446077228, -0.239931702614, -0.086765117943, 0.001503581647, 0.337815701962, -0.061284258962, -0.067216120660, 0.064576804638, -0.246069729328, -0.469935148954, 0.053557988256, 0.194261267781, -0.069616176188, 0.134082585573, 0.294263184071, -0.071208350360, 0.298804372549, 0.115820147097, 0.439602345228, -0.361008793116, -0.060920275748, -0.118480764329, 0.160121217370, -0.247518911958, -0.266293466091, -0.225422099233, 0.109320342541, -0.177100092173, 0.276441067457, 0.009185300209, 0.216769441962, -0.219622582197, 0.141194507480, 0.291060805321, -0.213129609823, 0.199704632163, -0.076655127108, 0.525099396706, -0.049924436957, 0.011623731814, 0.055591486394, 0.037729311734, -0.414701700211, 0.111132852733, -0.011910163797, 0.316018640995, -0.027448980138, -0.495550304651, -0.084539189935, 0.275332510471, -0.035484805703, 0.097154200077, -0.261580288410, -0.097529366612, -0.291968762875, -0.304145544767, 0.157622963190, 0.112692572176, -0.004204466008, -0.558721899986, 0.029390882701, 0.294173806906, 0.334174543619, 0.084480255842, -0.118176750839, -0.067109763622, 0.209444731474, -0.173261478543, -0.162584468722, -0.041897129267, -0.189399257302, -0.236098438501, -0.082392759621, 0.186747699976, -0.259351015091, -0.511169612408, -0.291263043880, 0.139498665929, 0.161139503121, 0.405558615923, 0.143230959773, -0.006451847032, 0.089432775974, 0.100220784545, 0.183480843902, 0.048474643379, -0.062450155616, -0.276017487049, -0.190235584974, -0.088515482843, 0.134149223566, 0.091058053076, -0.061669342220, -0.011649689637, 0.018644988537, 0.361267030239, 0.016009524465, -0.425703644753, 0.003829044988, -0.217550411820, 0.175854668021, 0.084607884288, -0.033644892275, 0.064936682582, 0.079439923167, -0.150484398007, 0.159502282739, 0.106480687857, 0.503345489502, -0.035389844328, -0.084925130010, 0.368784368038, -0.171670526266, -0.104278266430, -0.184801980853,
-0.311595678329, -0.035425178707, -0.255221515894, -0.400801748037, 0.119351685047, -0.205899044871, -0.279865473509, -0.172494858503, 0.075080007315, -0.141990229487, -0.330732256174, -0.064945735037, 0.157129436731, -0.205614030361, -0.327530413866, 0.012245940045, -0.005601578858, 0.334554225206, 0.018495932221, -0.136422604322, -0.015895968303, -0.104885816574, -0.472922533751, 0.129828467965, 0.263507872820, -0.169003173709, 0.171760588884, 0.194865688682, -0.077093020082, 0.178562253714, 0.023866230622, 0.390319287777, -0.290738493204, 0.047415256500, -0.176297679543, 0.337916642427, -0.309078097343, -0.303225427866, 0.024458279833, 0.178938165307, 0.017591446638, -0.011843302287, 0.150496095419, 0.223382517695, -0.205388113856, 0.172558620572, 0.173392400146, -0.201530426741, 0.023082667962, -0.217076495290, 0.481987863779, -0.111050002277, -0.129203632474, 0.104180298746, -0.116752088070, -0.293770819902, 0.040746852756, -0.029653048143, 0.318794459105, 0.120997361839, -0.403229564428, -0.151156499982, 0.433393448591, -0.018127752468, 0.172973185778, -0.342326879501, -0.136616662145, -0.079293087125, -0.401825636625, 0.235208213329, 0.138257414103, 0.099993333220, -0.498388260603, 0.218020677567, 0.295916765928, 0.117907285690, 0.194358110428, -0.156197667122, -0.151780545712, 0.387832224369, -0.167913332582, -0.186312958598, 0.102601952851, -0.273500770330, -0.306174844503, -0.160604983568, 0.110295154154, -0.187383905053, -0.481334477663, -0.285745501518, 0.231998950243, -0.019316935912, 0.450219929218, 0.318673878908, -0.111227035522, 0.057549435645, -0.037281438708, 0.042028851807, 0.052609730512, -0.152964144945, -0.509901881218, -0.298050880432, -0.282339334488, 0.345787972212, 0.121113896370, -0.134920731187, 0.168529927731, -0.105521254241, 0.422924011946, 0.079871349037, -0.376280456781, -0.011437906884, -0.221606045961, -0.003444593167, 0.053705867380, -0.141349628568, 0.120373561978, -0.054522145540, 0.036506492645, 0.180800616741, 0.090112172067, 0.534619331360, 0.014140821993, -0.169731527567, 0.270869046450, -0.353082776070, -0.000871362863, -0.100031390786,
0.033889956772, -0.017774138600, -0.007362770382, -0.066815212369, -0.002406585030, 0.143999874592, 0.052289012820, -0.120689824224, -0.000351495401, -0.151812925935, -0.148800343275, -0.008952413686, 0.134032160044, 0.016429729760, -0.075810730457, 0.047460649163, 0.196259230375, 0.150949403644, 0.006747356150, -0.098268859088, -0.049284853041, 0.011769376695, -0.126313209534, 0.078576192260, 0.052386038005, -0.104972258210, 0.123440340161, -0.163368672132, 0.063718520105, -0.110677726567, -0.061905477196, 0.135265573859, 0.049569804221, 0.087138548493, -0.128081858158, 0.072786226869, 0.004177701660, -0.007804118097, 0.102863460779, 0.180722594261, 0.044359594584, -0.123408704996, 0.171661347151, -0.028920056298, -0.128055125475, 0.028612501919, -0.024437241256, -0.002520538867, 0.078305162489, -0.035231839865, -0.021134460345, -0.069494359195, -0.103299826384, -0.086347036064, -0.145369857550, -0.036019630730, -0.117102600634, -0.057424850762, 0.046568747610, 0.061215505004, -0.122292049229, -0.104995720088, -0.002288483782, 0.041009254754, 0.003388361540, -0.064053505659, -0.084745608270, -0.014452436939, -0.033220939338, 0.051513984799, -0.036341875792, 0.112746745348, -0.092458382249, 0.152732163668, -0.012116008438, -0.114862658083, 0.124945893884, 0.045393448323, -0.049745183438, 0.052492905408, 0.081289961934, -0.004171589855, 0.062388028949, -0.145043238997, -0.098020903766, -0.072169825435, -0.089655064046, 0.110251516104, -0.029648313299, -0.043204512447, 0.087399303913, -0.041197326034, 0.060316927731, 0.085801638663, -0.069968067110, 0.114328853786, -0.016386024654, -0.131157010794, -0.138012573123, -0.028650611639, -0.093201421201, -0.061586394906, 0.054556470364, 0.112468324602, -0.015537779778, 0.019501026720, 0.093955785036, -0.068490460515, 0.053249754012, 0.029191697016, -0.019625106826, 0.014721817337, 0.025803972036, 0.001468668110, 0.020631212741, -0.071267224848, 0.016469771042, -0.083557970822, 0.038647223264, -0.011827015318, 0.018494205549, 0.097362935543, 0.065643958747, -0.166595965624, -0.072735868394, -0.103152289987, 0.021522438154, 0.027914665639,
-0.122857771814, -0.136519610882, -0.178234070539, -0.331171452999, 0.008687613532, 0.018353749067, 0.013374856673, -0.219017565250, -0.121952205896, -0.198065221310, -0.225076824427, 0.002345195040, 0.019513120875, -0.052998431027, -0.245090946555, 0.163537964225, 0.170928135514, 0.330491304398, 0.076807409525, -0.206156179309, -0.156081914902, -0.008499991149, -0.331390410662, 0.282514214516, 0.186567023396, -0.207280412316, 0.112288095057, -0.065865315497, -0.051560554653, -0.042573910207, -0.134933963418, 0.261122375727, 0.035735972226, 0.097237326205, -0.239938244224, 0.196414396167, -0.221730217338, 0.126117333770, 0.103431925178, 0.185287460685, 0.033597536385, -0.074374936521, 0.151168480515, 0.172021761537, -0.268420934677, 0.232331514359, -0.035956688225, -0.121232800186, 0.051730379462, -0.148317247629, 0.248840585351, -0.228506401181, -0.086493834853, 0.038097541779, 0.002487425925, -0.141229644418, -0.205062910914, 0.019555069506, 0.095538981259, 0.114579610527, -0.251414060593, -0.152380004525, 0.147065430880, 0.204350963235, 0.136386305094, -0.131100758910, -0.123060911894, 0.013986929320, -0.163168638945, 0.245984122157, -0.087578855455, 0.118805974722, -0.215064957738, 0.213503643870, 0.204891413450, -0.160062745214, 0.100875601172, 0.018451347947, -0.090093158185, 0.198131874204, 0.026640063152, -0.117914840579, 0.001840558252, -0.222599238157, -0.300884753466, -0.110803417861, 0.070800207555, 0.057449728251, -0.138339683414, -0.241204515100, 0.201221883297, -0.066963531077, 0.340372174978, 0.154502749443, -0.124922938645, 0.072754628956, -0.059100639075, -0.024639438838, -0.132674172521, -0.086976051331, -0.218714609742, -0.136869341135, 0.038502465934, 0.298188030720, -0.126489028335, 0.067011304200, 0.200093969703, -0.164597138762, 0.264658302069, 0.053680162877, -0.233788907528, 0.127294227481, -0.220262423158, -0.134071439505, 0.070312231779, -0.175246521831, -0.079705379903, -0.041834838688, 0.015979254618, -0.078340992332, -0.059441875666, 0.252841770649, -0.019079918042, -0.228565886617, 0.021147871390, -0.275076538324, 0.105273969471, -0.083969607949,
-0.021676909178, 0.049250643700, -0.101872317493, 0.023562440649, 0.055763758719, 0.049254655838, 0.008926648647, 0.022817727178, -0.050006914884, -0.055419087410, -0.055957488716, 0.074944265187, -0.063660189509, -0.023837346584, 0.016190752387, 0.079361058772, 0.064722061157, 0.025045538321, -0.006838955451, -0.116490624845, -0.026669962332, 0.060121279210, -0.023618277162, 0.009850006551, 0.058414660394, -0.100085750222, 0.067702636123, -0.026171665639, -0.021809885278, -0.074919737875, 0.041962474585, 0.096144147217, -0.033382046968, 0.049156561494, -0.086053192616, 0.011724033393, -0.037685051560, 0.029385987669, 0.036928601563, 0.032430484891, 0.008445776068, -0.084505423903, -0.014560994692, -0.007346434519, 0.007016443647, 0.063866533339, 0.046574469656, 0.052366420627, -0.015182751231, -0.031960301101, 0.002730903216, 0.051843099296, -0.043757438660, 0.039968680590, -0.037635158747, -0.036398515105, -0.046243734658, 0.006477053743, -0.043643362820, -0.010356729850, -0.139785185456, 0.044026304036, 0.047486431897, -0.005704881158, 0.020261494443, 0.005364501383, -0.005998988636, -0.035673737526, -0.083930023015, 0.060897707939, -0.109249003232, 0.008212774992, -0.033825334162, 0.035816248506, -0.011249294505, 0.013908663765, -0.017317520455, -0.016765542328, 0.101843900979, 0.038626596332, -0.016995627433, -0.009270408191, -0.078663975000, -0.044661946595, -0.049367021769, 0.007978117093, 0.035561788827, 0.025457259268, -0.016334254295, -0.038041111082, 0.036134254187, 0.039611291140, 0.089673094451, 0.032680749893, -0.082140520215, 0.057592935860, 0.050057433546, 0.042316734791, -0.063131719828, 0.052501641214, -0.074767962098, -0.042204629630, 0.019740946591, 0.082490123808, 0.028922090307, 0.049765300006, 0.057688824832, -0.001580569544, 0.129870757461, 0.025141585618, -0.101781368256, -0.030786681920, -0.087018549442, -0.001495324308, -0.004933209158, -0.086170092225, 0.000998524949, 0.013618270867, 0.017272846773, -0.130010515451, -0.074397064745, 0.131417945027, 0.045825257897, -0.009406934492, 0.118099667132, -0.001003473415, 0.092793114483, -0.016552489251,
-0.011383792385, -0.077726095915, 0.049455601722, 0.068866841495, 0.172181680799, -0.324818432331, -0.084015756845, -0.042592011392, 0.218822911382, -0.138185381889, 0.033685572445, 0.096849992871, 0.012815457769, 0.132342651486, -0.027356168255, 0.022695101798, -0.061094537377, 0.005921773147, -0.119390383363, 0.075639910996, 0.035770550370, -0.254501760006, -0.114465519786, 0.091657623649, -0.074387684464, -0.076075665653, 0.095559470356, 0.086023814976, -0.032385852188, 0.177097544074, 0.125727191567, 0.108568735421, -0.186584949493, -0.062018506229, -0.008103237487, 0.093621812761, -0.045616328716, -0.098838739097, -0.204569354653, 0.049425605685, -0.218510031700, 0.220151364803, -0.070863626897, 0.037106171250, -0.134902253747, 0.049550857395, 0.226975083351, -0.011403411627, 0.006323430222, 0.005968370009, 0.038497544825, -0.132864817977, 0.118259437382, 0.040255572647, -0.021661954001, -0.194067567587, 0.189228251576, 0.060107722878, 0.158435165882, -0.074043460190, -0.099303595722, -0.019996786490, -0.017047831789, -0.070150271058, 0.082399576902, -0.097537063062, 0.043623436242, -0.275513350964, -0.139925822616, 0.095279499888, 0.082574717700, -0.029629642144, -0.099056705832, -0.061909992248, 0.067338965833, 0.185191959143, -0.261083483696, -0.147260352969, 0.179011747241, -0.050914444029, -0.099657073617, -0.036481313407, -0.042321868241, -0.122114479542, -0.116226404905, 0.061843544245, 0.168370738626, -0.239319324493, -0.115843936801, -0.070202954113, 0.027467843145, 0.171515420079, 0.126906737685, 0.138485059142, 0.147788897157, 0.137398943305, 0.108656197786, 0.147942706943, 0.164215832949, -0.042773660272, 0.055163651705, -0.038348231465, -0.106791116297, 0.057378325611, 0.114683158696, -0.128899425268, -0.091835618019, 0.026465149596, 0.023246912286, 0.045816801488, -0.056699171662, -0.069590091705, -0.003165374277, 0.102916464210, 0.030087381601, 0.107885248959, 0.137725770473, 0.185873806477, -0.154645428061, 0.129143789411, 0.135364785790, 0.103950016201, -0.022333811969, -0.047187753022, 0.105545960367, -0.102460257709, -0.062318082899, -0.166002362967,
-0.051559638232, -0.009471102618, -0.079112552106, 0.011234056205, 0.044692240655, 0.051179450005, -0.010640271008, 0.062174238265, -0.052697479725, -0.144384175539, -0.038007091731, -0.004680459853, 0.101788185537, -0.065857663751, 0.031421955675, 0.117035783827, 0.070309847593, 0.042662579566, -0.082324258983, -0.049999970943, -0.078607641160, 0.016455974430, -0.121319599450, 0.135816469789, 0.109211713076, -0.074323549867, 0.085967779160, -0.006705033127, -0.079693950713, -0.025758707896, -0.090937294066, 0.091931641102, 0.042520236224, 0.044098235667, 0.074312381446, 0.167740255594, -0.074349731207, 0.073625199497, 0.035635985434, 0.076538003981, 0.009488299489, -0.064153887331, 0.067588254809, 0.004951135721, -0.026754466817, -0.055314857513, -0.012232109904, -0.020683864132, 0.007138897199, -0.062673904002, 0.048450399190, -0.102264903486, -0.063975788653, -0.031274013221, -0.039988964796, -0.041586261243, -0.028194148093, -0.039523765445, 0.045827820897, -0.016681883484, -0.127408266068, -0.074656054378, -0.008510657586, 0.067494109273, 0.051527399570, -0.032877482474, -0.016008019447, -0.017289783806, -0.118635781109, 0.080438315868, 0.025362633169, -0.050472874194, -0.055628504604, 0.098938859999, -0.014937072992, -0.032262511551, 0.103866718709, 0.058153569698, -0.142620518804, 0.023607254028, 0.028544310480, 0.063461273909, -0.022333290428, -0.053249347955, 0.015937283635, -0.004702509847, 0.098488107324, 0.127363458276, -0.037190623581, -0.094627819955, 0.019145945087, 0.039097800851, 0.045625165105, 0.078846640885, -0.068846911192, -0.052713431418, -0.044784419239, -0.012262265198, -0.055982854217, -0.000522757357, -0.042902503163, -0.093805365264, -0.023795349523, 0.072277799249, 0.051632415503, 0.014433340169, 0.002380562248, -0.056016579270, 0.120686724782, 0.052118815482, -0.028014287353, -0.031183870509, -0.143792256713, 0.067145094275, -0.010721161030, -0.038168709725, -0.059270966798, -0.022407403216, 0.002987564076, -0.010740693659, -0.046134073287, 0.096236705780, 0.022642143071, -0.093409456313, 0.042744744569, -0.065535001457, 0.095410317183, 0.019936339930,
-0.080034479499, 0.080707095563, 0.063071019948, 0.106761276722, 0.157448694110, -0.265234977007, -0.162877663970, -0.168104082346, 0.195632800460, -0.028915863484, -0.062436349690, 0.139268577099, 0.054979197681, 0.041741695255, -0.102512538433, -0.136715814471, 0.091608978808, 0.046063262969, -0.015468246303, 0.030645942315, -0.015668332577, -0.234319865704, -0.089265458286, -0.039180871099, 0.023239634931, -0.078232765198, 0.089082494378, 0.125642523170, 0.013261579908, 0.228533729911, 0.066647060215, 0.100622318685, -0.204055815935, -0.051837030798, 0.002762126736, 0.223164245486, -0.041525196284, -0.120398096740, -0.151201337576, 0.094316914678, -0.194746971130, 0.257923573256, -0.061182845384, 0.108318455517, -0.130979403853, 0.081443183124, 0.237379848957, -0.050189658999, 0.034237217158, -0.069477081299, 0.034741673619, -0.050163801759, -0.000336513476, 0.049319837242, 0.047596316785, -0.205339252949, 0.198014006019, -0.038525559008, 0.126351967454, -0.030831921846, -0.048158377409, -0.085512630641, -0.001177837257, -0.100361786783, 0.045811999589, -0.032571278512, 0.007448068354, -0.164705634117, -0.120352916420, 0.137924745679, 0.166347935796, 0.021465014666, -0.051086120307, -0.033122766763, 0.163533881307, 0.146954685450, -0.273103743792, -0.093577191234, 0.166719749570, -0.041568480432, -0.098568446934, -0.064836740494, -0.057193428278, -0.031718999147, -0.063196018338, 0.013947861269, 0.184998050332, -0.140941768885, -0.079867288470, -0.017824038863, 0.069114312530, 0.202490791678, 0.096652776003, 0.074546687305, 0.108210660517, 0.088701963425, 0.033386498690, 0.121303610504, 0.185798227787, -0.006218140014, -0.038598839194, -0.038557462394, -0.100926451385, -0.004362880718, 0.178219482303, -0.087686516345, -0.083312332630, -0.007951042615, 0.052194342017, -0.036419574171, -0.151392683387, -0.010209089145, -0.095035053790, 0.062472149730, 0.092314265668, 0.172050520778, 0.108052685857, 0.207627266645, -0.187880441546, 0.099674984813, 0.155615955591, 0.057994000614, -0.074867501855, 0.049227993935, 0.120254039764, -0.130060032010, -0.026605326682, -0.134398818016,
-0.046411965042, -0.008386702277, -0.032928600907, -0.090451866388, 0.124179400504, -0.344385623932, -0.168292999268, -0.087864033878, 0.248177200556, -0.183413222432, -0.015699317679, 0.041102807969, 0.196666508913, -0.143069326878, -0.156592383981, -0.129646465182, -0.057610765100, -0.014839023352, -0.035381991416, -0.036751020700, 0.099927455187, -0.330766260624, -0.231121420860, 0.123310983181, 0.037281624973, -0.175693988800, 0.085954211652, 0.119771890342, -0.044783238322, 0.199429497123, 0.131612554193, 0.216662093997, -0.190830424428, -0.152092292905, -0.091618046165, 0.154909938574, -0.102223642170, -0.100350439548, -0.368290394545, 0.235739782453, -0.355929493904, 0.263092249632, 0.033377353102, 0.027416341007, -0.121934130788, -0.057890772820, 0.212700054049, -0.127981722355, 0.200132578611, -0.106610991061, 0.400490939617, -0.070338971913, -0.045629683882, 0.048327736557, -0.064638972282, -0.282229512930, 0.131243601441, -0.080119110644, 0.205517530441, -0.020374391228, -0.269073188305, 0.013633163646, 0.044378522784, -0.084451682866, 0.055380836129, -0.123256653547, -0.135063454509, -0.336294621229, -0.137288793921, 0.182511910796, 0.123415313661, -0.038985576481, -0.328704655170, 0.071190305054, 0.147664323449, 0.210679069161, -0.042617075145, -0.038366425782, 0.065549813211, 0.128754988313, -0.116542361677, -0.210918918252, -0.066713646054, -0.129894599319, -0.262862265110, -0.084553822875, 0.100840769708, -0.265901893377, -0.194041877985, -0.180255845189, 0.123644568026, 0.153913050890, 0.234876617789, 0.104748584330, 0.161524921656, 0.054120857269, 0.028293458745, 0.144149467349, 0.122805289924, -0.047029640526, -0.095858655870, -0.098669804633, -0.159822836518, 0.151180684566, 0.078730739653, -0.146821096539, -0.053106706589, -0.054585151374, 0.228545472026, -0.001295911381, -0.288211554289, -0.032454967499, -0.106433399022, 0.127423033118, -0.046111013740, 0.081736661494, 0.087917774916, 0.181811496615, -0.310592800379, 0.159470677376, 0.109107673168, 0.283847719431, 0.027714902535, -0.033604029566, 0.133653596044, -0.105055198073, -0.013372631744, -0.101791001856,
0.026667248458, -0.012155259028, 0.073981113732, 0.084714107215, 0.043563615531, -0.032576028258, -0.049175623804, -0.041958387941, 0.085238642991, -0.055120568722, -0.025603542104, 0.079796791077, 0.023040352389, 0.023019392043, -0.043065167964, -0.026652751490, 0.016451930627, 0.131157889962, -0.066805593669, 0.010784639046, 0.004851037171, -0.057885490358, -0.074459485710, 0.027358882129, 0.007275931537, -0.009982208721, 0.021764440462, -0.055606670678, -0.077378056943, 0.055961653590, -0.040163680911, 0.161918357015, 0.007015354000, 0.024923153222, -0.002322399989, 0.007883370854, -0.179309561849, 0.056014776230, -0.073086291552, 0.004819094669, -0.071298025548, -0.013054179028, -0.039843436331, 0.008599742316, 0.064432717860, 0.003604998812, 0.016999762505, -0.025144649670, -0.022355079651, -0.007537506055, 0.015375936404, 0.029571186751, -0.033882848918, 0.151102781296, -0.028989581391, -0.043093536049, 0.054797325283, 0.041508845985, 0.003866552142, 0.018508104607, -0.133082956076, -0.075950168073, 0.075636789203, 0.017346739769, -0.021720459685, -0.026958186179, -0.038367044181, -0.018460862339, -0.073508113623, 0.071955814958, -0.014488638379, -0.038056179881, -0.087635673583, 0.061882905662, -0.054524473846, 0.000191458152, -0.145252838731, -0.023883873597, 0.060366589576, 0.021543558687, -0.168382525444, 0.018645178527, -0.063043475151, -0.035396505147, -0.043249275535, 0.006505809724, 0.103876963258, 0.011659157462, -0.112935714424, -0.088380374014, -0.050983153284, 0.003965847660, 0.137280046940, -0.060640990734, 0.038950156420, 0.034712366760, 0.063000373542, 0.166240781546, -0.141024857759, 0.095635153353, -0.017782935873, 0.036171965301, 0.053480323404, 0.149345278740, -0.065601751208, -0.089209765196, 0.001143337693, -0.002325383015, 0.050554048270, 0.050030302256, -0.036960769445, -0.089718066156, -0.014948742464, 0.019207170233, -0.014883298427, -0.030797339976, 0.056902922690, 0.005967590492, -0.008085065521, -0.127480432391, 0.014583963901, 0.088301658630, -0.053511727601, 0.054067507386, 0.119038313627, -0.022107057273, -0.012880393304, -0.058157134801,
0.090292550623, -0.046724673361, 0.120295457542, 0.105374664068, 0.060372516513, -0.174839347601, -0.130266338587, 0.031548496336, 0.064009316266, -0.075792141259, 0.090664789081, 0.151806131005, -0.069753177464, 0.110669583082, 0.021675622091, -0.100759796798, -0.134410575032, 0.062423352152, -0.073996402323, 0.040435615927, 0.092682003975, -0.176534920931, -0.129190549254, -0.067597933114, -0.034618031234, 0.067309789360, -0.098653845489, -0.032254032791, 0.012636250816, 0.145228475332, 0.058709885925, 0.006587652490, -0.119947403669, -0.100235067308, 0.077852956951, -0.068233571947, 0.054555401206, 0.009148121811, -0.049463726580, -0.057591427118, -0.123465783894, 0.122753530741, 0.096562586725, -0.161313354969, 0.054874949157, -0.089618146420, 0.114655755460, 0.067320391536, -0.189038097858, 0.018746204674, 0.280642926693, 0.040506239980, -0.091743111610, 0.141988590360, 0.142525106668, -0.083988606930, 0.056081991643, 0.152836769819, -0.067462272942, -0.168501287699, -0.025224188343, 0.004400428385, 0.077657610178, -0.043266143650, -0.117816008627, -0.052629936486, 0.084598973393, 0.270938515663, 0.015632748604, -0.032391320914, 0.153118416667, -0.095452331007, -0.243249535561, -0.073532007635, -0.018259741366, 0.079373359680, -0.210950925946, -0.130952492356, 0.202806130052, -0.074533700943, -0.083826236427, -0.007116721012, 0.048109330237, -0.059614494443, -0.102853596210, 0.218952655792, 0.119352392852, -0.081513337791, -0.166762441397, 0.029130555689, -0.101398959756, 0.039121907204, 0.109345324337, -0.041055589914, 0.038780637085, 0.099750205874, 0.093456722796, 0.226286947727, 0.067695125937, 0.126599311829, 0.106403060257, 0.181282311678, 0.111692465842, -0.008039678447, 0.068377502263, -0.124741151929, -0.139797583222, 0.083345524967, 0.093681558967, 0.127102017403, -0.123736925423, -0.029419288039, -0.003703369759, 0.127085030079, -0.095829471946, -0.060536723584, 0.163807496428, 0.114552423358, -0.139425575733, -0.005451321136, 0.059747088701, 0.164064079523, -0.161803156137, 0.108797632158, 0.363261312246, 0.036925531924, -0.047927461565, -0.145685866475,
0.011755291373, 0.031765133142, -0.024416908622, -0.057844579220, 0.109099857509, -0.209256425500, -0.126132339239, -0.098528459668, 0.118636243045, -0.083589650691, -0.101686120033, 0.096099190414, 0.111777812243, -0.086049474776, -0.093193352222, -0.024238880724, 0.047206524760, 0.012702639215, 0.076244138181, -0.038626641035, 0.035082422197, -0.129513293505, -0.221178516746, 0.079158678651, 0.045818403363, -0.035896938294, 0.090771414340, 0.086011946201, 0.023779286072, 0.122109338641, 0.140528872609, 0.145333454013, -0.164696350694, -0.127231717110, -0.018079495057, 0.155857756734, -0.080862246454, -0.163507342339, -0.237881466746, 0.139004215598, -0.172622054815, 0.133460313082, 0.131319031119, 0.007010377012, -0.179910823703, 0.009474615566, 0.139161944389, -0.095636226237, 0.129405736923, -0.084846861660, 0.368670046329, -0.152994394302, -0.030262490734, -0.086354434490, -0.012805380858, -0.196548461914, 0.156557977200, -0.076609365642, 0.143763691187, -0.052914571017, -0.135442838073, 0.011248436756, 0.171000152826, -0.029881719500, 0.061127897352, -0.138642638922, -0.098751202226, -0.177131101489, -0.248957142234, 0.043613500893, 0.092114716768, -0.016800543293, -0.293662160635, 0.025181768462, 0.138341367245, 0.157533824444, 0.069914802909, -0.106064572930, -0.000015989877, 0.006548824254, -0.076822437346, -0.117861576378, -0.032796613872, -0.085419088602, -0.039432041347, -0.053291622549, 0.102924369276, -0.146767511964, -0.177937179804, -0.120053224266, -0.030609939247, 0.085936754942, 0.280309677124, 0.157724276185, 0.040816191584, -0.005171074998, 0.021002307534, 0.039916146547, 0.054208498448, -0.047990702093, -0.086212515831, -0.130885437131, -0.186587050557, 0.000276532432, 0.120284378529, -0.102574251592, -0.079865619540, -0.068767331541, 0.150924965739, 0.041750114411, -0.171966791153, -0.083271861076, -0.052955020219, 0.030967919156, -0.005259349011, 0.048837609589, -0.001867104555, 0.151344433427, -0.141114309430, 0.249619692564, 0.170613348484, 0.183528289199, -0.021618532017, 0.000986166648, 0.139654308558, -0.174420326948, -0.143680870533, -0.056223582476,
0.005773752462, -0.037328287959, 0.067183546722, 0.083334237337, 0.155781507492, -0.353215128183, -0.121615618467, -0.154453665018, 0.211879789829, 0.020366968587, 0.026964344084, 0.071573562920, 0.156210497022, 0.064470335841, 0.033573243767, -0.064070805907, -0.021164491773, 0.011665164493, 0.017154250294, -0.033806476742, 0.014600329101, -0.256156742573, -0.060442283750, 0.064645029604, -0.015680938959, -0.059654135257, 0.096382044256, 0.030621036887, 0.027559399605, 0.134317561984, 0.045539580286, 0.039641208947, -0.191354528069, -0.087401434779, 0.010821166448, 0.094850555062, 0.023042280227, -0.058357451111, -0.138331040740, 0.107485577464, -0.212127119303, 0.240391314030, 0.081979334354, 0.038749340922, -0.071146726608, 0.050790321082, 0.180680796504, -0.034787770361, -0.029334019870, -0.065816856921, 0.049277756363, -0.004928405397, 0.046544525772, 0.064315766096, -0.000316965306, -0.185165211558, 0.083893127739, 0.041510339826, 0.045812606812, -0.089548073709, -0.125690698624, 0.035062152892, -0.015986183658, 0.002915530233, 0.013839745894, -0.133887454867, -0.019491745159, -0.224657624960, -0.061233628541, 0.100239984691, 0.127112492919, -0.065953686833, -0.186459630728, 0.080402985215, 0.107293970883, 0.271124392748, -0.154452309012, -0.094073228538, 0.006361285225, -0.081347361207, -0.069807015359, -0.049593754113, 0.024785237387, -0.038244973868, -0.051630586386, 0.018404586241, 0.186023995280, -0.209601730108, -0.065343499184, -0.034628748894, 0.003960281145, 0.248867183924, 0.021097695455, 0.106102980673, 0.007373156026, 0.171083986759, -0.014690672047, 0.049466941506, 0.162634551525, 0.037833735347, 0.062583096325, -0.057011105120, -0.110690072179, 0.028630137444, 0.074460662901, -0.115158088505, -0.112510584295, 0.003969004378, 0.121236912906, 0.029034079984, 0.010079869069, -0.093764670193, -0.099240154028, 0.015967871994, -0.007181184832, 0.002668300876, 0.246007353067, 0.155957564712, -0.197309613228, 0.168150797486, 0.224102288485, 0.056822109967, -0.027415677905, -0.001969821751, 0.080290839076, -0.054289925843, -0.126475796103, -0.103655681014,
0.025218874216, 0.003466963535, -0.009791938588, -0.101707704365, -0.022719172761, -0.046425133944, 0.042703554034, -0.022541226819, -0.018224373460, 0.101629681885, 0.010812349617, -0.001003566198, -0.031745631248, -0.032710134983, -0.056576129049, -0.063374869525, -0.029812287539, 0.050148569047, -0.057147532701, 0.025925308466, -0.010270905681, -0.019239684567, -0.070945903659, 0.039147440344, 0.045517832041, -0.067789174616, 0.010215683840, 0.067839995027, -0.051776491106, 0.033724177629, -0.004455002956, 0.035467762500, -0.040796171874, -0.015399519354, 0.005735014100, 0.025263786316, -0.028684483841, 0.094927482307, 0.022580375895, 0.036828573793, 0.002532005310, -0.014381314628, 0.000301837455, -0.026306429878, 0.048554278910, 0.024655897170, 0.005618657917, 0.035703044385, 0.067613370717, 0.001721239183, 0.023280272260, -0.036559231579, 0.111686386168, 0.145646050572, 0.058290034533, -0.042683146894, 0.000808677520, 0.020099533722, 0.058896154165, -0.004336534068, -0.043766409159, -0.059102643281, 0.003465591930, 0.071254901588, 0.031208237633, -0.007918857969, -0.045001942664, 0.007356347051, -0.019819334149, 0.043257266283, -0.009095075540, 0.066836819053, -0.067894428968, 0.022574676201, 0.012718130834, 0.074586413801, 0.011595432647, -0.058847844601, -0.042289569974, 0.181886523962, -0.068085677922, -0.002232682193, -0.156346648932, -0.049572087824, 0.009766561911, 0.002184415469, 0.058398474008, -0.035950157791, -0.080824844539, -0.083103425801, 0.109098680317, 0.042619105428, 0.185832962394, 0.011353305541, 0.042069051415, 0.042336389422, 0.000279082014, 0.049222871661, 0.014617078938, 0.026955172420, -0.093172021210, 0.018559673801, -0.000766100944, 0.084881454706, 0.057055369020, 0.046185962856, 0.112209968269, -0.026902234182, -0.005852824543, 0.040150731802, -0.019598767161, 0.015563349240, 0.019697347656, 0.045730430633, -0.017117837444, -0.009944829158, -0.090708069503, 0.034929651767, 0.045764081180, -0.100031241775, 0.022362427786, 0.149398922920, 0.028886115178, 0.058353204280, 0.096953295171, 0.022699784487, -0.043403454125, -0.025554938242,
-0.024705754593, 0.103024706244, 0.026605121791, -0.044043231755, 0.139089852571, -0.190651297569, -0.054844997823, -0.002983802464, 0.050623178482, -0.042688187212, -0.062731541693, 0.010086443275, -0.048433139920, -0.038001369685, 0.006044458132, 0.010242816992, -0.054662853479, 0.111236244440, -0.070906654000, -0.044063158333, 0.011252518743, -0.092533595860, -0.064552284777, 0.077355526388, 0.083074167371, -0.075618840754, -0.021330803633, 0.236009657383, -0.071684233844, 0.135486528277, 0.014390933327, 0.027579266578, -0.104173153639, -0.072451181710, -0.094104021788, 0.068594373763, -0.024415861815, -0.077606938779, -0.038914140314, 0.090586781502, -0.099324762821, -0.002859997563, -0.187247902155, -0.021665234119, -0.108090981841, 0.069500789046, 0.096506148577, -0.079090751708, 0.046454671770, -0.025369845331, 0.112482853234, 0.027329578996, 0.086340948939, 0.177706167102, 0.006254857872, 0.006558631547, 0.086554720998, 0.013605473563, 0.134104236960, -0.012199760415, -0.081310294569, -0.025413868949, -0.026104023680, -0.074529901147, 0.002335413359, -0.031588852406, 0.004703674465, -0.117112018168, -0.018479170278, 0.152123540640, 0.158352315426, -0.003884456120, -0.115230396390, 0.053519189358, 0.049553908408, 0.076509334147, -0.136909499764, -0.002723380923, -0.039051059633, -0.005151407328, -0.115194052458, -0.013265973888, -0.060711774975, -0.024460906163, 0.026434686035, 0.017600176856, 0.163363277912, -0.100669428706, -0.155482694507, -0.015577540733, 0.033023912460, 0.060151915997, 0.105924561620, 0.043270785362, -0.010158321820, 0.045240744948, 0.002353111980, 0.015099457465, 0.080202102661, -0.020125694573, -0.007192532532, -0.109354458749, -0.043354533613, 0.060687221587, 0.079239703715, -0.114006966352, 0.023905597627, 0.012928862125, 0.118578918278, -0.074624247849, -0.019453113899, 0.068103380501, -0.015843825415, 0.033741630614, 0.017421701923, 0.025593854487, 0.091741755605, 0.049883853644, -0.048957549036, -0.037152197212, 0.048481144011, 0.122686795890, -0.004517899361, -0.047978520393, 0.165899127722, -0.009197056293, -0.020696608350, -0.079242177308,
0.212644442916, 0.064704515040, 0.137262910604, 0.060593839735, 0.261265248060, -0.233746349812, -0.189991891384, 0.176361605525, 0.146145060658, 0.161566942930, 0.080909676850, 0.151092901826, -0.334947705269, 0.070704281330, 0.181724980474, -0.171559065580, -0.233147308230, -0.031656119972, -0.219140574336, 0.222965419292, 0.198068276048, -0.131840392947, 0.033937118948, -0.258704692125, 0.211268588901, 0.218708202243, -0.202905833721, 0.379137337208, 0.145042583346, 0.287806302309, 0.209289461374, -0.081982232630, -0.235525205731, -0.249426543713, 0.179455012083, -0.320059031248, 0.089131310582, 0.056499920785, -0.210581094027, -0.277614206076, -0.149273753166, 0.187297418714, -0.183395281434, -0.090398058295, 0.320916891098, -0.281140863895, 0.215545937419, 0.169710025191, 0.122196659446, 0.216258645058, 0.123183205724, 0.213475227356, 0.065186001360, 0.262823432684, 0.259880691767, -0.088153928518, 0.155514672399, 0.259162694216, -0.171875968575, -0.105903193355, 0.134388431907, 0.212507843971, -0.142427772284, -0.099599339068, -0.120093703270, 0.144325599074, 0.151721745729, -0.219819262624, 0.105914510787, -0.176868915558, 0.165303274989, -0.165081277490, 0.002961505670, -0.283119410276, -0.172475725412, 0.216870844364, -0.184307560325, -0.238978981972, -0.049117553979, -0.143945083022, -0.220771580935, 0.090609669685, -0.177308037877, 0.138189882040, 0.064430251718, 0.213386535645, 0.220848441124, -0.181424304843, 0.053088124841, 0.040800921619, -0.202243894339, 0.151450619102, -0.077825084329, -0.160321787000, 0.190238282084, 0.219825446606, 0.187285125256, 0.361651092768, 0.272778958082, 0.173856914043, 0.077392764390, 0.107658572495, 0.086040601134, -0.112006656826, 0.254675537348, -0.193325489759, -0.211822062731, 0.235035479069, 0.042267821729, -0.266983002424, 0.053899146616, -0.222380921245, 0.268937170506, 0.291850030422, -0.134572938085, 0.220187276602, 0.250062823296, 0.238442763686, -0.115698747337, -0.205088078976, 0.299930512905, 0.109716713428, -0.175193831325, 0.248991072178, 0.357596367598, 0.153933852911, -0.176847383380, -0.261893838644,
0.052473384887, 0.039707381278, 0.007377463393, -0.083007603884, 0.029219223186, 0.041943408549, -0.054936509579, -0.019758841023, 0.008484845981, 0.029495257884, -0.099907331169, 0.059952300042, -0.081557415426, -0.069962158799, 0.030879832804, -0.007181657013, 0.083430394530, 0.108643800020, -0.045550979674, -0.071053661406, -0.013058914803, 0.010033290833, -0.018654767424, -0.019933924079, 0.134966626763, 0.010047952645, 0.054713889956, -0.013802344911, 0.051916349679, 0.065399236977, 0.058794088662, 0.065653748810, -0.006058495492, -0.059326950461, 0.031421456486, -0.037567652762, 0.049996811897, 0.063099704683, -0.007577988319, 0.004264312796, -0.022823661566, 0.021653724834, -0.068700224161, 0.089578330517, 0.018174005672, -0.010617388412, -0.028576526791, 0.006375240628, -0.080519400537, -0.053350642323, 0.103275135159, -0.016069494188, -0.063993901014, 0.146741405129, 0.068155452609, -0.097499452531, -0.056103907526, 0.052749246359, -0.018262548372, 0.023743038997, -0.000591776392, -0.126506716013, 0.077970921993, 0.090352967381, -0.043320901692, -0.050150137395, -0.006635186262, 0.067999489605, -0.067434482276, 0.033196769655, -0.064400285482, 0.023383395746, -0.018577994779, 0.022924162447, 0.032587729394, 0.015116410330, -0.087470777333, -0.027652693912, 0.027029687539, 0.067447528243, -0.063623555005, -0.071391992271, -0.035326305777, -0.087689667940, -0.035077940673, 0.012059909292, 0.051753651351, 0.016804443672, -0.093693494797, 0.014607146382, -0.020217956975, 0.126198068261, 0.057095617056, 0.027895497158, 0.019497970119, -0.008222634904, 0.074792906642, 0.092596724629, 0.035178631544, 0.010774979368, -0.058632448316, -0.012891133316, -0.037510052323, 0.107492014766, -0.013829397969, 0.029067888856, -0.015768820420, 0.086212612689, 0.135086759925, -0.014004164375, -0.034090142697, -0.089271225035, -0.042994588614, -0.018537335098, 0.009693596512, -0.132098555565, -0.040701989084, 0.023059898987, -0.059605795890, -0.177384421229, 0.028221834451, 0.207456558943, -0.074144184589, -0.000503548014, 0.150627613068, -0.073555156589, 0.038722969592, -0.025192247704,
-0.019191581756, 0.146233990788, -0.074944548309, -0.046918645501, 0.042302507907, -0.082929670811, -0.153728932142, -0.044423460960, 0.101765632629, -0.098793342710, -0.064907394350, 0.058250136673, -0.019606161863, -0.006933887489, 0.039495911449, -0.121956944466, -0.073549889028, 0.033169846982, -0.106430619955, 0.021765293553, -0.046637736261, -0.040317360312, -0.129363194108, 0.001283521415, 0.171955406666, -0.046005226672, 0.034072857350, 0.244749054313, -0.039280638099, 0.173428535461, 0.052728377283, 0.088126726449, -0.104156590998, -0.041323449463, -0.061827242374, -0.007924112491, -0.001480383798, -0.103548027575, 0.053157780319, 0.030881583691, -0.105833597481, 0.095960468054, -0.141975864768, 0.015520284884, -0.057165652514, 0.115850679576, 0.051924027503, -0.000304392539, 0.257500410080, -0.043170824647, 0.081961818039, -0.054063223302, 0.190629273653, 0.131543204188, 0.089968070388, -0.196836456656, 0.048681527376, 0.028962017968, 0.004553457722, 0.042873129249, -0.071695275605, -0.031117588282, -0.056493885815, 0.015072984621, 0.033519532531, -0.037883207202, -0.127334579825, -0.114223286510, -0.044086661190, 0.032041374594, 0.135559648275, 0.059442494065, -0.074634820223, 0.006946869660, 0.061299432069, 0.134235844016, 0.012659233995, -0.169993683696, 0.021593729034, 0.054707728326, -0.106658957899, -0.042962040752, -0.185599103570, -0.041647069156, -0.040392801166, 0.017173150554, 0.138162642717, -0.133488327265, -0.098001822829, -0.125300988555, 0.023721953854, 0.083130076528, 0.129956111312, 0.052102256566, 0.089103519917, 0.090167701244, 0.035868190229, 0.146078139544, 0.025216890499, -0.030084438622, -0.017243959010, -0.050003014505, -0.043661277741, 0.030660538003, 0.153808817267, -0.094923466444, 0.017904955894, 0.015821237117, 0.034271638840, -0.075727269053, -0.040014132857, -0.059390682727, 0.018784161657, 0.119321703911, 0.005455011036, 0.130864307284, 0.054010853171, 0.099510528147, -0.141959846020, -0.043712627143, 0.125588282943, 0.075081020594, -0.016156608239, -0.046622443944, 0.125275656581, -0.107437379658, -0.042337935418, -0.067834645510,
-0.118214681745, 0.062617361546, -0.048220206052, -0.072515927255, 0.023649804294, -0.143721938133, -0.067995138466, -0.071876950562, 0.100317656994, -0.052737206221, -0.047347892076, 0.040711883456, 0.142090827227, -0.026003075764, -0.035479996353, -0.028433190659, 0.078896373510, 0.074222683907, -0.023650215939, 0.005524471868, 0.006885390263, -0.115346878767, -0.141224309802, 0.091541498899, 0.123200938106, -0.050147321075, 0.075466938317, 0.103675842285, -0.046746179461, 0.223093077540, 0.076577886939, 0.188007488847, -0.107205964625, 0.027357649058, -0.041428621858, 0.109353989363, -0.033002465963, -0.121142901480, -0.024031544104, 0.085608616471, -0.060514617711, 0.081996813416, 0.007000501268, 0.034309066832, -0.151770263910, 0.049014087766, 0.125013634562, -0.144153550267, 0.126882672310, 0.053484693170, 0.126626327634, -0.031342390925, -0.000769426115, 0.019296552986, -0.029130194336, -0.099923528731, -0.007282377221, 0.056614555418, 0.149790465832, -0.031135585159, -0.128931120038, 0.008895287290, 0.144367739558, 0.002618239028, 0.009383729659, -0.071653671563, 0.006245408207, -0.094513170421, -0.138018384576, 0.124200783670, 0.062725953758, 0.036450959742, -0.180820629001, 0.058418892324, 0.150569796562, 0.097891755402, -0.069153390825, -0.051260244101, 0.002188354731, 0.038770068437, -0.150313153863, -0.010469536297, -0.039105016738, 0.049008168280, -0.108890376985, 0.006711914670, -0.006863593590, -0.062828741968, -0.085027851164, -0.087154813111, 0.033318292350, 0.062695480883, 0.073970742524, 0.078309468925, 0.011649269611, 0.019016981125, 0.064044870436, -0.002689027693, -0.031188931316, -0.080389052629, -0.177856281400, -0.060416389257, -0.107949741185, 0.125486731529, 0.032841600478, 0.001834394759, -0.009105342440, 0.044730067253, 0.172111123800, 0.016481708735, -0.066124863923, -0.048197783530, -0.085103653371, 0.092716246843, -0.011391009204, 0.064375020564, 0.070668220520, 0.145988717675, -0.087510533631, 0.096709169447, 0.102089010179, 0.134188622236, -0.035626046360, -0.004966079257, 0.071702264249, -0.078059360385, 0.018701311201, -0.085583537817,
-0.071800783277, -0.092648424208, -0.193271175027, -0.128779098392, -0.065022945404, 0.077315211296, 0.048061806709, -0.140014335513, -0.065390072763, -0.161907032132, -0.236294776201, -0.019144397229, 0.137355238199, -0.049639839679, -0.122365683317, 0.070883750916, 0.203221574426, 0.160756334662, 0.000750455132, -0.140956714749, -0.109537407756, 0.055154714733, -0.311839401722, 0.144622027874, 0.078621089458, -0.239008128643, 0.100944958627, -0.081420354545, -0.085861310363, -0.100003883243, -0.123802609742, 0.207373559475, 0.076580919325, 0.197836518288, -0.172948628664, 0.161287188530, -0.129795208573, -0.042465910316, 0.044889837503, 0.256282806396, 0.014800153673, -0.056424465030, 0.163733020425, 0.161990284920, -0.208705320954, 0.097149722278, -0.043484885246, -0.046300332993, -0.015134957619, -0.099079996347, 0.002366852481, -0.100837409496, -0.046772774309, -0.004420514219, 0.009110399522, -0.084258198738, -0.045357182622, 0.009565635584, 0.156374663115, 0.071960583329, -0.251125812531, -0.208917781711, 0.031069101766, 0.080399215221, 0.207026675344, -0.184830844402, -0.173307195306, -0.034143634140, -0.260699898005, 0.177676573396, -0.143097102642, 0.122915573418, -0.128521695733, 0.156014651060, 0.085930503905, 0.019924758002, 0.109298847616, 0.095316752791, -0.126527920365, 0.127097353339, 0.024912809953, -0.073090560734, 0.154008612037, -0.192444533110, -0.271005183458, -0.111307501793, -0.052464637905, 0.090266190469, -0.167484894395, -0.119983002543, 0.166646659374, -0.127933487296, 0.073942214251, 0.219142600894, -0.082541033626, 0.015855576843, -0.112503424287, -0.160548865795, -0.074010461569, -0.134553939104, -0.090199731290, -0.097412243485, -0.103865787387, 0.131372690201, -0.072040535510, 0.030802983791, 0.130367085338, -0.173606395721, 0.202508658171, 0.009194973856, -0.144336625934, 0.058197379112, -0.195827841759, -0.193844616413, 0.051523234695, -0.116338461637, -0.020669084042, -0.047046393156, 0.047709494829, 0.046858686954, 0.006244584452, 0.158759966493, 0.094575926661, -0.186812236905, -0.116519697011, -0.238381311297, -0.024598838761, 0.088068731129,
